solver_type L2R_L2LOSS_SVC_DUAL
nr_class 2
label 1 2
nr_feature 4096
bias -1
w
0.008133914314382028 
-0.0232184396199107 
-0.01554567001023909 
-0.02004171227115249 
0.005571001543090977 
0.002179187271741416 
0.003359616625638527 
-0.01042230746872888 
0.007315807297310928 
-0.0156559468026919 
-0.006915622754556413 
-0.01044151221889422 
-0.02018173112418947 
-0.008651371329589982 
-0.009828229057189086 
0.007326361128736927 
0.01194267411736449 
-0.009577351947019126 
0.0006845982909249016 
-0.003990635722084335 
-0.003201487485034122 
0.01528182150325256 
0.0009686465436674694 
0.001053587974497961 
0.008171854105937286 
0.006696112708356907 
0.0002560775034819569 
-0.01088704037012654 
-0.01169854613745445 
-0.001794651414097362 
0.006437858028577861 
0.04072606330304854 
-0.001400482165054873 
0.007988996752303123 
-0.0005090940341714076 
0.006556096412365186 
0.01147635481454224 
0.001394205968106873 
0.006818415056924084 
-0.009699011357553409 
0.02259717604429052 
0.005527251829468185 
0.01295137266154256 
-0.004404694704978499 
0.00362111358836734 
-0.005822979802878846 
0.01274425833865004 
-0.00460365359927516 
-0.01028305452865307 
0.01823376621700503 
0.01065693629575408 
0.01301180561394297 
-0.00743252656344696 
0.006249543038575561 
-0.002016782525823747 
-0.002765086746991393 
0.01458053338694682 
0.00701649804805453 
0.007707074625926872 
-0.00554763976612409 
-0.01602197991337304 
0.003511788309041732 
0.01052575634658467 
0.01622654375398039 
0.001049507153560625 
0.01124008151394307 
0.007715693186791652 
-0.001511351310393181 
-0.01807014955814608 
0.01742037418063613 
0.008940325192255787 
0.01156877532025871 
0.01402364497088469 
0.00765048707786095 
0.01353215568055338 
-0.003930178618012258 
0.006539263806477055 
-0.003012362674307006 
0.01633783708934397 
0.01020976509055588 
0.01062012023045578 
0.002576145495590374 
-0.004504383501672547 
0.002943481169596282 
-0.02681224651035781 
0.008989319060980043 
-0.007041848959566849 
-0.006008120154101482 
0.02811143254082494 
0.01058070032876516 
0.01578743891301712 
-0.002989504063795392 
0.007888676993191271 
0.002930504013663775 
0.01123740133778178 
0.01275192010558797 
0.002177170675300442 
0.006471198748418002 
0.00652646318499067 
0.005343234819189298 
-0.003680682202140058 
0.001545597600309465 
-0.00349117430337065 
-0.003509630707541493 
0.02664077465748616 
-0.003176441636894274 
0.01697123855803008 
0.00436383673938058 
0.005704046612997755 
-0.0006215174015975464 
0.01522997799514884 
0.01678666770218299 
0.01958471910219071 
0.01550825776733997 
0.005856321553724625 
-0.001542940858507612 
0.003107041514313519 
0.01808638546594771 
-0.003415246736375651 
-0.002559616981026248 
0.01069208488290965 
-0.003972136791015816 
0.02587184025462784 
0.008075580687241075 
0.005256043980688263 
0.01467276274291872 
0.01751579935581218 
0.008941760136409953 
-0.005067098915353356 
0.003260084846124351 
-0.009256660399105826 
0.01400774378087989 
0.00377043775603174 
0.01175448192871441 
0.004533989148338787 
0.01301636954456148 
0.01399686220403393 
0.006720751880670288 
0.008435151190205718 
-0.01264228269550621 
0.01398274047421618 
0.01140877137080595 
0.01643664076869173 
0.0112338323258033 
-0.00021492298747637 
0.01130719566057776 
-0.00813298186271344 
-0.002750435537306092 
0.002552353362597771 
0.01432692947985327 
0.007166734259606862 
0.005283269803767137 
0.01784719339529821 
-0.005621023788583538 
0.005844885313203614 
-0.02000880275930211 
0.01819119328490372 
0.0008584387042505417 
0.02186067756576776 
0.01536642104383369 
0.01063123919132658 
0.007570176515100219 
0.005384914513861049 
-5.879611406412761e-05 
-0.01080389280381158 
0.01474030283479912 
0.005742135132661867 
0.008382097609949157 
0.01758940743629021 
0.0007069509541343092 
0.0167175232142999 
-0.005172331397448242 
0.001144875757147082 
0.002826190938267186 
0.01716970461431219 
0.01247219654365677 
0.01348394154185924 
0.01726266453050325 
0.009429259659231701 
0.01044632523777809 
-0.009172724410257552 
0.002806518872266216 
-0.002512143412130271 
0.003855972699870982 
0.01413405066707885 
0.007420121684353576 
0.01230057510264617 
-0.01004435624640158 
-0.0008730112419627563 
0.008111883906575927 
0.0008869643879396608 
0.04524560638347228 
0.01113878580375586 
0.01440679207581884 
0.002642620751974347 
0.0129645488686339 
-0.01261204474202239 
0.02072451890734904 
0.00772683786652826 
0.003756399759543338 
0.009740635870316856 
0.004196773938821651 
0.005951564106895901 
0.01056010701691315 
-0.006067722396634965 
-0.0006807262627744553 
0.01010303038167549 
0.03319010422543689 
0.01017192399979292 
0.01337045636373576 
-0.002972501833657159 
0.01641213830587331 
-0.02330566488681065 
0.002988808505945577 
-0.0007279183904834113 
0.01759900941805781 
0.01298875461840843 
0.007079582709009421 
0.006286332336024454 
-0.0003990910814112035 
0.004083846201739104 
0.004262978662338247 
0.01205001727234146 
0.02447098111358049 
-0.006661246831375425 
0.0146464365978271 
0.003072098681233107 
-0.006744766856257895 
-0.004165261259994333 
0.0004676725801827592 
-0.009233466420745432 
0.01479750164243405 
0.04586972662588867 
-0.003175914316777112 
0.008643280302588633 
0.02571853606235358 
-0.01016866858991591 
-0.003735130798738159 
0.006698296010194902 
0.02575620175666229 
-0.006555118982341121 
0.003980044093203181 
0.00580708202595392 
-0.01148766041418892 
-0.002247176589095296 
-0.01996715654297181 
-0.007666413317427128 
0.005207084623915878 
0.04588486655503986 
0.002659551814330267 
-0.0001886071454942293 
-0.005580667428143343 
-0.01867904482341683 
-0.006487949886999436 
0.009666086989362799 
0.009011285031061316 
-0.003648420733055764 
-0.01565950885455111 
-0.01204703585683813 
0.01170741802486894 
0.004297265497801326 
-0.0004340787659387492 
-0.007345664423697825 
-0.02169650937890893 
-0.01405567596347612 
-0.01296005553041933 
0.00393751244673095 
0.004927782303813051 
-0.01195546533435528 
-0.0101240884316156 
-0.01374767963407518 
0.004359249987367578 
-0.002382268601382831 
-0.01053722221049729 
-0.009394712824305162 
0.009926957048034373 
-0.009537090244155886 
0.01522415751569611 
0.00243765449250258 
0.001165224762832179 
0.01704905412260307 
-0.004683088420767817 
-0.004610690002818615 
-0.01275129469227524 
-0.01434030958137061 
0.0004527797282519227 
0.001740864075516564 
0.03132096914909643 
-0.005581966347044628 
0.003661552221525505 
0.003124791411711506 
-0.008208353399036344 
0.01316123767814611 
0.01691634820713053 
0.0100362661879503 
-0.01165713385169144 
0.02765996557997448 
-0.006848948725773223 
0.002763672784930021 
-0.01608327637500427 
0.02012406806425881 
-0.005670111191799521 
-0.002812893525279746 
0.0004173910301077935 
0.005446364547718159 
0.01419399259087809 
0.00962704486284518 
0.0009204191763309249 
0.002148464343238651 
0.0227903731882045 
-0.01268747150258798 
-0.002945078504673998 
0.004705023521639405 
0.009230712917886019 
0.0184067358859769 
-0.009081345866810437 
-0.01471047741520109 
0.006744307881474781 
0.004771610545919738 
0.003061849277584679 
-0.000785817046917757 
-0.009025103962419434 
-0.007775349284400423 
0.00390035751596394 
-0.001146747292098372 
0.01824768967667137 
-0.001252135690874087 
-0.0006357454949419073 
0.01671664052517203 
0.003671517932496181 
0.0008001156456782757 
-0.02715655037496804 
0.004660381795319632 
-0.01190066815214282 
0.0003015414479159313 
0.001401897813590118 
0.01099429903598204 
0.001705132296856388 
0.008375177654510993 
0.000229570613303349 
-0.01305901221253258 
0.01135057493532334 
-0.0095060219743232 
-1.471163056273044e-05 
0.004341581355208665 
-0.01156005784662919 
0.02031787298380071 
-0.01344466063071505 
0.004810475060935389 
-0.01345137120680571 
-0.005028017335152279 
0.01151962868823338 
-0.00108349179533067 
0.0110442542917519 
0.006339878669598053 
-0.005560965055326717 
-0.007553490225968281 
0.009613904501530665 
0.006329302592917066 
-0.005417454220693564 
0.003448350050500858 
-0.002181729542417147 
0.0175576839619171 
-0.003980034655667533 
0.007802292474158303 
-0.007604904396500441 
0.001489561983387799 
0.0170086774080194 
-0.008421771637846494 
0.01058924775570013 
0.00137307635195903 
0.003257932637231887 
-0.001153090373681605 
0.01402794766493085 
-0.004598381071832948 
-0.002591811760094619 
0.01092067582339401 
-0.0130641829829948 
-0.004467675506229465 
-0.01451356799754335 
0.005695985069287078 
0.005108308643920991 
0.01483308771062236 
0.006338836310447319 
0.005387758006595591 
0.009242613669310399 
0.009954050966668215 
0.01523535548076035 
0.0002195112513048492 
0.006273180360126369 
-0.005556503178000195 
-0.008935615886203006 
-0.005901429083117406 
-0.01148886401484638 
0.01152508817444471 
-0.01607246552830117 
0.01715399192102323 
-0.01560313266770051 
-0.006102016040819639 
0.01130299113319341 
-0.0104350378073686 
0.01513746842267746 
0.004297790172603419 
0.005879794393116053 
0.001147453034954508 
0.01428080102968081 
-0.003259488023924546 
-0.00319433948660943 
0.002097977073851647 
-0.004862999192604868 
0.00925554910915311 
-0.009744473447431267 
-0.001552421457362935 
-0.007243460100352444 
0.00682614379173778 
0.007487002550526631 
0.0001477025902469032 
0.01396237444452177 
0.01747441804683121 
-0.001915038671090323 
-0.01674260921012895 
0.01077071905237923 
0.01092610753205537 
0.00231282004812527 
0.007258873511211548 
0.002116159339008563 
0.01663056121217793 
-0.02632158327963979 
-0.007281717312411194 
0.001103240582331813 
0.01512796997524253 
0.009252514780448954 
0.001013003035844656 
0.007335621989107328 
0.004918724623637704 
0.004426600417323689 
0.005229092357011734 
0.01651446552248156 
-0.0006229638063937087 
-0.00957371917438528 
-0.005028944762460573 
0.003365437750609864 
0.004069252637606671 
-0.006612170228444746 
0.004288035489593868 
0.017597413945257 
0.008638654066492609 
0.01204865634729571 
0.005465226149844367 
0.02038087099362789 
0.001642014178869986 
-0.005723634270726512 
-0.004399718215429878 
0.007651834859088645 
-0.01030790897240938 
-0.008918180613280865 
-0.002130950689161497 
0.01065035787513181 
0.006122298683463134 
-0.01762743156534516 
0.01308186070659414 
-0.00203936013700034 
0.002185847025745358 
0.02838902364946681 
0.007679569336199813 
0.01952006142738836 
0.006925996934893187 
0.01007112458366533 
0.01039405226549066 
-0.007942541457016351 
-0.01198203069864673 
-0.005804055161566163 
0.009406576757260494 
-0.003142116081025087 
0.000498137034440236 
-0.003071278395335793 
-0.002021916020637409 
-0.005094170120519324 
0.005407133145636649 
0.006409982291239365 
0.008088416942336231 
0.0009337346593781435 
0.0003649170097914928 
0.009380422118685528 
0.00340828713162761 
0.0002932579244800716 
-0.006591976371501121 
0.01473005170861242 
0.0199263556223397 
-0.008206018279964099 
-0.0001278457288059384 
-0.01022281160728609 
-0.0009371637699347722 
-0.002070643172391516 
0.01206875130882971 
0.01253788889919318 
-0.002703085349866938 
0.007685991179431097 
-0.003393272146345548 
0.0107988401244068 
-0.01086428280573995 
-0.005139312522454423 
-0.01152622558434116 
0.01044213256829269 
0.01621733291192364 
-0.002477012490614549 
0.0002310234387412967 
-0.00497671728661799 
-0.006656854632217326 
0.004126369056692291 
0.0155918285559033 
-0.004878621009045059 
-0.0004432003529368508 
-0.006172951311872074 
-0.006602602882455802 
0.003222482647842543 
0.007162878900126636 
0.01224955007662545 
-0.0006735103209459816 
-0.01448034456903029 
-0.02507176091202462 
-0.01291557178733084 
0.01472746748074652 
-0.01328613417387801 
-0.017226148113693 
-0.01679510285820307 
-0.007636563314632679 
-0.002570708371087348 
0.0005288149659684011 
-0.03152978089184871 
0.00234495459482869 
0.005850626638643962 
-0.003423927107780265 
0.009446946671138962 
-0.002970033725246225 
-0.01082102232135024 
0.01165219167745156 
0.00451232067003975 
0.007413986445514047 
-0.01338692510040581 
-0.01467131246640938 
-0.01692228574616155 
-0.001281189443495913 
0.01200231302278685 
-0.002992730543449476 
-0.00675029459059062 
-0.002265481710161764 
0.001334056697457674 
0.006159842533046533 
0.01426093611711138 
0.0005072912716756669 
-0.01676434223889603 
0.001341117536899808 
0.00192053588344827 
0.008994224185935668 
-0.007730601501769756 
-0.005570745087057891 
0.009078801546667554 
0.007774007063208757 
-0.001594740147551532 
-0.002695828286021565 
0.01553421531164903 
-0.001751884083304231 
0.002332105858434914 
0.003336246760914494 
0.01459147299365894 
-0.01546543967809669 
-0.01066656362469151 
-0.01601400553639674 
0.0003267504873966181 
0.009732784991264681 
-0.00927218610735102 
0.008442008504593824 
0.01101511291151751 
0.007966881167201786 
-0.007844067209712195 
-0.008106421601613277 
-0.008806976225328233 
-0.001788139261114939 
-0.01932691850011163 
0.01084871916528274 
-0.004739121901562145 
0.004218072841881002 
0.0197617225609001 
0.004496548552289356 
0.006092128480088998 
0.02046559125861986 
-0.02270279700136113 
0.006425789556637551 
0.004169014027455387 
-0.0003956976677614516 
-0.005775102096431025 
-0.001858029309188989 
0.005334096348293275 
-0.002622324834561051 
0.002458471781816017 
-0.00122958216011074 
0.01020921370473914 
-0.005462385388585149 
-0.006884137932211246 
-0.00195781063754228 
0.0004628936349985761 
0.017661973870927 
-0.002099587289261887 
-0.0002732874929547436 
-0.0008000624540721907 
0.0126088691412353 
-0.008791376090121676 
-0.0057894651483937 
0.002881163491008865 
0.003830261098425975 
-0.01140711549339258 
-0.02051575323022802 
0.005896808075131101 
-0.007762375821919692 
-0.006291639790618877 
-0.002028442410986906 
0.001192919834713599 
0.01316082191307563 
-0.01213568377210431 
0.01239635169905084 
-0.0004325539382504169 
0.01312419422576424 
0.00578987722486024 
-0.01555417539054496 
0.01393407247504404 
0.002477291026691622 
0.003902802673293208 
-0.008582673273601647 
0.009947346210212562 
-0.01310342038378412 
-0.001789372317350887 
0.004177987610540955 
-4.886500707784589e-05 
0.0137983091855851 
0.005457150676700944 
-0.004307439718467786 
3.760591318113583e-05 
0.003859643636981379 
-0.01312809032384646 
0.002627449214691523 
0.005150780918370544 
-0.000624307455209989 
0.005563517822144361 
-0.01236950489318045 
0.003238077190601392 
-0.006166203588921775 
-0.02830904349364095 
-0.0004428443702330647 
-0.002354793762538754 
0.005891895970937322 
-0.00993065460314943 
-0.01144473838017394 
0.004969562318330357 
0.007667270591504472 
0.007410375042248986 
-0.01786188187377602 
-0.01349923994788962 
0.004948694776641237 
0.02710076939880946 
-0.02728186833253397 
0.005685294581902017 
-0.004746772546991825 
-0.003600118269252329 
0.008099259190541781 
-0.002800538712803402 
0.01025280535563032 
-0.008282367665560548 
0.004427518997715619 
-0.00454060544066166 
0.001665974069974946 
0.004406402896221984 
0.0003975033041950919 
0.01615501972014787 
0.003380266274794957 
-0.0006364372416089283 
-0.003658708363225048 
0.008972114152421277 
-0.0109551963435692 
-0.003446778190375548 
-0.004136614427228621 
-0.003492330745552464 
0.01217406125561315 
-0.002147119525150372 
-0.006595190128313932 
0.001206248900853121 
-0.005020978274944255 
0.005364882524010974 
-0.009865532756285813 
0.007349778858796173 
0.009732817883546891 
0.01977613042154061 
0.003216914547018442 
-0.008277590239206543 
-0.004563658400139258 
-0.005510086112556537 
-0.0007478059064273278 
0.001202684905742281 
0.008971598900486155 
-0.01343636974448576 
-0.01442051326738504 
0.002145928304680033 
0.005174045285968542 
0.006284125542893024 
-0.00167155986112613 
0.01618597943837719 
0.01225657060602184 
0.002029048905264382 
0.004233877613205839 
-0.002002607230549655 
-0.006688929825504109 
-0.001739815026293935 
-0.01101902826387149 
0.00219679241568137 
0.01264060739838308 
-0.008271749257904446 
-0.01016606639363116 
-0.004691199270562782 
0.01558397398173858 
0.003780180486772407 
-0.01230657773354243 
0.01658747313393288 
0.01036956177706834 
0.009899618641014459 
0.005777241425594338 
0.008169093376966165 
-0.005134163581625899 
-0.004259579522464681 
-0.0231398240941146 
-0.01401500043520188 
0.004210779136185993 
-0.01174991755265365 
0.003561523509722362 
0.003631588621345171 
0.01004565771888749 
-0.001285867534887374 
-0.008354292247574873 
-0.005888702567452151 
-0.006411918802819882 
0.01549487071843838 
0.02805314204577297 
0.009397530130203662 
-0.0134691565317411 
0.01290608504949548 
0.007405292685075537 
0.007770641956944416 
-0.0007568212756192137 
-0.01464682453087589 
-0.01860840175611279 
-0.002469267308624262 
-0.00224120522808163 
0.01253643031132205 
-0.01836856012960326 
-0.003079409819193564 
-0.007081927112703513 
0.006490118377388496 
0.01315849014757892 
0.0004483927986513081 
-0.006909634557893796 
-0.002582473016798967 
0.01892134209280088 
-0.005796121101547795 
-0.002540167668872914 
-0.001288235144650068 
0.01517409458409803 
-0.0003492280354466096 
0.006795079267310493 
-0.00436131736948256 
0.007601951982421167 
-0.002275716045956449 
-0.0002603596604581653 
0.007989651379277526 
-0.008145323125301288 
-0.008330987292995614 
0.001046735453051448 
-0.01926227382069277 
-0.02293320640320173 
-0.002432336447624609 
0.003653208015205072 
-0.01715146714110863 
-0.01642421775347208 
-0.01000694491061997 
-0.01941326755838051 
0.006321244221710945 
0.02865221751080062 
-0.01463777930353437 
-0.007321328274355131 
-0.01325618230638039 
-0.005597399799781401 
0.01227737040703721 
0.009888566054455396 
0.001306362552275395 
0.01261063342216789 
-0.01143242878197039 
0.001403225081584914 
-0.01110081193436071 
-0.003007798762265146 
-0.01937721277707212 
-0.01211769373453047 
0.006421918538726156 
-0.001462585408696924 
0.006605607182954715 
0.0004862072958603861 
0.0003380636741608504 
-0.001453577719813608 
0.01343720754789477 
0.01780221786342074 
-0.006213296178464622 
-0.007572358172113912 
-0.004575283014813539 
0.006138839062446276 
0.006408216357364573 
-0.0213832447442604 
-0.0006993702892712764 
-0.001231240919957079 
-0.00693757039601736 
-0.004025184151834624 
-0.01960749058731072 
-0.02023132488421772 
0.0003615035061235282 
0.003807729153474452 
0.009902561193485581 
0.005258888425624106 
-0.01427951601303541 
-0.01072960628455489 
-0.01572245115340725 
-0.01222017278595463 
-0.001801350490035291 
1.185817264159099e-05 
0.0171557378520215 
0.02227346390421079 
-0.003509830601596343 
-0.002395066174929966 
-0.0009647048938067502 
-0.003726681252785326 
-0.02251552362425982 
0.01284705805972713 
0.01289823214914794 
0.001386905596520841 
0.005975548624264176 
-0.009310888850584854 
-0.02133641919670296 
0.001770005789949025 
-0.002386676443333611 
0.009475583725843258 
-5.660018858612009e-05 
0.007764441508602327 
-0.006469188693717684 
-0.01334953343419984 
-0.00299313026122369 
-0.008683503290349819 
-0.01215750533046796 
0.005742894831753735 
-0.001628487060020953 
-0.001477038770721201 
-0.01409235111449344 
-0.006676947994309169 
-0.008453839312097595 
0.004200235307847861 
-0.009511758297779548 
0.02741648366520552 
-0.007677376098545225 
0.01722442468915908 
-0.005897092956079274 
-0.01061301498411173 
0.01149057358415332 
0.002964787727660766 
-0.0005010996134174443 
0.004596613045927233 
0.01038190501426888 
-0.006484061087780985 
-0.004988405166796827 
-0.0005821979069376165 
-0.001844051085497427 
-0.001725198458884153 
-0.01796547477683701 
-0.006517633943109274 
-0.005072993237495532 
0.00706787576469083 
-0.003183660121016687 
-0.006875804685615167 
0.001191188750017572 
0.002517224124247278 
0.009277896871702232 
-0.006184345236626395 
0.001983315356523361 
-0.003893392829305659 
-0.006825632074082764 
0.006518101668310612 
-0.0104863063750954 
0.01221992835575498 
-0.00360438290084335 
0.001224284592494592 
-0.007607752102305281 
0.009819586337203727 
-0.002456675232568063 
-0.003583875582529631 
0.008266897355761768 
0.002690969434577525 
0.01617655698826364 
-0.01236944050377713 
0.0177332749495073 
-0.001630559328723878 
-0.01991589652602045 
-0.004741518039921152 
0.00233585733972459 
0.006881558544820561 
-0.008393686557100899 
-0.01321358399706461 
-0.007911560561734405 
0.00460194004277371 
0.001708527341589626 
0.0007002107180471962 
0.013268740223925 
0.007055215434767809 
0.01407568077215746 
-0.01506893162040006 
0.003855213362961234 
-0.004056692478779655 
-0.00359331405618827 
-0.0002898138296158475 
-0.004700596941424474 
0.01458622926316574 
-0.009636104302264997 
-0.004440609865031909 
-0.006262923130792428 
-0.002282246712428823 
-0.0002080448992945065 
-0.009174651482175541 
-0.008838198145107189 
-0.008924694877171499 
0.01703759488749333 
0.003894908818864156 
0.0001307702323710009 
0.002756339818036809 
0.007501956112655039 
0.0006816112907372419 
-0.001670719032793558 
-0.006351072544921796 
-0.002597457743555015 
0.001074986502877542 
-0.007325031751609336 
-0.009461008336531426 
-0.004409457371996883 
-0.002924781988350098 
0.003628418523383677 
0.005824124773676557 
0.002709551691662859 
0.001865949395138745 
-0.002326474175594132 
0.00126489328727727 
0.001216585862990707 
0.002141857154898416 
0.006928476236053419 
-0.002414203590609598 
-0.0002669931172627791 
-0.008296309394483158 
-0.004542461606165425 
-0.007377656290444276 
0.003729612567897935 
0.001164794461652736 
0.0009203674427264898 
-0.009630880923711812 
0.00577924978760691 
-0.007936821762854917 
-0.006817595409279167 
-0.00677135734418085 
-0.004326659578841716 
0.002574344275211329 
-0.001441705433244034 
0.01102879613076346 
-0.001921660082912138 
0.01538740344370364 
-0.01276732769166088 
0.0132511616613905 
0.01685819616592437 
-0.009346059873679277 
-0.002447341245891179 
0.004175160072592405 
0.0202366558055019 
0.01707937772038621 
0.007542746986341607 
-0.01548289635448329 
-0.00927450710816418 
-0.01094317633047805 
-0.008967972589352138 
0.01042260639106062 
0.008882209121732073 
0.006223151473953605 
-0.001588860691518727 
0.008962594369189697 
0.003943338785822994 
-0.002661629125334637 
0.004128647744707214 
-0.01258194654259903 
0.003473321655074017 
-0.004604616538257865 
0.005413035507725992 
0.005176208040840785 
0.0155825655822001 
0.002352644717255729 
2.121623706298739e-05 
-0.0007703901221318291 
0.001561676330556317 
-0.003074360475013102 
-0.01534481557325529 
0.01344642345618941 
0.005698222025722359 
-0.0103772850492401 
-0.003075443588743999 
-0.009970834972937857 
0.02254530841566714 
0.01319319573690297 
0.003942810442987065 
-0.004705894702916838 
0.008413408332329435 
0.009678027974637678 
-0.006831719374540458 
-8.604984318927084e-05 
-0.001448220605048743 
-0.005046905543690736 
-0.004054964284966207 
-0.001493476179244927 
-0.01828074567647075 
0.01714013586637378 
-0.008405137999541854 
-0.007504958828715073 
-0.005911062178027494 
0.002826889565146972 
-0.004105182427940518 
-0.009712626548155608 
-0.02991151561669552 
-0.0178534774928211 
0.004308988830482826 
0.01086185493556531 
-0.003825856641870623 
0.004957743337900124 
-0.01609210933766992 
-0.003769225438147728 
-0.002197274095453411 
-0.01059769943355103 
-0.01594223098606324 
-0.01433280806359125 
-0.002641185539086882 
0.003305965861521447 
-0.00100241954087761 
-0.003729751110902203 
-0.008844080661701694 
-0.001917207191678502 
0.01140009516112241 
0.01579958411018235 
-0.006175669950204716 
0.0107512019298853 
-0.001587247836904897 
-0.01802663240835934 
0.01114008914764445 
-0.01881718765162296 
-0.007507991151341434 
-0.01995694270860024 
0.003201362972215847 
-0.007598194823747868 
-0.009878182803388839 
0.001640601925729499 
0.00870694553121181 
-0.0007938241264893614 
0.0004335641914593752 
-0.01097019826733905 
-0.01363804942939685 
0.001778557492856577 
0.003160781364694699 
0.009749467150199902 
-1.612728014372979e-05 
-0.01798183364245484 
-0.02241458895071975 
-0.01153663423429424 
-0.016287040350682 
0.00778322752925612 
0.02575716365151386 
0.01712940698540989 
-0.007338637366484727 
-0.02039461314078648 
-0.02172458903214484 
-0.02210545135549322 
-0.03733128703399462 
-0.02045120144269264 
0.005062369446762396 
0.02218971735250381 
0.00336068218500732 
-0.01426346021787959 
-0.005363470860789765 
-0.01557067131311846 
-0.006247745004842739 
0.002806567650500432 
0.01715405855534866 
0.01748208409970606 
0.01153451010374431 
-0.007144681109309318 
-0.007925204820386099 
-0.01217886323762847 
-0.0174661004197384 
-0.03201773559960961 
-0.006906090415627238 
0.01101410395368242 
-0.002575811053341487 
-0.003973073604029631 
-0.005366643883215815 
-0.007493665320424171 
0.01697825572585506 
-0.009689052613486909 
0.01162153110381425 
-0.01098954126748598 
-0.01700288594068569 
0.001476102290648337 
-0.002420552365903742 
-0.003429589086314228 
-0.01428455265051567 
0.002339456306912675 
-0.007631059571777053 
0.00776422087211262 
-0.01188848304627223 
-0.001644229694913693 
0.0001185929967965097 
-0.01407842804185444 
0.0101764291355797 
-0.006685826363544091 
-0.007536961300496149 
-0.007396507547503682 
-0.009758603411724858 
0.004960681280423289 
-0.001827784769286059 
-0.0003379618258595241 
-0.01944007552791973 
-0.01242727384810769 
-0.003734917480719656 
0.01182005912901634 
-0.00553029328707625 
-0.008253018470311372 
0.00406446267871246 
0.002575864584242203 
-0.006932342516266106 
0.004115716832473565 
0.008043877336196919 
-0.008433971857602087 
-0.005428359294013976 
-0.01366244529564033 
-0.005616445209133963 
0.004099364594926829 
-0.002063270657008474 
-0.01549777598955377 
-0.009219180068355357 
0.009779559610482914 
-0.006559296614666528 
-0.004237120191301172 
0.01308429392369388 
-0.01003870943004036 
-0.001211622842022297 
0.003464478441167881 
0.002503332511276934 
-0.004343528277011424 
-0.009210442275939593 
-0.006615190314738341 
-0.007238338558979282 
0.01159757115709146 
-0.009049386842409614 
0.0002654391097017355 
-0.01068566390023115 
0.004624168906595773 
0.005187105916845376 
-0.02121779966904821 
0.0009320617167223998 
0.01714354916470176 
0.02296844543460472 
-0.01106720290114043 
-0.007023750169391374 
-0.007151289268489406 
-0.01300417816999019 
-0.00254710045942137 
0.005908595556094644 
0.01146895061659365 
-0.006689455713420844 
-0.01124333699748836 
-0.006708524355138136 
0.00240164963301096 
-0.009247602769224086 
-0.01217142042130317 
-0.01547984112007013 
0.003228658369366165 
0.005381126434048747 
-0.01863423540390115 
0.006016148200375845 
0.006716180767846127 
-0.0009179620617527554 
-0.007194242311922301 
0.0009793872607906709 
-0.006603461072766342 
0.007176827376333668 
0.001017600804352363 
-0.002083495079830072 
-0.002372303184254776 
0.003278602288481787 
-0.01208784846013513 
-0.009024020514393155 
0.00935542470866187 
0.02515100092215599 
-0.01207846347702 
-0.003025804569389796 
-0.006024853691474163 
-0.006092809350716346 
0.001807888058015373 
0.01051641657012023 
0.001735339144722308 
0.009908218031657895 
-0.001327761736296597 
0.0004331144840661987 
-0.002754200286630929 
-0.003679914969570282 
0.0009428250443047092 
0.002642215163814278 
0.009594971592293394 
0.03066958314104427 
-0.005487737655362999 
0.008292339441388952 
-0.004484074290066671 
-0.007606997288883798 
-0.003209499214433257 
-0.001864517839552982 
0.007515864261420821 
-0.0129748734697911 
0.01182002000396816 
-0.007817723540795837 
-0.004022495879371513 
-0.009948877715371859 
-0.01056612592971491 
0.002283388916843535 
0.004724156854682796 
0.02876139921207774 
-0.001327339203518575 
0.006729666746544145 
-0.01625880834580649 
-0.006744734082225869 
-0.00494250929491793 
-0.0007783444513525558 
0.00397676657074337 
0.001470592491588369 
0.01363393585433159 
0.004124358701974018 
0.006609773703338546 
0.004029720726815386 
-0.001513462076886658 
-0.01530401317313604 
-0.0007999713872246813 
0.003563622736768586 
0.02060069629579816 
0.008038611600108242 
0.002457238870457184 
0.02634008567122292 
-0.001540059163677433 
3.926448567932831e-05 
0.003481295427533126 
0.0002788768349572657 
0.00596927377908598 
0.003468752249360533 
0.002797394687331124 
-0.0164301405894422 
-0.005457041451071635 
0.002548603009049185 
-0.001636022472893281 
0.01165209798622303 
-0.000679880612955411 
0.003608890519725956 
0.0003427252034287585 
0.01360788815625023 
0.01408885514232601 
0.0002404656467249259 
-9.157020733355236e-05 
-0.001241975283494607 
0.01026930957456243 
0.004399640234048739 
0.01122724564228654 
-0.03434312396773181 
0.01334416478332305 
-0.01157387317804597 
-0.009548926370114792 
-0.01317223308647065 
-0.01498401232197785 
-0.009036643958246091 
0.0001393805385510761 
-0.02101238190036352 
-0.01362133566427574 
-0.004963766991911345 
0.01048635298394428 
0.003474016686660053 
0.001940842508109101 
-0.007180335163755941 
-0.008175634954621083 
0.004363675655363583 
0.01418231298137056 
-0.01698724377671573 
-0.007995036525729209 
0.001576205455730424 
-0.003364617429642017 
0.001459640843334724 
-0.001004361884798849 
-0.01026451852893601 
0.01778320304467114 
-0.002028858770874181 
0.01339054373683563 
-0.0113509978471443 
-0.002132848900242893 
-0.0001882353363182702 
-0.003430063672730296 
-0.007955110713793687 
-0.0006527094008084869 
-0.001166752145408907 
-0.01118612870251944 
-0.01201461524592855 
-0.01077267578309617 
-0.0005195179028330663 
-0.004258803923114395 
0.0003954496412834974 
0.008369158088989756 
-0.002883162553753742 
0.01003887353062354 
-0.003391373080329679 
-0.01593506732783691 
-0.00517826386246697 
0.007814683574554197 
0.0030235090186579 
-0.006807945226647086 
-0.0129739751087488 
-0.008479263502662137 
-0.01602386550663775 
-0.03350336567662812 
0.02730605532474712 
0.02274342984726621 
0.008205654764580791 
-0.008037700900953487 
-0.008969242559631073 
-0.003351534123176258 
-0.02181684147312388 
-0.02957444545772895 
0.006376126611171883 
0.02871377992020975 
-0.002045766468505993 
-0.02274061044774413 
-0.008587146229575193 
-0.01438543375914128 
-0.04201006405684102 
-0.01915633662836443 
0.02647187116874351 
0.0264477605608985 
0.0103471690386362 
-0.02056150375940008 
-0.007916470817826598 
-0.01290527215560892 
-0.01609271918577842 
-0.01004140768686063 
0.006954074341491363 
0.03105384106492608 
-0.01007120392533742 
-0.002087249795378413 
0.002207359389764478 
0.001657311940839782 
0.00291491286279165 
-0.01225718351545327 
0.0130219258846917 
0.001350142337685085 
-0.002269225717418004 
-0.008524961855815884 
-0.006761167309853091 
-0.00322156748179112 
-0.01386493941423352 
0.01676005576216065 
-0.0006683385934966093 
-0.007238834903382199 
-0.00425260053665225 
-0.004865584687101686 
0.002595217304790907 
0.008858378275889056 
0.02343103016299923 
-0.01716397435892363 
-0.01048502728817116 
-0.008263966261804668 
-0.02298797127520618 
-0.0137660611757982 
0.0009866581582286334 
0.01029795304410741 
-0.02885785860264451 
0.003535977198587805 
-0.003362140601618808 
0.007810900837190156 
-0.004210080057168402 
-0.01249830984318729 
-0.007077607083918734 
-0.004940830910993369 
-0.005427865416907404 
-0.0003462061188293035 
0.009574196321594916 
-0.00543665189811441 
-0.01512204342476608 
-0.00445393509660069 
-0.003508794859133979 
0.0116143850798703 
-0.008057555006788905 
-0.01816297030369091 
-0.001684397003241411 
0.005708951377218942 
-0.01261147721188555 
-0.005272427415034943 
0.003771797715145667 
0.01054786156873479 
0.01938270451521499 
-0.0338807240880724 
0.01323783048180128 
-0.005661599736311525 
0.003328466697537039 
0.008498863288032907 
-0.001650622792758388 
0.001951909868974624 
-0.009532565064039213 
-0.0219512430901262 
0.00859112716899256 
0.00571532175863972 
-0.006111284702071175 
-0.002886800038174845 
0.007949974637206371 
0.001020918907381784 
-0.0159137549917536 
-0.02652773992248226 
0.00689111343299984 
0.0008531295080500797 
-0.004262777895160172 
0.007989227737874109 
0.002869962853476782 
0.0002906075342786629 
0.01381091354134851 
0.008777117509224375 
-0.003130095404317938 
0.0008953153785571794 
-0.01587354733346924 
0.0006921903086304344 
-0.008474351209025694 
-0.007880658791981084 
-0.001724877961159357 
-0.03920822668069495 
0.006664152965704793 
-0.008699202738470597 
-0.01365200514807007 
0.008506920449941382 
-0.00498027408613293 
-0.008736483807457941 
0.01164122033256767 
0.01278626072296093 
0.005052747611923853 
0.004131900315925505 
0.01348161861352046 
0.001223602259868452 
-0.01516068807215834 
0.005158522919300903 
-7.698054035955797e-05 
-0.008403794770359699 
-0.002623617132811651 
-0.01597919078535808 
-0.005871592719866484 
-0.002212197306904364 
-0.001870597194399661 
-0.0003999758041000252 
0.03300655033345698 
-0.01160815649360287 
-0.01028044069740723 
-0.004459092034799278 
-0.002728930275732312 
-0.01064518454976781 
-0.000286729774666541 
-0.001988092174177196 
0.007056823215152149 
-0.02241987438328789 
0.007161899630868759 
-0.006435354308738691 
-0.01832071069272682 
-0.008971442155826119 
-0.004452088584615434 
0.004708678464168505 
-0.003866538200788009 
0.007901518483473641 
0.002748534548978 
0.01702714354110641 
0.008969621611349971 
-0.001354751882140068 
0.002221304904362439 
-0.002298636913698571 
0.00530332916330954 
0.01360794089656603 
-0.002089243470938009 
-0.001314615764134506 
-0.00159679531042415 
-0.01221062559621316 
-0.01262191753021676 
0.008876731764782915 
-0.01011616902961121 
0.01454389509728096 
0.01515715476613219 
0.02304996946112782 
0.01027670943978328 
0.001854972149699644 
0.006694118470324778 
-0.005330001091016819 
0.01943291804716008 
-0.003429938604996638 
0.01036767944902962 
-0.006321056390868236 
0.02019121949668505 
0.009269323749550491 
-0.004930178314666443 
0.004966918518036632 
0.01535031127223373 
-0.007215659778691875 
-0.006926596216255057 
0.01085132106085065 
0.0001726289100620809 
0.002519301482065275 
0.006470225099320652 
-0.002901888146949358 
-0.0001707379048160786 
-0.0005786434723141241 
0.007567313607582878 
0.0003344278805909746 
0.02615703388113811 
0.00110354123290593 
-0.007444845160246075 
0.0002968815802077239 
-0.0005749883600018268 
0.001039021874726385 
-0.006132659932283498 
0.008345242856542749 
-0.01187951936322606 
-0.00529351057534494 
-0.00539538838606611 
-0.005816635476499364 
-0.001379199093327792 
-0.009387801276501519 
0.007109659078826078 
-0.006404728280245885 
-0.02854496579507708 
-0.01894642100006955 
-0.004460032097194396 
0.009236025597663025 
-0.01322263957133626 
-0.009577697190622542 
-0.008976208502477654 
-0.002665863262290747 
-0.008428517056563029 
0.01292614037459549 
-0.009542179453032582 
-0.01635109493132523 
-0.00164066868138108 
0.01269738002437411 
-0.001864074334576596 
-0.01425522849929263 
-0.02155637830574767 
0.01721732553134446 
-0.006601471010314091 
-0.0009252980104571121 
0.004232033375927315 
-0.01586077258518659 
-0.009362596357654063 
-0.0002483409834801171 
0.007611611617506446 
0.01040338412447766 
-0.003617647347176762 
0.002852572807131768 
0.003023273976362071 
-0.02579463422959587 
0.003882817043132721 
0.005518226109286034 
0.0006029887908149965 
0.008070805474509923 
-0.007836926380493325 
0.00310140324091181 
0.0004892355088270258 
-0.01598768654357209 
-0.009834848363999381 
-0.005866959741043769 
-0.01386307974646184 
-0.001404946959276068 
-0.004292446225373855 
-0.004955746953459309 
-0.01782010562445504 
-0.0113542781462126 
-0.005391794739922325 
0.01537965501097534 
-0.0004028027656749889 
-0.003152481208157472 
-0.003097046575244651 
0.001139413252640771 
-0.02355366286423183 
-0.03184991683521556 
0.01199963052852757 
0.0259223654628999 
0.02236178791800853 
-0.006887102251623462 
-0.0228417105039062 
-0.01923659865795542 
-0.02335170872067597 
-0.02810914267884344 
0.03477883022856788 
0.04427129805913303 
0.01036142357432173 
-0.02395289239648887 
-0.01286872210477754 
-0.01421302200455273 
-0.01768467773026981 
-0.03950602977304767 
0.01364544240573989 
0.02598768892686345 
-0.0005196432697476795 
-0.008845785821768802 
-0.005086311880767237 
-0.009956318556340426 
0.008175673422922546 
-0.003228668905532524 
-0.009615125495453387 
0.00316724517387194 
-0.01761880175222471 
-0.01330513652293605 
-0.01384098829415546 
-0.01080085521662093 
-0.00995208179260077 
0.01166596531725646 
0.01546843877982796 
0.004065773606984432 
-0.009782655345522273 
-0.01697127037996334 
-0.01855409452142373 
-0.01512372811818765 
0.03034592847832475 
0.005890987313822808 
-0.002295095363531387 
-0.01183755774290453 
-0.02562852882421643 
-0.02645029001812762 
-0.008844466706744004 
-0.004686749058764486 
0.00515706222000013 
-0.01133562964582414 
0.0006289402563927288 
-0.002334501496212617 
-0.01481086374223896 
-0.008324480941562396 
-0.002007022364472068 
-0.01728708766051822 
0.01212908618377512 
-0.004445036942393653 
0.01068415086968391 
-0.008675222586538961 
-0.01850668066627111 
-0.02420038976163697 
-0.01053904222157119 
-0.006214601260753957 
0.0183401288136374 
-0.02652087055702742 
-0.003061882768836356 
0.001098189966194052 
-0.01988510460377999 
-0.003527222147308337 
0.001315606140353794 
-0.02354791622543117 
0.002834768204188213 
-0.01607500340860389 
0.002443720483997134 
-0.01061322646556243 
-0.01745295224311322 
-0.01054641358685732 
-0.003460515456127617 
0.001767032709862769 
0.006295224433984949 
-0.02069014274861345 
-0.01130708219959923 
-0.0009727616620542665 
-0.002323964017044845 
-0.02022283449614138 
0.005041886440830557 
0.0120476542193713 
0.002726032311150949 
-7.294904438120446e-05 
0.004453880512989869 
-0.00737178652081403 
-0.00328851259829226 
7.10902118075489e-05 
0.002171397571681383 
-0.01312982183283993 
-0.003471874730045673 
-0.02369565289132293 
-0.007415125614615492 
-0.009391041854019892 
-0.004474772517829934 
-0.004989628619952488 
-0.003259282010220122 
-0.003534955818453274 
0.03220360792848756 
0.002550298730934607 
-0.00470560122256812 
-0.01511371590575291 
-0.004688152510696575 
-0.007836126723797231 
-0.01794505920077835 
-0.01936543911579912 
-0.0004024854657178615 
-0.002482533689113478 
-0.01606274570215589 
-0.02428981084886173 
-0.003783234075882181 
-0.01310242007915849 
0.002376665014834825 
-0.01232863984776112 
0.01955139785880024 
-0.004671387970793643 
-0.002383340558373948 
-0.01102114503786272 
-0.007415845928257692 
-0.009198391084446882 
-0.007462932095978913 
-0.009198009410515684 
0.01466603525404712 
-0.01982940908023106 
9.632558592203814e-05 
-0.009959605947179231 
-0.0138074592135711 
-1.025560906546171e-05 
-0.00464794061882576 
-0.01613731116242254 
0.03328743436324242 
0.01375622903323025 
0.0004595388301692819 
-0.02007669379342195 
-0.006461644537048624 
-0.01967727554189491 
-0.007284812694091328 
-0.0105215157719436 
-0.02052477094244679 
0.01203890295360603 
0.007575545919243764 
0.006841751343952584 
-0.003345656398204484 
-0.01117414868944953 
0.005062580978783769 
-0.004537278616154345 
0.0122855287776792 
0.02727637868739963 
0.01185145732071126 
-0.006473244140142701 
-0.003609933447854551 
0.00108244469701637 
-0.01113034326318348 
-0.008351294978595842 
-0.001864423471316312 
-0.001891808896929924 
0.003061562380804789 
-0.003440769581311623 
-0.002161532891586677 
-0.01643860010982307 
-0.007232354823188174 
-0.004735961203781856 
0.01990860190119333 
0.01271614139086307 
0.004540077818830739 
-0.009825064748004953 
0.009862729311520071 
0.006439463506193503 
-0.008533636832868355 
-0.002216654551562849 
-0.01656210455749251 
0.008247950645598376 
0.01113629796661565 
0.006853746494484698 
0.004405410790639257 
-0.01601445244096416 
0.002303454387933048 
-0.002469352770355529 
0.01073561508929918 
0.004607797511385099 
-0.006002735126447029 
0.000456485820141018 
0.01349139743181278 
-0.01772837331385731 
0.004511821974953916 
-0.003633390445822622 
-0.002882735816740028 
0.0001174604269642741 
0.003729012059673551 
0.01305048433328509 
-0.01029623272350901 
0.001957136549047795 
-0.01225939024426912 
-0.0138394400371523 
0.005472440682192947 
0.00912816836210455 
0.006549528476067152 
-0.01481075576722477 
-0.02668970496018286 
-0.01583313420913991 
0.005784013005939396 
0.007458785255139272 
-0.01061372661653156 
0.003933507684606086 
-0.00382527577020464 
-0.005103963388813544 
0.002660686122000635 
-0.004727594231942427 
-0.01174641824397504 
-0.0167499892977435 
0.00446990572482293 
0.004636335618496356 
-0.0001243543778392074 
-0.001244696451720181 
-0.008555972050872124 
0.009895772362520571 
-0.0047881782140603 
0.0133542040934065 
-0.02111015661034102 
0.0001681188111648724 
0.001594505995673106 
0.0007447828261812814 
0.01033499293780393 
0.006469033670456877 
-0.006369103224658955 
-0.01327828631818944 
0.006288899479597235 
-0.008080885997254423 
-0.005640865138537716 
-0.01392054155093049 
0.006577388273801773 
-0.00209382063734843 
0.01054476395944297 
-0.00150753916897621 
-0.01359659236847316 
-0.01530053897337835 
-0.003002625033870934 
-0.008573257851824364 
-0.0002294074355304562 
-0.005220852486548959 
-0.0009997039410837157 
-0.0202347134205474 
-0.009431729199010188 
0.003413673175149459 
-0.00837703902516056 
0.003846051025750597 
0.01061498763735765 
-0.0198834851696564 
-0.01416840951730144 
-0.001552323142441219 
0.003024889518589321 
-0.02144810149249446 
0.01633834576720794 
0.01721431157875224 
0.002059688015645998 
-0.006029504686138274 
-0.01435471743527629 
-0.01597067600837734 
-0.01283751198562006 
-0.0307778170076048 
0.02530058856159214 
0.02781629404255368 
0.007218025067003308 
-0.01106009042728679 
-0.0009940980385954562 
0.003565467201436705 
-0.002038606401705395 
-0.0308167452784232 
0.01761359920872538 
0.01302944471277913 
-0.005259653402941983 
-0.01065732035718191 
-0.01564622909599449 
-0.01337939257785938 
-0.01508228037777087 
0.00604766956959378 
-0.0008056991045574391 
-0.0006803122840343351 
-0.01763801721931236 
-0.01706392453208767 
-0.010541368053865 
-0.02092009058046761 
0.001318784526615063 
0.01862617908888652 
0.01538108628848124 
-0.003018263199408787 
-0.01756203969415744 
-0.01317818540533076 
-0.0133067088943271 
-0.008136048999328883 
0.0005481790503355331 
0.0003003656677299751 
-0.009144309165803095 
-0.005395574558154117 
-0.01726353875537652 
-0.02177275527684338 
-0.02537983217548423 
-0.02126932086879795 
0.000359712063618636 
0.00140519800922324 
-8.628891465153004e-05 
-0.003949044801907133 
-0.01261809214182138 
-0.01930535092372158 
-0.01655028137895498 
-0.01856672903708002 
0.01139625746774328 
-0.003542763011957095 
-0.00195999950294636 
-0.006275404480378069 
-0.01317389007094607 
-0.02560978439650658 
-0.0094613395857857 
-0.00758582988908333 
0.0266162970160116 
-0.0142208738863215 
-0.009775948384987807 
0.0037783943983014 
-0.02815431142025838 
-0.01327513996518052 
-0.01036414247217446 
-0.01063810611575078 
0.007232951260237447 
0.001891956105377269 
-0.01039341904526416 
-0.007112471538894687 
-0.01278689535335172 
-0.02678189300325625 
-0.01323124491943443 
-0.01088720820761051 
0.03000290325608438 
-0.01121371391423283 
-0.01995905855438235 
-0.01889369449459925 
-0.02082193995257313 
-0.02683324022321752 
-0.002319152958682799 
-0.009744060123142984 
-0.004460870034764535 
-0.001921780678381313 
-0.009774190694231626 
-0.007477790025349189 
-0.02657186215633466 
-0.01292590382618881 
-0.01404019737524174 
-0.0005927806491295231 
0.02591956312497236 
0.00823879127021197 
-0.009260276437080384 
-0.02239050534668379 
-0.02129652430894109 
-0.002610278279846188 
-0.01260950309280165 
-0.03172134119461972 
-0.00216745061252751 
-0.008816674779207424 
-0.01865887378705361 
0.0008325535804788765 
-0.01651230885722773 
-0.01326628060804132 
-0.01268826133671289 
-0.008484450317953689 
0.04352506154979279 
0.005715952225546666 
-0.008334371097713305 
-0.02196504915418456 
-0.01340389438594144 
-0.000930107824729292 
-0.01200763134289382 
-0.0136410588688776 
0.01019203164506943 
-0.01985073032051897 
-0.0008723836511734177 
-0.007346295580265994 
-0.00482361776746164 
-0.0136856019712914 
-0.01245944797330476 
-0.009886135849578379 
0.02444082530483519 
0.001438247320866568 
-0.001508261044616103 
-0.001668139054917812 
-0.01194187903525654 
0.002535083585204592 
-0.00437606284625009 
-0.006849124093276354 
0.007493414343143548 
-0.007344410897970725 
-0.02141994323040197 
-0.01651641502497603 
0.0002490275875962942 
-0.01703271731008818 
-0.01187307463445256 
-0.01176844043386085 
-0.000430516889812129 
0.01251884319911127 
0.009758666018912484 
0.001504105408215338 
-0.002466226935807169 
-0.01596146275738199 
-0.01155205288052022 
-0.003506887893819137 
0.006368596354784165 
0.01152485659827538 
0.01153264814735029 
-0.005560402183196133 
0.001518486524776433 
-0.01000022317620406 
-0.006772717844106123 
-0.002052482678801237 
0.002577318908411002 
-0.00726091951844859 
0.0002207692894958086 
0.01380076105190024 
-0.007266174119663422 
0.002579686342291434 
0.006836819089811559 
0.005924937459551997 
0.005299064231670081 
-0.0003224121918816685 
0.002998761326286757 
0.0004775888421913168 
-0.001685694561780466 
0.006193473409865742 
-0.00209457392651401 
-0.002225637275578092 
0.008832353210036038 
0.0005267222318570364 
0.0008452597991461228 
0.007207015924450442 
0.0143253894079435 
-0.007249096602221171 
0.002780497718806985 
0.005694462304714456 
0.009685625440126943 
0.009410294587299365 
0.003462778415046119 
-0.01988779155511802 
0.004996929624179321 
0.003050243665166134 
-0.001807930716655394 
-0.009109815810524903 
0.01043148674112161 
-0.004746916069329769 
-0.005575399794831373 
0.01255137668820418 
-0.01497334139244188 
0.01524720782820353 
-0.0182948682743708 
-0.004567969079141125 
-0.01196813360746581 
-0.004383456139757577 
0.001791439649269615 
0.0003789678566016809 
-0.02847748029260508 
-0.01520259026448235 
-0.0005842351802738666 
0.01219886663675268 
-0.0001651436344170222 
0.01238556184848161 
-0.004659132962488858 
-0.003292300383619371 
-0.009920062471217111 
0.009499176773677877 
-0.004953789680533648 
-0.01294125560700854 
-0.01449049624318516 
0.01630276123610343 
0.002758392724898706 
-0.009509260366200889 
-0.006755955388015009 
0.01526900216197867 
-0.00488502825962631 
0.005546409920337316 
-0.002008503363965272 
0.007534257198846052 
-0.002628980879849145 
0.001066310603252673 
-0.004112365841999032 
-0.02318278462816446 
-0.008327585509996405 
0.004436346961860118 
-0.005224690203747879 
0.005430147244540924 
-0.003660557115629689 
-0.0002625747984688227 
-0.00594202070675898 
-0.01356779295392294 
-0.001674039219731268 
-0.0009868895063693624 
0.01105767986311162 
0.01524877711746732 
0.003347779118643696 
0.002603544922236163 
-0.01360096323950151 
-0.0167011404870611 
-0.009696812568294992 
0.004925307382606821 
-0.01502060059393436 
0.005944856996388526 
-0.01012336693980887 
-0.009673675445464113 
-0.006027973986655885 
-0.02229026651504538 
-0.007196078700270363 
-0.005034611893681045 
0.002226540545771976 
0.007797103227800943 
0.006078425419389309 
0.01858988522294635 
-0.01523405522334342 
-0.02171983990099862 
-0.01918420786124576 
-0.0280873511024744 
-0.0006454428138523547 
-0.0009553700825342034 
0.003609719803451472 
-0.002977407474231432 
-0.008466539187264355 
-0.01770985533362362 
-9.449607954148562e-05 
-0.004682411273397424 
0.02134919088140564 
0.0005698918399991182 
-0.004526942313023329 
-0.01243034077559803 
-0.01902103199083389 
-0.01424153852445439 
-0.01808313651286268 
-0.02217435099337698 
0.01328752623488986 
0.03009811874453392 
-0.009398895697826343 
-0.01181247091252052 
-0.02106845103464423 
-0.02230428551793826 
-0.0114662772203521 
-0.01322631109884031 
0.03006562029937843 
0.005822799837482781 
-0.001244096742670847 
-0.01700482728325824 
-0.02308393183561405 
-0.007340661312337834 
-0.006048208712552609 
-0.01125108010940717 
-0.00409038718860177 
0.000703353069567901 
-0.005964142518468679 
-0.00320197244479676 
-0.01200938865453734 
-0.01094967799066878 
-0.009604511323583627 
-0.01413676619149907 
0.03228868576256466 
-0.001829335803932504 
0.001648694304013765 
-0.0003890504001998917 
-0.009063306195631627 
-0.009914588687150587 
-0.01233083020612133 
-0.001949597376083117 
0.0001871544774049922 
-0.00735873283390534 
-0.01479075292103914 
-0.01887322158016776 
-0.01952080053973847 
-0.02529814238891324 
-0.01362512027472073 
-0.02348673568320083 
0.02692569486709296 
-0.005165012911667813 
-0.001029114465720235 
-0.007685502971240078 
-0.007382115413250341 
-0.03643492675719028 
-0.01440511633676366 
-0.02012011009742498 
-0.003226074720166807 
0.01157537119909458 
0.006880102806059239 
-0.01278796393457304 
-0.0176454183451372 
-0.01056136899510404 
0.007384408448071201 
-0.0009712196797623023 
0.01609330608618974 
-0.02638170203552002 
-0.02043815540000148 
-0.01539338707111764 
-0.01348000388488793 
-0.0146354037681947 
-0.01616911675192477 
-0.00052467234341725 
0.008189461746624178 
0.009919482168341865 
-0.006456386734800637 
-0.01259368267392816 
-0.01795830971922057 
-0.02466554612428728 
-0.005691714255730744 
-0.003204602210483118 
0.02181542458099881 
-0.002073194344606598 
-0.02201760745657786 
-0.02920575646795537 
-0.02044953620787651 
-0.01662255594707009 
-0.008126166084869841 
-0.01688180385545739 
0.02304846810983284 
0.003406892690339303 
-0.0171031248129354 
-0.004584246064667175 
-0.00170753835771288 
-0.0121457982731533 
-0.02150801147337172 
-0.02213015472241391 
0.02006217611665981 
0.01708270980592133 
-0.01963913629023227 
-0.01143375593272964 
-0.0186983701669205 
-0.01636113358990212 
-0.01007864065226023 
-0.001642315213557978 
0.01769219033146312 
0.01821415336905277 
-0.002109749579832487 
-0.004793005169942289 
-0.02215021372872621 
-0.02632472492963474 
-0.01347015004926432 
-0.01605301684990038 
0.009970762852313492 
0.01448954693545461 
-0.01489400078520828 
-0.01440778628724049 
-0.01093869153957495 
-0.01767441411638003 
-0.01928300770885102 
0.0004440296399305079 
-0.002196342097207417 
0.03222733716149119 
-0.01461791325593045 
-0.009117094147614919 
-0.02382229964211625 
-0.03391455391420773 
-0.02095904244930025 
0.005206583573807152 
0.006384062214353963 
0.04321452761613599 
0.008711581222501008 
-0.01278808607793252 
-0.02504647881285357 
-0.008176006265076523 
-0.002986599492394505 
0.005054138807853529 
-0.006249797939138733 
0.01091500377654617 
0.0145887381993447 
-0.008364153173019855 
-0.000421383130981869 
-0.01391254256559796 
-0.0055855460352469 
0.0170035276594453 
0.009089724695777807 
0.007431581960455109 
0.02236385204968963 
0.01172603662549962 
-0.003616824245742239 
-0.0137150724626672 
0.008676431376056169 
0.00435465182774858 
-0.004237590192364965 
0.01189456783332038 
-0.001348836469012142 
0.00293574822570795 
0.006500860624745102 
0.007108218992437392 
-0.01205040815838892 
-0.008024173439988146 
0.00734643454254315 
0.008328157349817938 
0.00456100807855585 
0.001869251130904648 
0.007082036834840994 
-0.01074699559265493 
0.009866993116139018 
0.008412048935960812 
0.003683480659806783 
0.007470147463904605 
-0.005271032835436879 
-0.01263742875669498 
-0.001983296138155895 
0.01047018877774699 
-0.00207136973741924 
0.001769796989231554 
0.006525940682410153 
0.005784111196081304 
0.007360172647520224 
0.01085640345420541 
-0.01935431231904105 
0.01697972916540717 
-0.02059086286641059 
-0.01469329965091224 
0.0004303273995478677 
-0.001329719360396323 
0.005681335914990129 
-0.01428152600915728 
-0.009800661054891687 
-0.01780030687898808 
-0.004254226213991194 
0.01290429987448191 
0.005486357394509065 
-0.0005908104882959033 
-0.008269219963791498 
-0.01472127223861736 
-0.01681269173412727 
0.01851826367983375 
-0.0001140173261400132 
-0.008275794931724811 
0.01041742536327777 
0.003365447016433769 
0.006604301475715718 
0.004105984722295328 
-0.009823555031091254 
0.003087103119119038 
-0.009363299000496584 
0.006191364011729571 
-0.005566871023548392 
-0.003650679965157905 
-0.005308898625659353 
0.003567498126748179 
-0.004848943796475069 
-0.01277700715499019 
0.0001243580850284522 
-0.004969876280915455 
-0.01177183123352801 
0.01362073641415299 
-0.009525554003140018 
0.009349964787399006 
0.008153754073895601 
0.005318071583969099 
-8.819512462173496e-05 
0.01015786537839395 
-0.007406180123663254 
-0.008248096276743557 
0.004967937112146386 
-0.006258464936709075 
-0.003286691575663213 
-0.02461097710038758 
-0.0142817444863884 
-0.007569754593964082 
-0.01538997321301398 
0.01254048882326559 
-0.02292964927059794 
0.000717117086696536 
-0.02305099131046849 
-0.01652181193781645 
-0.009659058958284344 
-0.001344741846969885 
-0.02165301808149591 
0.02608142455100693 
0.01215344181533459 
0.001033088034950301 
-0.002022177816453919 
-0.02666586855176388 
-0.00929418805572439 
-0.01599118037820182 
-0.001981659934423888 
0.02047035679929989 
0.001053751326380241 
-0.002511958641114877 
-0.008345911496194678 
-0.01769235729133768 
0.001829997064577039 
-0.002673140859642296 
-0.00744746002288145 
-0.006118885941493447 
-0.006317539822548284 
-0.0210299382364726 
-0.008544133540666819 
-0.01757802455000885 
-0.01623964739664989 
-0.018149312119623 
0.005039065489637104 
0.04420028673485402 
-0.01438228634764091 
-0.003622055616458062 
-0.01779026920490713 
-0.02908838519361204 
-0.0157845293462703 
-0.003366822920347789 
-0.00168578421008003 
-0.0109047450054075 
-0.02097433621036843 
-0.01582132743256715 
-0.0134494010857802 
-0.01588275019784484 
-0.01145562794594464 
-0.01786358727794966 
0.02682510128701706 
0.04630782220418612 
-0.01446790394431479 
-0.02042869383398505 
-0.01712874957017931 
-0.01297410241375501 
-0.01494858504366004 
-0.00782287181718695 
-0.0005417901011882766 
-0.02370799447174488 
-0.0140421279209845 
-0.004477664181187632 
-0.01824643953981838 
-0.003859027814378139 
-0.002377357606313546 
0.006407059305250762 
0.01206810168085491 
0.01463307433002814 
-0.01277528012859815 
-0.01145810939960062 
-0.0207495446923078 
-0.02584819978948924 
-0.009929045342741824 
-0.007845493720040708 
-0.0001763349141443815 
-0.02507186288922759 
-0.01708621471334022 
0.0003253501642813909 
0.001997013018731634 
-0.01772958526712199 
-0.00579385747705928 
-0.007780900725227815 
0.04079821729732087 
0.003508736722446312 
-0.005279161291540544 
-0.01684116545498909 
-0.01418891403636436 
-0.02326037263845048 
0.004125089708157421 
0.000953557770784736 
-0.0009113748248362929 
-0.01698164984222134 
-0.01424579812032329 
-0.01861398968481308 
-0.03091613945171623 
-0.02962612214591102 
-0.01331235422360033 
-0.01490303824936502 
0.04346350715927962 
0.02376270485076717 
0.004530365698375586 
0.001491576081821009 
-0.01269781883481171 
-0.02103125897284782 
-0.009946743492793137 
-0.01917380460164214 
0.004798426755228945 
-0.04023545795213548 
-0.01270205080470987 
-0.01367664153878445 
-0.01923692185248914 
-0.02312367915244315 
-0.01278887556982392 
-0.009459219244360766 
0.02984252449724663 
0.006591297534794004 
-0.004715083257809612 
-0.0002737737933115895 
-0.01362696493463366 
-0.01738657637881348 
-0.01593932890103722 
-0.01594930694502222 
0.01296496076150169 
-0.02823223308595952 
0.002158592594746024 
-0.004793757977835431 
-0.0149940723999004 
-0.003549644422933978 
-0.01766435311995338 
-0.0007304066383653989 
-0.001363227216213748 
0.01907767593782661 
-0.01401739874703521 
0.0002476408169458139 
-0.004517845745408004 
-0.01178982850295084 
-0.008376256566181449 
-0.005840541229543706 
0.02897177906095644 
-0.03743456216948644 
-0.003714778750392478 
-0.007505881970204218 
-0.01384653689603869 
-0.01332851329591813 
-0.006467413474144641 
0.0009564117246130786 
0.01446656290890425 
0.01344854187286746 
-0.00283748246810062 
-0.01218256403309493 
-0.02488733291099187 
-0.02972396882523717 
-0.01851269221502133 
-0.008547505201147951 
0.01451845970189007 
0.002703622261887763 
-0.001255156876408616 
-0.00917826073750435 
-0.01618588034192987 
-0.01804851549589389 
-0.01317833365748216 
-0.002900070844795117 
-0.0100059225725295 
0.0243156999009676 
-0.01835586733427881 
-0.003616911582792085 
-0.005960216665925409 
-0.01889256834650163 
-0.001600389354264422 
0.007350425109031187 
0.001167137652811078 
-0.01163142059586285 
0.02580543282094562 
0.002982302927026921 
-0.002445380511083222 
-0.001455385133450382 
0.004710380031121309 
-0.0003225977766768594 
0.004925540950169259 
0.003844244977404908 
4.816803367982702e-05 
-0.003531060306570097 
0.007235870123292483 
-4.114114325446449e-05 
-0.009427616321677738 
-0.01097932742648222 
-0.0002761783785358893 
0.007665907782463863 
0.0009770296168561102 
0.01176092109270634 
0.0004974219481068547 
-0.009768692761937066 
0.003143151446342655 
-0.001682982392743149 
-0.003898971164204138 
-0.003743388426593763 
-0.001820843375273625 
-0.008397389976706377 
0.01303737103649399 
-0.008309044231292346 
-0.008926181527660474 
0.006115121924360769 
0.01224328138536769 
0.00166062513581749 
-0.006315514020437475 
0.008556007246619906 
-0.01794267392033899 
0.003145237777498607 
-0.01697265262454408 
-0.01210739585888239 
0.003785299136611397 
0.003357462014342124 
0.01907783925461068 
-0.001536183442360046 
-0.01351737119472246 
-0.01603458032258723 
0.004780043220569688 
0.009849603639084317 
-0.001749358086946459 
-0.01781731284832564 
-0.02263238378657625 
-0.02636238163052234 
-0.002685006405450313 
0.01962200506897145 
-0.01178894547395113 
-0.007713648925894238 
-0.0136822609846837 
-0.00154214779505651 
0.008026435043124062 
-0.005071433505723455 
0.001624495430749031 
0.01489112976712166 
-0.007538057742785024 
-0.003899105303416499 
-0.01602993918145476 
0.01691705174040193 
-0.009371985176227005 
-0.008970851284542258 
0.01232683424989653 
-0.009759148757199481 
-0.008393556443482187 
-0.01153569706522142 
5.609918523681636e-05 
0.02208363443007043 
0.008246202762360372 
-0.007615095968803474 
-0.0004122112781447673 
-0.007587755595792289 
-0.0006430674327409709 
0.004234648886857623 
-0.004441899008030494 
0.01252371031126622 
0.01136473989870366 
-0.002587306775436565 
0.00360020139287287 
-0.00808117368525009 
0.001759133130179917 
-0.01753792136254693 
0.0091887185849737 
-0.02018568435520196 
-0.007273960063369237 
0.01202160093284527 
-0.01194679675268922 
-0.007473187612916442 
-0.002784918068761297 
0.001398241639584585 
0.001628063774992541 
0.03238071771556626 
0.003386901071433804 
-0.01905444355787723 
-0.01391364407743321 
-0.01291994443282746 
-0.01305103125760427 
-0.01400837214341386 
-0.01378064602556345 
0.01314951863566012 
0.0006250704225841792 
-0.008048772530241756 
-0.01899353450508482 
-0.01251746748194431 
-0.01124204766231125 
-0.02190013610223267 
-0.003543657315377432 
0.03546161869657315 
-0.00377583690436573 
-0.001103622694038462 
-0.00887107280147835 
-0.01888971436177237 
-0.01790529105667082 
-0.01661444367877464 
0.01603989810752843 
0.01672030529109396 
-0.02174564638835636 
-0.0116001396206581 
-0.02191501647283555 
-0.02428611029139942 
-0.006273574223701472 
-0.001510877336006496 
-0.01151978809068969 
0.03939201204197171 
-0.02078149548550598 
-0.01647754093983955 
-0.01892909651001368 
-0.01990246940491126 
-0.01859965241569845 
-0.01466479117691367 
0.03129603898368003 
0.02630094823587772 
-0.01889160874985369 
-0.01657149451923309 
-0.01528413960602332 
-0.02894915527693617 
-0.005811517159546005 
-0.01356589423700188 
-0.007046227084652662 
0.01998200358586747 
-0.02433262965648218 
-0.01155062812330187 
-0.01560190456879891 
-0.0261163206616756 
-0.01412960245581405 
-0.02633140541055372 
0.01961040423055642 
0.01620196546383382 
-0.02786140857471407 
-0.01082098510337934 
-0.03032924403757656 
-0.0311952641962142 
-0.005462732973993094 
-0.01235176751457513 
0.01144272022930645 
0.0009803755787733959 
-0.002274039225578851 
-0.01165747151105575 
-0.01359451783858387 
-0.02633056816772757 
-0.03005584640377464 
-0.01527097764861789 
-0.005479420487348981 
0.003046221532127048 
-0.01389585472866985 
-0.01271936198703405 
-0.01946287119410835 
-0.02339443543643191 
-0.004869273978119514 
0.007199132579591908 
0.03446645070153245 
-0.008876973782665304 
-0.002971493724954327 
-0.0111869122929818 
-0.01984749083197161 
-0.02918074609818469 
-0.01700304538846959 
-0.01924410386641174 
0.006707255320868121 
0.02207808748120436 
-0.002411521908424794 
-0.01426125527898315 
-0.007481417454375815 
-0.02966135118539577 
-0.005130922810357935 
-0.008653060682125815 
0.03025547634625575 
-0.02113777402599107 
-0.00305870752937698 
-0.005222246335519237 
-0.02249642592310986 
-0.01802300188566955 
-0.005202648209752294 
-0.01860109160602429 
-0.0001981085075606105 
0.02727309713146994 
-0.00839388731600502 
-0.001810774457567797 
-0.0006194557387317835 
-0.02553786315476746 
-0.01073982935257669 
-0.0192565733595411 
0.0003173649905840068 
-0.03465002332432723 
-0.007118045222222057 
-0.001565959773558621 
-0.01064394996134586 
-0.006424089204177762 
-0.009982972337066161 
-0.02396774211422276 
0.01057670415808477 
0.02528954371645708 
0.00804250518997001 
-0.005751656751158333 
-0.01140492888496007 
-0.01350070248972606 
-0.02331924811094359 
-0.02113014954872493 
0.004242418295514734 
-0.04203827251760833 
-0.0008322876948721924 
0.005162098464133675 
0.007104813220257382 
-0.01087945220823124 
-0.0125093279787212 
-0.01215708449498188 
0.01269482442229281 
0.03136560837266894 
-0.008064695534218074 
-0.006117123691775624 
-0.01841697456883876 
-0.02233077150901268 
-0.007946609313077186 
0.003455529126584311 
0.01274519088988758 
-0.01704156472156925 
0.0009457556995183053 
-6.028146004610269e-05 
-0.01664980941353854 
-0.01802356214910001 
-0.008421665507094096 
-0.001859120427241687 
0.01391250929008337 
0.01878766604807335 
-0.01347964006343922 
-0.007195506356615806 
-0.01537103214821054 
-0.02000321611629857 
0.0002217679232654601 
0.01386675926939012 
0.008788667434647603 
-0.002904301218810218 
0.01318188742640721 
0.005646340984978643 
-0.01763810940164626 
0.005085739586149022 
0.005953484729362387 
-0.005162433502446267 
0.01603251542560826 
0.001159918731530049 
-0.009054751613740815 
-0.00944938467884144 
0.01602659824580562 
-0.006293990368166472 
-0.0113109157939108 
-0.01298029790379742 
-0.005883732984240328 
0.003049532117233838 
-0.003379328637036469 
0.005974675559016179 
-0.008385324945989425 
-0.002470473438898937 
0.00454310105652095 
-0.006465869929530887 
0.007818509482118154 
-0.00724245586596516 
-0.01422608721272662 
-0.01301883343412597 
0.007768477891005729 
0.001360081304336389 
-0.006435105821722868 
0.00683045772233232 
0.003066290175771514 
-0.005491031082183863 
0.003492200724643725 
0.009710987212677371 
-0.02596652238167414 
0.0121212893536138 
-0.009420269502473058 
-0.012918036632448 
0.003002772719071151 
0.002869176209295732 
0.0005935093174336596 
-0.0090297762362759 
-0.02275975054553863 
-0.01413947427376188 
-0.0006592738135064113 
-0.0003282061968848167 
-0.01285770581322556 
0.0002136565396360982 
-0.01363743201345674 
-0.01463936194264966 
0.01156654192023438 
0.00197962929794671 
-0.006436516342156742 
-0.01404108544427644 
0.009388896484527254 
0.01370836959777578 
0.003588808006702937 
0.0007117506228501631 
-0.005084415261092593 
0.004098624247641517 
-0.002580891064991721 
0.003105154328262739 
-0.002614586658686921 
-0.005730310087521616 
-0.02173648638222419 
-0.01389056302545886 
0.007823337480687548 
-0.01926717350757221 
-0.01028140724026115 
-0.009060322982893705 
0.01608453331828502 
0.01863594878630801 
0.01912112791086924 
0.005459490594290017 
-4.500167711325034e-05 
-0.009654337668540113 
0.002340266051259848 
0.00365868925360654 
-0.01442297744763889 
0.002415642398754404 
-0.01017887006084985 
0.0008166001007320619 
-0.007578279545696704 
-0.01705893388783338 
-0.008202482191696475 
-0.006680010851506452 
0.02220754521155595 
0.01077852613869482 
0.006303055718059356 
-0.004927477106037409 
-0.005500413701013642 
0.001910047139774772 
-0.01178228822390121 
-0.0008292461428708815 
-0.006165568105095173 
0.006464277530831864 
0.002340299910234943 
-0.01289298684946726 
-0.01486751255305237 
-0.01268414427255688 
0.003804484887617678 
-0.006578518294530477 
0.00867724800874008 
-0.03018188942038562 
-0.005320598521256357 
-0.01085626000250482 
-0.01577527358654184 
-0.004001797729355583 
-0.01663973649022434 
-0.00624268092275623 
0.00943284480603887 
0.02739920883484983 
-0.01767208148593969 
0.007384420979643072 
-0.006312147462183192 
-0.02506894269045107 
-0.01166437065720109 
-0.01632511941478017 
0.006486827350910158 
0.01092911382968686 
-0.006684053472930507 
-0.009007824262668565 
-0.008061773416531795 
-0.01466276740088002 
-0.009460548798607415 
-0.008263328060438696 
0.01275094138843255 
0.03977517941423239 
-0.01759097757905614 
-0.009742305241797675 
-0.01459182251214519 
-0.009492786852940886 
-0.008337004672503968 
-0.02119763940169798 
-0.007915029241476744 
0.01142540257814505 
-0.02669072206846719 
-0.01423094889954501 
-0.0263491519791009 
-0.01589796139363439 
-0.00726828264529683 
-0.003855428823026431 
0.02296462784326551 
0.04418863962416612 
-0.01933944433301442 
-0.005079454412269336 
-0.02005322700868033 
-0.01094386247861929 
-0.009862050841055464 
-0.003737308773913132 
-0.01731007171510383 
-0.0005843574510683212 
-0.01513214973697501 
-0.01420316688493357 
-0.01911508784448658 
-0.01291994532077046 
0.00458265340082481 
0.002268148969235923 
0.03118011765650918 
-0.007859019404488229 
0.01030734444730817 
0.00983934242597412 
-2.277276523668548e-05 
-0.01212431816868791 
0.003810453489262819 
-0.006520522804324751 
0.001679572017005006 
0.005273507173107441 
-0.01033230611314105 
-0.01690326276507494 
-0.007380717602071781 
-0.007587777231327829 
0.003784468917352005 
0.0001590553801301312 
-0.002786339139725963 
0.0006084126152524245 
0.00801931348781967 
-0.008058929467465685 
-0.002985575715376595 
-0.01398642187166726 
-0.00945088481493795 
-0.01245163694751754 
0.02199510391754982 
0.01599476763962595 
-0.01690799144418678 
-0.01834534727132454 
-0.001288009235909595 
-0.01180184251424392 
-0.01126916093863485 
-0.01982857343651194 
0.01301809204191585 
-0.007505164822857542 
-0.006305642764772446 
-0.001942155314516028 
-0.01524955171765765 
-0.02148375895859648 
-0.01469181526470906 
-0.001898060157644781 
0.01077389065098324 
0.009198670775078964 
-0.01546566376866037 
-0.006876543033876978 
-0.01379644865523566 
-0.007212657871161483 
-0.004164254573944686 
-0.01224623164536861 
0.0008789628982009619 
-0.004193464453956811 
-0.006939435276885881 
-0.007773364683846651 
-0.02336832904143526 
-0.01136279584238418 
-0.0005031178057719735 
-0.01914539333256174 
-0.001395753920289659 
0.01022900495821067 
0.008089827499470039 
0.0001334853453505362 
-0.005958581613446987 
-0.01004266253796801 
-0.01073410988202378 
-0.007269310260962061 
-0.0001280528186467712 
-0.006096505503041192 
-0.01268585646711328 
-0.003161704240664709 
-0.002196570680137322 
-0.005772048999051856 
0.0008634349049266662 
-0.01529870774198453 
-0.000771283929230872 
0.04018810189695334 
0.008395042310010814 
0.005533156780364825 
0.003117051828475232 
0.001453232976245083 
0.006882476817132537 
0.004822262269042639 
0.02137779117667907 
-0.03636081915208869 
-0.00171283010946318 
0.003932385727001306 
0.00202441460600579 
0.00712893996708954 
-0.003893005164154142 
-0.001627118712922331 
0.02755502501422287 
0.02141371048090102 
-0.008214996533356401 
-0.0037989301325674 
-0.008406492829586205 
-0.01089087280657082 
0.002581990624391005 
0.0005991437650340641 
0.006752565779337589 
-0.03525043214455009 
-0.007373130012591197 
0.01328680686937258 
0.0149259713997972 
-0.009895576408530844 
0.007694469542469717 
-0.005270861398634703 
0.01076439121147646 
0.02214612798138209 
-0.01114468773136533 
-0.01820517676848647 
0.01275553728227477 
0.009144088752973911 
-0.02142174502922459 
-0.01461958873794171 
0.006969838620425228 
-0.003260690657141018 
0.001253107145480931 
0.000356681091385767 
0.003579931253495382 
-0.007324451506220324 
-0.003932274461740839 
0.00174209797137875 
0.007853383076194447 
0.01044061343231369 
-0.005249273363133511 
-0.01558540787241691 
0.0110906163185529 
-0.000268012110334522 
-0.02089918600961142 
-0.006843624671430756 
0.002618875980089813 
0.01292143443178534 
0.002749595838295026 
0.002710636787001513 
-0.01452597014935962 
0.002030063220675979 
-0.01590610192522028 
-0.009041606732767883 
0.005475779688273061 
0.0009855525553331861 
-0.009783331263367199 
-0.01627749076341625 
-0.02194767972086013 
-0.02937218837485824 
-0.004916568795930127 
-0.004085947851372273 
0.002779235751953396 
0.01012759933132021 
-0.005273954876306984 
-0.01144961471493809 
0.01577069595515416 
0.01460781352228642 
-0.01246825649509482 
-0.001327685637719831 
0.01051808989912083 
-0.001256464107041423 
-0.003101421247492691 
-0.01230776092236407 
-0.004619264120818894 
-0.004681014099791585 
0.004106135736224579 
0.003114458392280688 
0.006753032966923806 
0.00672920880680532 
-0.01652845105581725 
-0.01064578116795537 
-0.002353000508223025 
-0.008572819059818106 
0.005990231967213787 
0.0001913379155552688 
0.01851566258788673 
0.0101174109341273 
0.008927876264740559 
-0.004128190330934894 
-0.008384452607607111 
-0.009423606103005879 
0.00133025509458021 
0.009382510900589777 
-0.0002297166105509807 
0.01113877169721667 
-0.000868499938898476 
0.001117443850095654 
-0.01878846851531283 
-0.01468563647916531 
0.002025858740877421 
-0.001868930536501663 
0.009858083499534273 
0.0001503533507437795 
0.0109236739813485 
-0.004633579164134217 
-0.01389635998488306 
-0.006391550393825943 
-0.00642466042559531 
0.01661172072004348 
-0.0007783622254054226 
0.01665561488897624 
-0.009881526862173081 
-0.01560054646809644 
-0.02053717910231604 
-0.009942296267841653 
-0.0006962256707069842 
-0.003839044170428568 
0.01780487549594873 
0.01877751789910429 
0.0009894052620634747 
-0.01294663418750957 
-0.01672168920943975 
-0.01205267330951586 
-0.01169458606258329 
-0.003668715069274259 
-0.005279256654365858 
0.02125832371159727 
-0.00707623343331439 
-0.009676152087274199 
-0.003951067504457883 
-0.02231518729133261 
-0.002881649705810241 
-0.01191989668208188 
0.01793736878136359 
-0.002623938923464603 
-0.006648676817159445 
-0.01094759464673097 
-0.003988303638320389 
-0.009406968908523512 
-0.01461095694282375 
0.00780210337211054 
-0.003297552816179486 
0.01919163815400222 
-0.01157789848931603 
0.0005643170674677087 
-0.001534561776461407 
-0.01911003155337328 
0.0017573611678683 
0.0004438616174176372 
0.02047144574189359 
-0.001637085862577579 
-0.01681502965820861 
-0.00728220567260279 
-0.01456214971022141 
-0.0210482475227463 
-0.008908899108914412 
0.005720062156233018 
0.003843594841873676 
0.02668864055820795 
-0.01207701979579568 
-0.01062969255531667 
-0.006350160540864551 
-0.0152385911677952 
-0.001032102367305986 
-0.006377815997232255 
0.003366320455380857 
-0.03051232281584364 
-0.01002487006569852 
-0.01207423318367448 
-0.01381982314010923 
-0.01757854464867918 
-0.006463488212645269 
-0.00502716641606087 
0.01112802735331264 
0.01796474296695657 
-0.004426779687641517 
0.007891706981131773 
-0.001475870646356604 
-0.02267283919738762 
0.0003688233359476805 
-0.002665704909441774 
-0.0157857714455331 
-0.002415957908006187 
-0.02828754497540798 
-0.01158726842303147 
-0.001246937336417326 
-0.001734301188452466 
-0.008748017053307489 
0.004225501100581494 
0.005850820822535172 
-0.002581528681674378 
0.02214120217792565 
0.008441834109994658 
0.004276731930227432 
-0.01335297770256876 
-0.001546585568993802 
-0.02157542690144814 
-0.0121639946912054 
-0.008813416899065726 
-0.01279904203266417 
0.002342857325952912 
0.003645346258924786 
-0.003237556416072886 
-0.002866975488528344 
-0.009618595615585467 
-5.067022609939375e-05 
0.01845034103484495 
0.002398009597936206 
-0.002499392282971985 
-0.01866947553311756 
-0.01432385480865797 
-0.002907253706237972 
-0.01910815233005543 
-0.005139014362143052 
0.002739143206247724 
-0.007191543224117912 
-0.01680093352940238 
-0.01774847942270381 
-0.01892059364938499 
-0.01743969290161474 
-0.009426592367207422 
-0.00046062612814007 
0.009097366058313305 
0.0007741070484948885 
0.002676444094722722 
-0.009045642091829004 
-0.005234699101832206 
0.005098066686405491 
-0.00834912215719622 
-0.007617820439519499 
-0.0008836437859298305 
-0.004926924714536789 
-0.0117889974600463 
-0.01108419370641446 
-0.02391045302408354 
-0.009936523374121351 
-0.01648359979489665 
0.02791355056774376 
0.01196720876823234 
-0.009951824543929927 
-0.00297457660284286 
-0.004445273557770791 
-0.001453139001581609 
0.01429370921878354 
-0.005054095219549316 
-0.006856189599419368 
-0.005160838926501867 
0.001601932720803177 
-0.002272768385203514 
-0.00525948466914194 
0.008663321909471916 
0.003838662954409882 
0.01810213966299064 
0.01086466400273569 
-0.02038040442897253 
-0.005631661213023476 
0.005964227301129749 
0.003311144339522546 
-0.007283713519557631 
0.006528690134642476 
-0.001075101070320903 
-0.00842771258262015 
0.01647635269453177 
-0.0008347783826891122 
-0.00246782749539057 
-0.0149093284881273 
-0.01351826006811103 
-0.008214249141440122 
-0.01032804577995233 
0.01539860542683954 
0.007448754382733978 
0.006904543173026025 
-0.0116502770586402 
-0.01052904879376597 
-0.001220888539021226 
-0.0002493843122707644 
-0.003934020714173299 
0.008086047898723376 
0.01415306247044006 
-0.01125062365136132 
-0.01175553132515703 
0.02305399443895592 
0.005402805952214529 
-0.02539448052281168 
-0.01167826811349255 
0.005873870094793665 
-0.02413745428551446 
0.00581470068434524 
0.008201675907486669 
-0.001008980546154654 
-0.002464619624710721 
0.0003450555782025786 
-0.005566309218201832 
0.01222737091729045 
0.002457511845582433 
-0.01229491425901673 
-0.008038792173936493 
0.0216821358636242 
0.0139087984398111 
-0.002387027549676372 
-0.004039962688845053 
0.002091465466380081 
0.01528005621440016 
-0.01127128695818728 
-0.009640203169889696 
-0.01512433716114545 
0.005583925851532875 
-0.009756137383787413 
-0.01569128111895737 
2.591064673589053e-05 
0.008300187017422243 
-0.003385379049158014 
-0.004367465665730805 
-0.01238831168808516 
-0.01816763062231346 
-0.003699380269635201 
-0.01113944214164265 
-0.001778521559983585 
-0.007179333931419237 
-0.001356613559836205 
-0.01362330646223178 
0.00755867984788747 
0.01517277711485826 
-0.02056714359734148 
-0.004900658314578876 
-0.002910380961019902 
0.01947482236644758 
-0.003837454417084149 
-0.00300833290156861 
-0.01613647582617693 
0.006700898392199406 
0.003165647103293345 
0.01716467237148158 
-0.001207396481170414 
-0.01812589879498114 
-0.01347129478108267 
-0.0220590026934075 
0.01814050988782025 
-0.00916252108153294 
-0.002875877452167876 
0.007566476025877055 
0.01129478520935224 
-0.001303837584438693 
0.009926874316316833 
-0.01450552361666508 
-0.0169689490466637 
0.001310347999073573 
0.0009536366658143184 
0.003758411381705564 
0.00940589515333329 
0.00885596382697872 
-0.007366237600152514 
-0.0006989438931433432 
0.0003580414798988064 
-0.01344691461298297 
-0.006985037276549531 
-0.001383719457884708 
-0.003502348954693074 
0.007818136419117248 
0.005795468784975504 
0.005074880402633852 
-0.008536328338108501 
0.01126763895397641 
0.004336804730895201 
-0.001468185582508969 
0.0125546918035868 
-0.004512326171492354 
-0.006593158693497579 
-0.001712682916706983 
-0.008885689774789133 
-0.0144191488985574 
0.004688887326013802 
-0.006446409794718008 
0.001269043890956513 
0.01173135338569193 
0.01782953065165014 
0.003163496428973771 
-0.007397213525589513 
0.001047763495289453 
-0.01683455327777728 
-0.008855929077864023 
0.001119981687589421 
0.01668359613078987 
0.000698358439177085 
-0.01060153906239027 
-0.00446455465708952 
-0.01077936868202519 
-0.01574191795053753 
-0.00826569106854538 
-0.001362592973835518 
0.008571842390354183 
-0.001683184686187033 
-0.006192344656617744 
-0.001796521489201279 
0.01222086691507039 
-0.009918587842348309 
0.007984395857122363 
0.01204366587918077 
0.003700450434118588 
-0.002207055053622453 
0.01242685036043834 
-0.0006241098286513997 
-0.007699429856871773 
-0.01143311510977717 
-0.002742702518182993 
-0.01503334133834467 
0.001329032825730872 
0.00357362134013162 
-0.008677933186220191 
-0.01584670452598649 
-0.007642993116187948 
-0.01002413591759872 
-0.006299556298558984 
0.01285347697776813 
-0.00788799692148061 
-0.00371990191686563 
-0.006572569410823135 
0.006662160466671332 
-0.005545648300443137 
-0.009182699685956232 
0.001375986410363966 
-0.0007373257138670441 
-0.01363952818673933 
0.003034774590234227 
-0.005753240477132952 
-0.007321083986326988 
-0.009435513078587324 
-0.009522817029403906 
-0.02078729833863764 
-0.0002652883497356669 
0.02457051097406618 
-0.01171940241137268 
-0.001893431070755517 
0.001690628449028337 
-0.01701598191419763 
-0.00423921807888018 
-0.01198696329435127 
-0.02032770259353009 
-0.01195399424451086 
-0.001305442600209238 
-0.008149584933350294 
-0.002475844721264386 
-0.005453590698154024 
-0.00124597424264491 
0.00776939142671145 
0.02307861834859495 
0.004879807696019859 
0.01128649896459572 
-0.0002836546401037043 
0.0039238108242346 
0.0005146169549188426 
0.01274641624127465 
0.00161720002076595 
-0.01218000074103149 
-0.01102758465768069 
-0.0123043342812951 
-0.001901629130360004 
-0.02371747177985148 
0.001200356467061218 
-0.01517965357495604 
-0.005194738042906999 
0.003492251516465072 
0.007918074212245904 
-0.01301628478173604 
-0.007216976020824553 
-0.002474527791810475 
-0.004913255331270922 
0.004507253432008937 
-0.007837199869564233 
-0.003346315538415375 
-0.005829393520390469 
-0.005010317238454588 
-0.007691428243605198 
-0.01107675597587844 
-0.002592782513065941 
-0.01494671102476462 
-0.004131830646444322 
0.006148627335201318 
0.007543185697740712 
-0.004484175000797086 
-0.01435989311623982 
-0.01579543413873228 
-0.0023029364964034 
0.01942931208005671 
-0.006047651833364201 
-0.01284982776351675 
-0.01035133564936493 
-0.007217607776529587 
-0.003296352219745269 
-0.01131026171083928 
-0.002932796109106072 
-0.01805900717301555 
0.002165389854034971 
0.01048535560076491 
0.001498817563857721 
-0.004855727661997018 
-0.001678561619821955 
-0.0003934931876659235 
-0.01260865375655766 
0.0142530796832224 
-0.01510619247356055 
-0.02114786485245022 
-0.000119602528215154 
-0.0039781738293344 
-0.009353443048237781 
-0.01191175023469163 
-0.01443162196262777 
-0.01862204762132541 
0.002492824225357963 
0.01299406758486094 
0.03965388277355207 
0.002093397392924167 
0.006581199534653877 
0.001105107992371665 
-0.01315102056186175 
0.01236480566395805 
-0.005015187240310528 
0.004551071966726988 
0.004753391022612382 
-0.01321056771647073 
-0.003422639318356622 
-0.01004333232217042 
-0.009889761896773552 
-0.01278137911058991 
-0.004526784950098911 
0.01918814285117683 
0.01759180388556475 
0.00141338552310491 
-0.00250068964563397 
-0.00736224172113261 
-0.00800496561741087 
-0.01866353602705116 
-0.002903610283358946 
0.001558147761949067 
-0.006104026766413733 
-0.01394550587796559 
-0.0147497461904089 
0.01312857427788043 
0.02109859111795416 
-0.009078507724110944 
-0.008161103796666928 
0.00156817316016945 
0.01332107238109941 
-0.007150397974631921 
-8.062680613166572e-05 
0.002935554256698354 
-0.02271251130724165 
0.004836109297281217 
-0.00417298647060096 
6.851276961890228e-05 
-0.00205775264081107 
-0.0058010866535755 
-0.004062006596739421 
0.01985395272930607 
0.02913652377995548 
-0.01800720340285141 
-0.01212172277393478 
0.009043475076615628 
0.008385017401102115 
-0.005108033309017466 
0.00183180968230854 
-0.02363483169083715 
0.007664066116508903 
-0.01303890722879474 
-0.01388288432872461 
-0.002673956360198683 
0.01013648440081513 
-0.0002684378058802811 
-0.003233649776061792 
-0.01762667734842477 
-0.02344252528539994 
-0.002807515446282769 
-0.005068053156561636 
0.01636709255629467 
0.01067078781373598 
-0.01366002244083484 
-0.02208311056380765 
0.007788916465232199 
0.02572687275299934 
-0.01604499688301452 
-0.01271771472914305 
-0.001596092868422077 
-0.001728773503489297 
0.007243088082363107 
0.0002355877004968137 
-0.007694166726850697 
0.007403917685815446 
0.002934141093986045 
0.01000577271146915 
0.001466784140722659 
-0.01461367978745963 
-0.001835442049201563 
-0.01161075292529887 
0.01782261432487695 
0.004272977739826118 
-0.006896484655393803 
-0.00833083735108955 
0.003286478676413504 
0.01658442510576678 
0.01356401608194786 
0.01245916117000407 
-3.490244968318377e-06 
0.01401975077639876 
-0.001219421287240862 
0.005042208317073957 
0.001363068090851838 
-0.02931371055066812 
-0.008600832391263573 
-0.003362661895160888 
-0.003197078244664005 
-0.003319014895612019 
0.0008938662464655904 
0.0008120532990561906 
-0.006148967362986445 
0.00478302216454375 
0.01785253667397963 
-0.005777366894996946 
0.007418789536355068 
0.003924803761532659 
0.0003637524302171802 
-0.003161541698041964 
-0.009260534156021846 
-0.009335067610362449 
-0.0001762823882099893 
0.004994639253135916 
-0.001508290139959717 
-0.00679208131065539 
0.004085946700771055 
0.009591182360413796 
-0.003798527215106224 
0.008237532085754127 
0.005035292136308157 
-0.01033818529037002 
-0.008642084618224421 
0.01210598699450344 
0.000550614922536899 
0.006752275248573565 
0.005586086987564455 
-0.00840492391501488 
-0.003873920563399738 
0.01541212098066758 
-0.001713742779319723 
-0.0152275391594714 
0.006264833429304393 
0.00421861193778043 
0.02348140087945053 
0.02128879882840684 
0.01417062302839553 
-0.005059407174078544 
-0.003604977381834807 
0.01032554555852233 
-0.006451776213254411 
-0.00118900663286932 
-0.006147231556717661 
-0.01432121848845074 
-0.007019611040068683 
0.004634509311566204 
-0.007656906816175785 
-0.01082917407856404 
0.006430776343521621 
0.01050397098154491 
0.01432854903986521 
0.005817459667006375 
0.01200268917047082 
-0.01499305809433559 
-0.00173961416568894 
0.0002053069222980818 
0.004507540609791149 
0.003915270407416606 
-0.004497075124318542 
-0.02356700436635774 
-0.01119510953135742 
0.01109610643568095 
0.008225133609701275 
-0.006893422135237168 
0.004514703488725831 
-0.006266685135091283 
0.008297637792699521 
-0.0003948724221308093 
0.002589227486171525 
0.004555745747223645 
-0.0005353189755975888 
0.006664817925830773 
-0.009257991192031271 
0.01412333996722031 
-0.009479135569906545 
-0.01350941172630238 
-0.01387783064991117 
0.002572578537459345 
-0.004543875221707862 
-0.01264464249003262 
0.001602079202126492 
0.002699819560378127 
0.003793485445753286 
-0.02180219901870325 
0.009891219284150108 
-0.0008647578013046915 
-0.0005728864561851971 
0.007451690695891825 
0.006026623518086194 
0.009526103719931777 
-0.0008743564945238278 
-0.02366817034402521 
-0.001634156829260471 
0.009746095663873111 
0.00417077799194919 
0.002552762130707291 
0.0142265207863023 
0.00991143707650477 
-0.01221349008639497 
-0.01066009073709786 
-0.0005461573987672834 
-0.0004558721001458404 
-0.004479186590979479 
-0.005347571049845451 
-0.01730174393226161 
-0.007358265530787179 
0.006184480946740636 
0.006589182756431251 
0.003117169691583849 
0.007571933846937931 
0.007149369270209536 
-0.01507040670281626 
0.009150435717702007 
-0.01004061907410067 
-0.001185080103541312 
-0.0006811706807135087 
0.004453431412751064 
-0.00248106006421046 
-0.002325351079855486 
0.0025855218365696 
0.003201954448021585 
0.0008568771823473137 
0.003218386522842266 
0.00416625990322172 
0.008165279245830319 
0.006368916580676554 
-0.001001342240345084 
0.005522622346687486 
0.01873321259255892 
0.001342851103089187 
0.01234563983998009 
-0.002419116906643762 
0.008487342191372017 
-0.002688289902135747 
-0.01124602349402203 
-0.001100110483249787 
-0.006525222076672397 
-0.00141300854809372 
0.007837522612538396 
-0.00672732948443783 
-0.005762398638347813 
-0.006278195602812191 
-0.008159956632862111 
0.003840738710832169 
0.01378171985191125 
0.0009589146302556071 
0.005264366424930189 
0.02319314194057922 
0.01560583914217282 
0.001392450387825601 
-0.01047863644112939 
-0.01342852813119059 
-0.002168083798404623 
-0.00837350073638864 
0.01656189191775375 
-0.002411073913702103 
-0.003644526659824789 
0.006508228987656688 
0.00138574643183393 
-0.005025232567907402 
0.002018054996884331 
0.001689063324319896 
0.00815553649791783 
0.003096255672325104 
0.01051537838719077 
-0.0048256911033395 
0.001170332334265879 
-0.004719497135414578 
0.007988654839714306 
0.02425701123137747 
0.01049414980548827 
0.00851613837758872 
0.00398889715954428 
0.001121896805174826 
-0.001800206925004743 
-0.001159055512829252 
0.0116028200425926 
0.0005963473809286455 
0.010223270082905 
-0.003036959177214019 
-0.01371867125126037 
-0.02038648990479352 
0.02015673245942786 
0.02068970463455051 
-0.01171958623435081 
-0.01046732605466697 
0.01425292310580845 
0.01700918523894933 
-0.001715101696673811 
0.005850507911198263 
0.007924609919436113 
-0.01727258362931089 
0.01098001331582037 
-0.003495126468546199 
-0.003249320044364471 
-0.003829441206660788 
-0.008232221499654651 
-0.009130876520473202 
0.02795806582053733 
0.004575229003774566 
-0.01205495235591723 
-0.004512562610982409 
0.002124550686141043 
0.01957686112887607 
-0.003033490228929246 
0.00182582283699119 
-0.02023792287129292 
0.01749240675857617 
-0.003347641582554057 
-0.007945572665467009 
-0.005585523986154927 
-0.005485379386311207 
0.002853161643321808 
-0.002994892735282807 
-0.009422421459262337 
-0.008989037366015072 
-0.00371327795427509 
-0.005266644027458627 
0.01003597238023936 
-0.01331491650321014 
-0.02224477131949542 
-0.02891727911972733 
0.01854513118745994 
0.04124120762087667 
0.0001855066858676027 
-0.004761161840506106 
-0.01003914565266849 
0.001881965437668678 
0.01904084316631927 
0.009703796629927628 
0.005743875868977722 
0.01657710590291029 
0.002895101366265301 
-0.004572215055650984 
0.003059808463479217 
-0.02110524307851023 
-0.01396759174359072 
-0.01680792784695461 
0.02759800593527739 
0.002354525548739229 
0.004661112256800534 
0.003777442111946347 
-0.006484689019253729 
0.01502476922313552 
0.02084320823996633 
0.01981931311568402 
0.01875690537847497 
0.01364087014015801 
0.007601649539622779 
0.002005455431573226 
0.01214675933958647 
0.001612566689333574 
0.0002821693562703389 
0.004579807696242871 
0.008554817714427216 
0.001006531838909223 
0.00793436923490156 
0.00741630395478788 
-0.01757827736207317 
0.02263734869373208 
0.02349053162123057 
0.01267911251454998 
0.008951918017890685 
0.009715217066280849 
-0.004012222934953884 
0.008173841497013151 
0.002519082987359299 
-0.005646599197585724 
-0.007668276032580142 
0.002080723525876703 
0.00562909766873701 
0.001617827556810041 
0.006490825817368441 
0.001730608074019635 
-0.0008740250165234735 
0.02076048151200065 
0.009694626654261683 
0.0135137927938464 
-0.01058709655299804 
0.01757607330398501 
-0.005558935210940742 
0.006786120550405687 
0.008448443263763782 
-0.002062589793061342 
-0.005158790892949286 
0.003604043294771757 
0.009775315664289177 
0.00322547103931845 
0.0195122365707431 
0.01276973280915039 
-0.003188925386665196 
0.00266888375316459 
0.005963040315764208 
0.001245769226653464 
0.006570284417387636 
0.01639424304120049 
-0.0009775339998436359 
0.01241296499350603 
0.009857240209785312 
-0.001201388697495505 
0.006598554469430933 
0.005998791239065788 
0.005537626173586212 
-0.004500421769574646 
0.008199636651964326 
0.005848258819828844 
0.002637971198201171 
0.002211834179674368 
0.01904188264298391 
-0.004310888519326783 
-0.01112775138335652 
0.006796907087735527 
-0.01488893848234949 
0.0112660758886152 
0.01458208443623004 
-0.001242277424663983 
0.0006327951918512123 
0.01714643511815368 
0.005499668406184635 
-0.003540904948229741 
0.0101618637173351 
0.0008804827135057584 
0.002868547931459848 
0.0237669953229102 
0.01058614720391427 
0.000375700708714823 
0.002975602375721219 
0.01249702404638278 
0.0003578595631094326 
0.003623616162662712 
-0.005624617342964518 
-0.01356892839242046 
0.0054630146633395 
0.00182544907171691 
-0.003278379644846803 
-0.005739819010717418 
0.02545134325087069 
0.00896015018788306 
0.006302483779933339 
0.02259528180813719 
0.01538927365942152 
0.01523542377526401 
0.00399065613330943 
0.01021006436747211 
0.001335147188495235 
-0.01117635290244923 
-0.02583640753658398 
-0.02619962454241143 
-0.01072905899803202 
0.004418286244589693 
0.007321102342507259 
0.003957171505419713 
0.01630611789499724 
0.002488028166870135 
-8.168259245943669e-05 
0.02064741535774804 
0.01290013687708128 
0.0036402894274829 
0.0007244298376378933 
0.001956160379444331 
-0.007455285131838443 
0.0008538853566382332 
-0.03361357866698409 
-0.008662192356922956 
-0.002346766912633395 
0.00973634837667791 
0.005289558639952741 
-0.0003559629769830597 
0.01512022229971923 
-0.0002702031092664514 
-0.001819206123066034 
0.01535493185951329 
0.00138796424692504 
0.007936023847622783 
0.007111164495412093 
0.006884283291183413 
0.002355436693399788 
0.01048336360847052 
-0.006775917378090906 
-0.007062857017700776 
-0.01482999524970592 
0.006991944254823926 
-0.001545597211954259 
0.00901349861663454 
0.005296355549428793 
0.01395394575849473 
-0.008562479792204423 
0.01570489399046577 
0.001427369659944245 
0.002260061456031923 
0.006117691493388312 
0.01655717466347475 
-0.002499347224669636 
-0.00451196407505501 
-0.02028475718248509 
0.006646439736082262 
0.001304689544288183 
0.008277976243303956 
0.01151837467255316 
0.005637351109486171 
0.00224399100568109 
0.01360193323097222 
0.008075074066166787 
0.01249501501777341 
-0.002631549456838413 
0.004678042051752235 
0.003265489360284403 
-0.003154969270053974 
0.00200259595768878 
0.006287053040074534 
0.004697796600965231 
-0.009615259684338955 
0.01393685279876237 
0.01906584691558804 
0.02175287761704054 
0.002797570056883019 
0.01406738284264086 
0.0188982258669085 
0.01216561110506208 
0.02459919100626177 
0.01113156173274014 
0.01149526373793579 
0.009835847354203208 
0.001298070951915292 
0.002757453015805503 
0.01201938304476263 
0.0003278146776644799 
0.006638167324885094 
0.01591957049658623 
-0.01241588124252056 
0.01175177687884455 
0.01729292588900992 
0.02275254260737204 
0.02283646508785022 
0.007288138547430418 
0.007016489868684572 
0.006335007597174948 
-0.002622470710472419 
0.03986605330188377 
0.01368116020710231 
-0.007245308221522074 
-0.01784638476133374 
-0.01654040775324737 
-0.006252457961736542 
-0.003953648393696998 
0.01305950320101287 
0.01375444856003037 
-0.009978011997608014 
0.002930599801255512 
-0.00241149676678852 
-0.00188486291657554 
-0.004449089967072178 
-0.006394687819355472 
0.001210661085081675 
0.03681253251837911 
0.05179936825787042 
-0.01487717144444298 
-0.01509387991437921 
-0.01641171614165723 
-0.0003331166221548652 
-0.007457428969828876 
0.0001481565884433513 
0.001768981909782159 
