solver_type L2R_L2LOSS_SVC_DUAL
nr_class 2
label 1 2
nr_feature 4096
bias -1
w
-0.001070319842379435 
-0.008003082856822356 
-0.002287389898014371 
-0.02277612483961613 
-0.009511494704360142 
-0.002804314658321095 
0.003736184300619808 
-0.001639421149695492 
-0.01849700521007515 
-0.01511645881584203 
-0.01016258173563857 
-0.01438452219727051 
-0.01528923202686671 
-0.01124887390769675 
-0.00849756277401518 
-0.004146985701115995 
0.01606288425708415 
-0.009210209191779747 
0.003928737537898471 
0.0006622204097862693 
-0.001401991839350616 
0.003808347225892277 
0.01325747432464969 
0.00926255967990317 
0.0141492465334978 
0.00277791989862903 
-0.001849646817476241 
-0.01597228283913524 
-0.003560653450085487 
0.001163303739878492 
0.003972524253090462 
0.04163963467263587 
0.01885619491051972 
0.01170040676139578 
-0.003275042133103017 
0.01387160338859657 
-0.003240694001136509 
0.01027807838601022 
0.01175281497313425 
0.005233860112534598 
0.007788222744635441 
-0.001919900631569228 
0.001472877680877469 
-0.008436848011142853 
0.003809216396347257 
-0.003073084838410149 
0.007939203871206141 
0.01935436606151001 
0.01004679881521774 
0.004358026765084766 
0.004029196688249493 
0.002884643382494265 
0.01506163749940411 
0.008642867345859076 
-0.005693070303852518 
-0.003989240076875311 
0.00278792097520283 
-0.002642242538791438 
0.00371020214605495 
-0.001520851655796207 
0.009827715369273625 
0.004315025210743012 
0.006258957398566478 
0.01888566483309421 
-9.13109536157969e-05 
0.0033495372963723 
-0.001254210820352512 
-0.002554967914645489 
0.004108399579516728 
0.0106874498117687 
0.009630303272616329 
-0.0006052629335866063 
0.006025549111235034 
0.00552297674367046 
-0.001460609214590596 
-0.0004299124501012399 
0.007224563427673715 
0.001701896774405608 
0.009557865506942563 
0.01987632791289661 
0.004844604608508201 
0.00190011211901701 
-0.006757413930854579 
0.006376853939068301 
-0.01681354896950119 
0.01615687115434915 
0.004830205572849088 
0.002060827455965759 
0.006433506697415774 
0.009478059280028739 
0.008116954505886204 
-0.003566072092068685 
0.00583120306887715 
0.008420653612132185 
0.00445254090435528 
0.01909954281702491 
0.00938016358129235 
-0.001156619175902949 
0.005217333389513665 
-0.01238295562924858 
0.0002091916870146324 
0.001937397009833911 
0.004471062199278667 
0.003790889105043209 
-0.00218429413877667 
0.001023890965176246 
0.01286922111796446 
0.0006986264192757593 
0.008260080084822839 
-0.001206258541772671 
0.005890122199258871 
0.021726643346586 
0.02227074294864221 
0.008650195810882716 
0.005147833114025657 
0.003029119922630259 
-0.005540727310513565 
0.009259614852833071 
-7.456973261053247e-05 
0.005598949974392318 
0.01028004393167176 
-0.001344981399342669 
0.00520361547161001 
0.005664298923515937 
0.001156220570416718 
0.004588549433268724 
0.008369569231053801 
0.01053763595272705 
0.004100394201102153 
0.0005979163216238968 
-0.00240823593919754 
0.01160014513965884 
0.001127414063942864 
0.01429698212017673 
0.002330509639119959 
0.0108023994072948 
0.001103369730186178 
0.0001066469248061206 
0.003475281299340464 
-0.00605412680775075 
0.005698373014989004 
0.0003310054176487384 
0.005164210009022647 
0.007407297312456579 
0.007126188916192163 
0.008515766932181685 
-0.009744770190879127 
-0.000400231172247128 
0.01909367441977991 
0.007734856698231401 
0.004346135610262818 
-0.001352998654190431 
0.01374487474315694 
-0.002327675852850341 
-0.001170905085529635 
-0.0168508966882841 
0.005311801018802893 
0.0001836379206992485 
0.003710000928377656 
0.01052886546365596 
0.009983413068419565 
0.0002294889699179401 
0.0004192600310051272 
0.008388093107135858 
-0.01398537245583806 
0.005633786153865336 
0.009064432291792147 
0.002787910215998498 
-0.006764337080677344 
-0.004400723446166697 
0.009327633143930945 
-0.004856759487762604 
-0.006848077170625746 
-0.00183222929369379 
0.001019389508883196 
0.01180132020431791 
0.01618145671966718 
0.0008088539746877189 
0.005299829563706525 
0.02044686154247252 
-0.01791448802343858 
0.006425472095533576 
0.005995414276441923 
0.01233352440361225 
-0.004552579894200295 
-0.00147303237386536 
0.004071364488693251 
-0.002960642421938825 
0.002123607656629478 
0.0007145477070715522 
0.002453180788297761 
0.01519268908304327 
0.01083211278676794 
0.007843048294908964 
-0.002001085348589993 
0.01625598331438334 
-0.01100343074242215 
0.004221292453741319 
0.008300231564955296 
0.01718823408087818 
0.002113351877611134 
-0.001076573499971473 
-0.003809466437091922 
-0.003474765088753561 
0.001865116310678239 
0.009318083808865863 
0.02196188533857853 
0.03453358904806855 
0.009700418946125663 
-0.001367325965260809 
-0.000573224288510624 
0.01701472075723179 
-0.001460704505582164 
0.006975371846497175 
0.002737350626968527 
0.008788701241905155 
-0.006524073901222057 
0.002729088501011595 
0.002140688067602674 
0.0004146835696239836 
0.0152557723234858 
0.007355692429382527 
0.004970044158114214 
0.0264396135972585 
0.007023454194210222 
0.002804643370743879 
-0.001719826812913636 
-0.002998581892884148 
-0.009262704505262729 
0.008522991757451293 
9.510790442365438e-06 
0.01855237226805965 
0.01825469934380402 
-0.006157882989072073 
-0.006736847425880805 
-0.007739226937616759 
-0.0007890140706504927 
0.002456834137359489 
0.007497648288224174 
0.01951650122698122 
-0.002039129950528262 
-0.01168425894387462 
-0.004926690393149909 
-0.008278713485545612 
0.001289942489337223 
-0.009729615714447918 
0.0001150619982904685 
0.009108174025971976 
0.004783566745926328 
-0.002712093238271717 
0.002999147051222308 
-0.003395088649611766 
-0.008831648496924794 
-0.003513880315232748 
0.01062930711353998 
0.0369015688346673 
0.004083191328064008 
-0.01375221545968846 
-0.01241768924565214 
-0.01258663883327559 
-0.01150951801818792 
-0.002128135833614453 
-0.001521174507437542 
-0.005597469822773214 
-0.02493317114639905 
-0.01308445529355019 
-0.01384131286084928 
-0.00775246690259745 
-0.01341581151065476 
-0.005531986102585127 
-0.005867611313527249 
-0.006647612796723236 
0.01854709293870633 
0.004442838801154196 
-0.001077711550706634 
-0.006700603726880854 
-0.009789992789828542 
0.01043007251222221 
0.0222843710363927 
0.01285708984053124 
0.006038067067964271 
0.006806763094004196 
-0.00164601464266275 
-0.009113046542224897 
-0.008126169328772132 
0.005292586131760892 
0.001447586768878121 
0.01505424195211992 
0.01139701830286324 
0.009503059374000915 
0.002606220192048174 
-0.0001929409678617096 
0.01214826563796218 
0.01465576425388312 
0.009108627722583116 
0.004577558560721416 
0.008788607593015755 
-0.01019725216349164 
0.006911157027797269 
-0.009748593194350185 
0.001233717223986608 
0.008597136702059662 
0.0001966804728602756 
0.01874970038289896 
0.0128184318905759 
-0.0002336323184111615 
0.006308026721657038 
-0.01207397609525503 
0.01865914580296884 
0.005356129205691533 
-0.000589300563730162 
0.0096037627548384 
0.001876705057702612 
0.002170555778172217 
0.004818769601885173 
-0.0003817448301605712 
0.0007325236156456829 
0.003788129779520578 
-0.008045173856576708 
0.004312478032000709 
0.003316924025072601 
-0.009951650413032547 
-0.004062002354724261 
-0.008156296230244499 
-0.007863712758793237 
0.008284938253223614 
0.003295764636056322 
0.004475715458062856 
-0.003640741736964828 
-0.00161211227933909 
0.00283135913486622 
-0.01585674172012075 
0.003396852760550424 
0.004607571689755972 
-0.00246764526956835 
0.01924127588375855 
0.002354055755681697 
-0.002663559628200404 
-0.001369019780225916 
0.01080347870382087 
-0.01008278056935667 
0.01464006572655839 
-0.003217182437758328 
0.005983225287541741 
-0.001831153460330255 
-0.01215676210988097 
-0.005043846708344917 
-0.01175545524407226 
0.0127897415051391 
-0.004747441301129939 
-0.00672705027275026 
0.004528652367752526 
0.01633470029461871 
0.004859217167481922 
0.003518402514951152 
0.004428933552437637 
0.003565037718843536 
0.01032804756188619 
0.0110484328045912 
0.01226700824677103 
-0.004274807697281406 
0.001577992640598799 
-0.01047199500462571 
-0.02428194727128655 
-0.002548087776851851 
-0.01383721794383064 
0.003022635486365939 
0.01188714072889332 
0.00922899359341741 
0.005467241525976992 
-0.006552828630831766 
0.006382886096130974 
-0.01293920633305637 
0.01482635890128255 
-0.003514829561961961 
-0.001171216328330423 
0.000370890967167258 
-0.008887192581455155 
-0.003417548186414777 
-0.01093037980642474 
0.009467940904535075 
0.01212939723053416 
0.007308328855643874 
-3.301232050714208e-05 
0.005382105188451424 
0.007563667762884085 
0.007766405484126 
-0.002032816967956024 
0.0002911381519475554 
0.008383341064718589 
0.003560611864720782 
0.004691575067502622 
-0.001639537075214166 
-0.003709572202906503 
-0.009115627550156028 
-0.02700633975878335 
0.01404847133106045 
-0.003994603968297715 
0.003761819374055839 
0.01301298370494933 
-0.003406328133329021 
0.005089960776529459 
0.01368878922075228 
-0.007473151295536724 
0.004823404506507994 
0.009641814271103595 
0.003133867625249552 
-0.005371562499091566 
-0.01000815948738958 
-0.0004427330184000147 
-0.001554473924574066 
-0.01254355938471622 
0.009146409954426647 
0.001449756598820681 
0.001460737825936844 
0.003889932860337765 
-0.001220629453492856 
-0.005151666845998585 
0.009380818362602104 
-0.002868929247146682 
-0.002131516376131162 
0.01248177823788849 
0.005234080914782632 
0.004512673264718113 
-0.004743306886785236 
0.002136355452646717 
0.003474284220247856 
-0.02322382297335326 
0.006793179686475189 
-0.01444775325108033 
0.003953492697657936 
0.01300356671173792 
0.002951993707651922 
0.0108717209309714 
-0.003560490431452714 
-0.003147317467457188 
0.01534613622430144 
0.002918557727952369 
-0.001030479427408851 
0.004557709357815193 
-0.009725506980063549 
-0.002578571264210234 
0.002260822628643529 
-0.008893288581045128 
0.002365251094604009 
0.001797586653247907 
0.001560342659164825 
0.01046014291234307 
0.006939847761532278 
0.0164495353687996 
0.01585877777219076 
0.009620636128368849 
0.001718566613354415 
0.007647547376514598 
-0.005354439376907043 
-0.002614421361498791 
-0.0001228963933810913 
0.007718056919096794 
-0.007552890337479788 
-0.01055770086430821 
-0.009470683246251889 
-0.003962699519112363 
-0.0003647375621470047 
0.0123855992798248 
0.01324399022837362 
0.002994775262367568 
0.00819774391446545 
0.01793273998530582 
0.004823701861763361 
-0.002787181019766635 
-0.002540949921848191 
0.005155073650199079 
-0.004475084721638591 
-0.004210429104271998 
-0.007455123686141384 
-0.009832841292257059 
0.009768063895236483 
-0.001792146691359308 
0.009073692522134929 
0.001229812225124136 
0.008749706760400891 
0.005174422085101629 
0.002079182841499624 
-0.01137106842161444 
-0.006605633773303345 
-0.001542710271922153 
0.005566762685189668 
0.02141108129336474 
0.001157752391071709 
-0.004676644402302521 
0.005969906906345333 
-0.009714560650760281 
-0.001417757256900802 
0.01172022694315081 
0.008200089225784593 
0.005268084780789666 
-0.001068894086591961 
-0.008798522925495727 
-0.004568760135442634 
0.01661417013709565 
0.004633235948447528 
-0.01765788378549555 
-0.003838995780032262 
0.003107171709555355 
-0.006780126082390169 
-0.003353617905034389 
0.0006654497168719204 
0.002149875145232554 
-0.02319530734523446 
0.007068476067675622 
0.01874786341276325 
0.009713442666830403 
-0.003515286692252828 
-0.01520438984714202 
-0.008032116139538047 
-0.01574433910767877 
-0.01476418318789453 
-0.002699032053629407 
-0.001487333850088106 
-0.008558800614260108 
-0.02916082680696747 
-0.01534525195588363 
-0.008818965243181572 
-0.01786632115996668 
-0.01479722159467516 
-0.007688734675687102 
-0.007484212237114538 
-0.004368131707813968 
0.02235264467159499 
-0.01846624424447247 
-0.002601614728776758 
-0.01229875293264971 
-0.002169226007947786 
0.004647040190941032 
0.007258464281426783 
0.007178614295818216 
0.004486766216425959 
-0.004140053705313776 
0.004245801435582989 
-0.005273762047305368 
-0.01235640400232115 
-0.008256592470430981 
-0.0005799638164453249 
0.03638544877702993 
0.005399551799028412 
-0.00645209581658238 
-0.00877005162449996 
0.00255533479576766 
0.007387059610212378 
0.007464826961790287 
0.008266276377719659 
-0.003328853629353947 
0.0006817019880855918 
-0.004570706988329809 
0.007618039750067885 
0.004894327510472568 
-0.007699954908158114 
-0.008743408113199871 
0.001438901842953181 
-0.002198570046550387 
0.003113045723784945 
0.003944873236056701 
0.003045099619292925 
-0.01738626843880616 
0.0003828576958786772 
0.002279199541131798 
-0.006346452666889213 
-0.008814000995346939 
-0.008991593706866566 
-0.002560736141768238 
-0.007626351745362905 
-0.000257182563805558 
0.006538309448075501 
0.00881503755463766 
-0.0003500884471968656 
0.002468830334228305 
0.004370905795919497 
-0.0074029459810201 
-0.003543036699044197 
-0.01417639003253961 
0.009976932081836271 
-0.007611151145905423 
0.00501769511503317 
0.01140026151385718 
-0.007635394404559711 
-0.002353161607073815 
5.521214765219559e-05 
-0.01000588194229061 
-0.003039104253864436 
-0.002533150700155936 
-0.001715915250953194 
0.009114292788303703 
0.003464333667509739 
-0.008065694429310759 
8.667436680569299e-05 
0.01140957471506682 
-0.002080645209606339 
0.0004646017677005815 
-0.005176327558047165 
-0.006880069600708921 
-0.01279138541131385 
-0.01265363773954423 
-0.01183552860789329 
-0.01248545963999188 
0.003444873772065976 
0.008715258517003725 
0.01399253412046277 
0.008697345883525153 
-0.004007450804493034 
-0.006974410919719161 
-0.004139986120037249 
-0.007144598603039258 
-0.003762969429441919 
0.004655705159417243 
0.007755573118490971 
-0.01556607234414203 
0.001876691650352221 
-0.003886863245615386 
1.769947907474346e-05 
-0.01235111240933666 
0.004598934042377887 
0.0007807360480952655 
0.006127683785640819 
-0.0004562622057538498 
-0.008249494729919142 
0.001011105906342983 
-0.01229989502083239 
-0.004634961219027659 
-0.004158397660340216 
0.003705735447359171 
-0.004609029466456625 
-0.001621010025928364 
-0.004830214896038114 
-0.01020235504855886 
-0.006883057117952033 
-0.001722823238548698 
-9.332175279225277e-05 
0.001602388782394986 
-0.0056366170553984 
-0.005185675969961356 
0.005160744610602718 
0.001637198195840552 
-0.001727261060721844 
-0.003819154980843344 
-0.01716847772500393 
0.001789130271653461 
-0.00330284288449033 
-0.01006206862543728 
0.001921775688204044 
-0.003546854231306337 
-0.0001399538653087631 
-0.01124041740392175 
-0.007918697636496882 
-0.01157797274192031 
0.001585320921115418 
0.01511910022154933 
-0.002901442043616774 
-0.008687723252339465 
0.001255987652506869 
0.01704807125703274 
-0.01577864442127554 
0.00771854119879431 
-0.001806143112207098 
-0.01377541073449438 
-0.01261924521871669 
-0.005091958758544519 
0.003346512700220286 
-0.01038676268862978 
0.0144514904747356 
-0.01094881893672814 
-0.0007829046556419946 
0.005495892550779785 
-0.01771672113217203 
0.0004666634138311968 
0.0009664095685674041 
0.01108995951785837 
-0.004593922671212962 
0.0001632597263289757 
0.002322822182492132 
0.005236713562156107 
-0.01160573320960989 
-0.0007997173100965547 
0.001206773574300693 
-0.01294485529332302 
0.01542498261515116 
-6.939655072208553e-05 
-0.02022433767281292 
0.00940320626040827 
0.002045095649919488 
0.002897885669959832 
-0.002519886955679579 
0.007116433015543715 
0.006156278567107223 
-0.001259172666880162 
-0.0001322337187287886 
0.0008539040776567386 
-0.0121974234866159 
-0.004207242900285688 
0.002645102104151208 
-0.00906125322321286 
-0.001589441941736325 
-0.001251303856686259 
-0.001375030892995857 
0.007574544470122455 
0.008389333909526744 
0.001147278141818931 
0.003291719563574576 
-0.01197302507865849 
0.007732001930500925 
-0.005312320220316261 
-0.00603731031857755 
-0.007681659670800565 
-0.008645895945516423 
0.00999459468614255 
-0.001955434937042787 
-0.01033288291048107 
-0.001607368243968563 
3.4795560325531e-05 
0.01262390818322893 
0.02006104023546283 
0.006505286365991235 
0.0005131099986785492 
0.003577430750949798 
0.004465045500214614 
0.008522964814110785 
0.000459928314447483 
0.002729422665563109 
-0.001947913672859306 
-0.009401344727455862 
-0.0110692076652967 
0.0005935115675334169 
0.004241809094285946 
0.003048177732944261 
-0.006769118107983562 
0.003517362729386584 
0.00836276432543605 
0.0117066998018094 
-0.002417788455065627 
-0.001302798478657018 
0.003238868599205313 
-0.003027625446032041 
-0.000706986892263593 
0.001545594777154451 
0.01403812405175318 
-0.003807775040727454 
-0.00160239642875539 
-0.0178317797092187 
-0.01103330994995124 
-0.008959923723983011 
-0.0002424273903898143 
0.003862203188703687 
0.01274812068910193 
0.004573857958336328 
-0.01290473345650099 
-0.005678707856243746 
-0.01498422548259147 
0.003920359460279443 
0.0003799402513474806 
0.002652996515446412 
-0.008479617409794755 
-0.01296741963298696 
-0.00832873474980814 
-0.00520515338116907 
-0.007913978510597094 
-0.01607787711957976 
-0.002151952034004298 
0.00246628745799464 
0.005260868828713597 
0.01619888523767533 
-0.005288810090869549 
-0.01059175488487596 
-0.0204703759326614 
-0.01727673616583112 
-0.01442869902655459 
-0.00402260861204493 
-0.004089402542169721 
-0.04107858023300603 
-0.007549108334173158 
-0.01364098415388016 
-0.02575752367091119 
-0.01963339958595204 
-0.006129755024707024 
-0.01750280767902205 
-0.001975715467234556 
0.02364602416704881 
-0.00339402296333295 
0.0006247171352846963 
-0.01122908095878002 
-0.005590066145794199 
0.006716622938940801 
0.007822344637935982 
0.01203350959743732 
-0.002863358834209256 
-0.005070255065980565 
-0.005794590603741929 
-0.01611295843811882 
-0.00167783292074569 
-0.003277502004938597 
-0.01051418245723011 
0.01314946923571768 
-0.0002235930852647292 
-2.309620237266502e-05 
-0.001191271903337304 
-0.009436960184363054 
0.003518941416064081 
0.01630544357012697 
0.01052561745846112 
-0.002590827483591818 
-0.01119930357408798 
-0.007605619516119874 
-0.007222579401451361 
0.01382309139754817 
-0.003336122684158849 
0.007006019455301093 
-0.00129340795495921 
-0.00479505496202095 
0.001226321492814749 
-0.008088512266503867 
-0.009341211407846708 
0.005281379105686656 
-0.007379781976482798 
0.009141637839223466 
0.004837526127660078 
-0.003861714603309677 
-0.006910138282040088 
-0.00938117431369105 
-0.008703762879325958 
-0.007125537109567667 
-0.004387294491796144 
0.002913499812251235 
0.01618816581690976 
-0.0001317582876101654 
0.0004121515669658163 
-0.0005181282220926233 
-0.009487475831734839 
-0.00783750665730806 
0.00542230848256986 
0.005464077785386465 
0.00267165539081506 
0.003846237990258019 
-0.01946895868641522 
-0.01930774213581582 
-0.01323293612600764 
-0.01077556937676732 
-0.008875895795612872 
0.00331002871038712 
0.003288776561279328 
0.003221690715298416 
0.004169123303442264 
-0.003322329182140061 
-0.003955438776176435 
0.008603361840106136 
0.002247936485267695 
0.007682067312352887 
-0.00942916380392377 
-0.001918311015706642 
-0.02250528210869698 
-0.01314044613970321 
-0.01696453966846325 
-0.008112504110028703 
0.009947300745587641 
-0.001711198164025465 
0.005936118577986256 
-0.005100160836509413 
0.002116186269438894 
0.002375308054110147 
-0.006714185466670362 
0.005973732809704551 
0.01302512550467048 
0.00533853716763295 
-0.005622486091133099 
-0.01481741249729229 
-0.007699795931069703 
-0.007344953326854082 
-0.005024746144103816 
-0.00587641809769326 
0.000735464646364841 
-0.007007311492430214 
-0.005796816250563009 
0.002121513927328095 
-0.00781707964110623 
0.01210318594342902 
-0.00034837033592237 
0.006758919085408404 
0.0003629614040729605 
0.007500687848545637 
0.00043398560108733 
-0.001874045544544297 
-0.009513223734461925 
-0.01359176905734626 
-0.01526700752061311 
-0.02540915471265215 
0.01820131390896778 
-0.0005144221023306541 
0.005607175291695589 
3.320396637619546e-05 
0.006707052746511893 
-0.004946268955911926 
0.003428031077938981 
0.005631061177433727 
0.002335600727233845 
0.001780309631234044 
0.004606342314239512 
-0.008976754664279562 
-0.01619132633177247 
-0.006166665582209699 
-0.01359429132424638 
-0.01051386588712839 
-0.004834483714889672 
-0.00514796430644904 
-0.005923156919275563 
0.005413517351526944 
-0.002466967593476449 
-0.003701420448822025 
-0.008893595851305331 
0.01973622656801932 
0.001758850300985545 
0.006754574466256142 
-0.005589964847977107 
0.002856891036443274 
-0.01909088873679305 
-0.009344786434893587 
-0.004815303883701061 
-0.009580798787900141 
-0.004453926596931436 
-0.003863640001678009 
-0.009683097053709767 
0.008606993521393661 
-0.0004190373350899678 
-0.005189011378670324 
-0.009268741631555721 
0.008184072603634617 
0.006290986104955004 
0.005599550118411719 
0.003962446394698563 
0.01194387373543497 
0.0005670575300522649 
-0.0011527159160272 
-0.006594528980447587 
-0.0202386693324859 
-0.003965388491677539 
-0.006579991100993378 
-0.02321189390617565 
0.002820846887501888 
0.001595302260228734 
-0.003031485394874806 
-0.002356728463241662 
0.003636767607295529 
-0.003855029531268935 
-0.003413110052944954 
-0.002267445222116807 
0.002349706417538047 
-0.01046819928908465 
-0.003024834928654235 
-0.0066822150131614 
-0.002682810784753217 
-0.004790848494237961 
-0.01203195404726506 
-0.003602316271990708 
0.00739611744878353 
0.003543847286736761 
0.006755881610538842 
0.002591092694117428 
-0.002223543066848941 
-0.0007289131566555862 
-0.009428896783963527 
-0.01049416794256971 
0.0009855746984404443 
0.003671042557053443 
-0.003939455022343549 
-0.002797004077738271 
-0.009005477890243479 
0.009304825076668511 
-0.008983641470440786 
0.002184485751990931 
0.01413397327132435 
-0.001595656123333454 
0.001184567932710208 
-0.0005198773399605897 
-0.006698591610161321 
0.006778982086058723 
0.003384677577821327 
-0.007876405182682093 
0.004425799315841298 
-0.009308946077684978 
-0.01054812246931841 
0.009353406553695669 
0.01302453170392683 
0.007413463750081908 
0.000333120198367342 
0.002746324257359719 
-0.0002318535236390002 
0.01728785928590039 
0.007131253258315325 
-0.00630776133614694 
-0.01984731595360514 
-0.02012061086566154 
-0.003675201875727737 
-0.004345746297350735 
0.01297440469786239 
-0.007389325553448323 
7.571902923315416e-05 
-0.001522017706828673 
0.01014783933611354 
-0.002534253288350999 
-0.004302378204864561 
0.006948954836399518 
0.008770419066996472 
-0.004083472155070636 
-0.008925447410877448 
-0.007639841373301603 
-0.02124214165913006 
-0.00121425496677811 
0.001010996215059787 
0.00621024388522214 
0.008282477587052141 
-0.01694032828294932 
-0.004801831963707188 
-0.002616092026401594 
-0.001504604441400114 
-0.01895940755057456 
0.001776569794698947 
0.0142682189478673 
-0.007303638662295291 
0.01116709449197462 
-0.009452142538255336 
-0.009042052678221262 
-0.02329145889416838 
-0.01566915277249306 
-0.001053370949389666 
-0.0004777224860599982 
-0.008226238470911409 
-0.03969631296342293 
-0.007769683006016551 
-0.0105135896756951 
-0.01980788043937543 
-0.01381844080746973 
-0.01176722211351395 
-0.005088324544284845 
-0.01434151608364151 
0.01048943044093539 
-0.0142332383283357 
-0.006127801439316935 
-0.0005986830946842726 
-0.00243179630221713 
0.004738576287515074 
0.0008974623841969923 
0.009606998013734358 
-0.009928989137451711 
-0.004906705560418302 
-0.01093677558112134 
-0.009819712391035138 
0.008692472738021558 
0.002498668109571954 
-0.01227836375949446 
0.02593268120727696 
-0.005082063020344304 
-0.006328440428809831 
-0.01719437278428539 
-0.007572496385525943 
-0.004083150480860537 
0.01397357328306614 
0.01140150855766069 
0.009139240721500111 
-0.0128904341926631 
-0.006888525723013747 
-0.003753206303717412 
-0.004013862533497595 
-0.002914998609123776 
0.004155756866999354 
0.005601533151363611 
0.008543666421864092 
0.007233404906987242 
-0.01397820173101293 
-0.001675219198549065 
-0.02598151917494381 
-0.01408882947928783 
0.0237970109390126 
0.01780958908143766 
-0.004949841082612047 
-0.01812981912366477 
-0.006686239322003682 
-0.01280061112195185 
-0.00994369881208604 
-0.01148009618641426 
0.01284680362568877 
0.007191513672501643 
-0.01003083609638827 
-0.001414331248798545 
0.004286912420704133 
-0.008639776323720484 
-0.006234309263188498 
-0.003898762178459523 
-0.002082572746523395 
0.009064818459042253 
-0.003410278246472557 
-0.006516712212475176 
-0.0151939497600966 
-0.0009542933130833466 
-0.01093129637932055 
-0.01034878432479272 
-0.001798410088132015 
0.0008862005371230339 
0.001011621058296851 
0.01158098151232179 
-0.001328477344063561 
-0.01305394669639354 
0.001143492181558797 
0.004630500777727287 
-0.00317830703917334 
-0.006629894818886731 
-0.01568574398715094 
-0.01296601454387301 
-0.009440918087062865 
-0.02027655104437749 
-0.009734372334045277 
0.01702589506712585 
-0.006038966278137712 
-0.00211367222995752 
0.003419621049602163 
0.008655230102427601 
-0.007308102371112419 
-0.01041593431628407 
0.003267679397383851 
0.01255188384885381 
0.002932124333151601 
0.00633519537373396 
-0.003313816196094061 
-0.006551409060127387 
-0.01815122309916049 
-0.005390480198569946 
-0.02033577967713385 
-0.01209586294415973 
0.002313915803415359 
0.001472814397429955 
0.003089725868790659 
0.002081842907291905 
-0.004831800837021112 
-0.0006723605163549585 
0.004996006090305641 
0.01822455545621805 
0.001513861521947649 
-0.006355875341402415 
-0.004587779746564511 
-0.01840110291432231 
-0.01076849766067885 
-0.02550416884660922 
-0.004881908071737136 
0.004602478210070017 
-0.0002788600341604588 
-0.003885767163280981 
-0.005709695302681851 
-0.002265750639789346 
-0.003619806810759131 
-0.01142893421400587 
0.01190615393791966 
0.005664236857854353 
0.0004265866123044752 
-0.001545289143209839 
-0.006143182462396379 
-0.01711850301039564 
-0.007701870689548644 
-0.005380349948326144 
-0.000700916924146307 
-0.004258339895693146 
-0.009323123008635492 
0.008771593698986183 
0.006531754963034131 
-0.007723410551854239 
0.0008920747399475663 
0.006010685078881474 
-0.0006199855453318393 
0.002304555101646968 
0.005766162156672651 
-0.002372255114382249 
0.0003640443562842876 
-0.004631649498195482 
-0.003172158068007392 
0.002739952188726588 
-0.01061708799866847 
-0.001491872143574513 
-0.006267494800497688 
-0.007537838525584551 
-0.001874493309187385 
-0.003971959572328097 
-0.01669792817563582 
0.008975390033389872 
0.01479766781296088 
-0.02563931085967717 
0.005772450599194186 
0.01102617279251729 
0.002472616467393523 
-0.01218115108824498 
-0.004042300933039687 
-0.003362441569421533 
-0.005394611277642976 
-0.0002705289723694889 
-0.006824457036842657 
0.001000014038060533 
-0.0006065276821045168 
-0.004153710229942503 
-0.008046989024185686 
0.01038974553835977 
0.005760213152489492 
-0.01281329507680295 
0.001537943664458623 
0.00116728332604631 
0.003580023720686056 
-0.006662379403195163 
-0.0024848712807999 
0.0001522071561132955 
0.003054242284542194 
0.004984368521649162 
-0.01716288907449793 
-0.007687928067585228 
0.004535408609249535 
-0.001201130929809838 
0.001395856162899627 
-0.005918909274572354 
0.002380495843925037 
0.004244909267474802 
0.008199264248495798 
0.0003503856054216794 
0.006076665382226799 
-0.005649793849201563 
-0.004569080226980691 
-0.01341721857098167 
-0.01063009498742244 
0.004958326416138486 
-0.004265631292245177 
-0.0007424209939663584 
0.00913035073168463 
0.005308353479118766 
-0.006666030625903036 
-0.003852012196789381 
0.01729331842156603 
0.007678729785589913 
0.003153677390369698 
-0.009545657369648965 
-0.007778843632369537 
-0.008922370668904943 
-0.01421477123467982 
-0.008846579432671958 
-0.0009423517916874188 
0.009317990565344419 
0.003901747866157759 
0.0001678610194337789 
0.006206471046674051 
0.00698707127487387 
-0.00502951629131909 
-0.004064161725606506 
-0.0186979646594734 
-0.007642135845085621 
-0.00245212689714443 
0.002051505511543657 
0.02028532315027653 
-0.008663090030966629 
-0.006155820765974361 
-0.000933944612472203 
-0.006630825112154539 
-0.001395458256196369 
0.005347101795772968 
0.006053380914469989 
0.0182164700935577 
-0.0003334339282917427 
-0.01732379417574699 
0.0005113541873768109 
0.008812182447898555 
0.002457695559818349 
-0.02264078135554111 
-0.005142420999991099 
-0.0107510920134353 
-0.01574150082619174 
-0.006649584792452056 
-0.002546772904593461 
-0.01274239326312751 
-0.01308757938384829 
0.003440552488435085 
0.0009719414329872365 
-0.002012408550752184 
0.008413459407907871 
-0.01300315566034224 
-0.01013074423950987 
-0.02891229183411194 
-0.01852952617114291 
-0.008780130187407482 
0.00234470287596598 
-0.009166353221745213 
-0.03487700690964711 
-0.01074705435430874 
-0.01028135312105903 
-0.01874122127255371 
-0.01115970137522091 
-0.006479028939897705 
-0.001511631734369095 
-0.01463981536800674 
0.02494703195486515 
-0.01389990709476936 
-0.004142615783577877 
-0.007609579961215157 
0.01264898133647759 
0.008575934293589266 
0.01293285258757411 
-0.008548212847264952 
-0.006583839573009527 
-0.002728229995916086 
-0.006280438727960744 
-0.001342874780487593 
-0.001838341641352373 
-0.00180940399592377 
-0.006565101498562618 
0.01141090388694502 
-0.0002257142179608483 
-0.00346899857156058 
0.001124293453941574 
0.002085334695636661 
-0.00780806021593741 
0.008314115822255903 
0.009676443709909525 
-0.003335144796406271 
-0.01017647847040615 
-0.009323176616534264 
0.003842100882522083 
0.002405539553503176 
-0.01322427301031039 
7.369597158314486e-05 
0.007226287004572061 
0.01019067546741192 
-0.004466865255539396 
-0.01220637382300971 
-0.00430848373342169 
-0.01575280643580399 
-0.01118372712777521 
0.01545431351708658 
0.01340537566827159 
0.001334883597404585 
-0.01457165453458664 
-0.004309096974284162 
-0.02189817094270504 
-0.02189526778478994 
-0.02244049737641122 
0.01439103863601929 
0.02412966141077534 
-0.008558658624116824 
-0.001188431664062811 
0.001034503519183582 
0.003746478200168954 
-0.02617047064452156 
-0.003692323960942444 
0.008967071455369487 
0.01321695066093893 
0.001538369430357992 
-0.009057166045377421 
-0.01014459537689856 
-0.02184076047689043 
0.009215046158962226 
-0.002526439952263496 
-0.00974880860238681 
-0.0001304259287693533 
-0.001602759785112672 
0.00627200369641729 
-0.001205119720556438 
-0.009534390855866524 
-0.01198254496513625 
-0.000248767316579412 
0.01078627369564462 
-0.00395802236287043 
-0.01408987895740339 
-0.01189893030621662 
-0.005557640834462623 
-0.01039422836253783 
-0.01195163088134301 
0.007392898150368994 
0.001311117542710165 
-0.0001178262511709287 
0.004796049412086547 
0.01199090174457847 
0.00370882804566817 
0.005733980891910659 
0.00835387392816608 
-0.02089388090100076 
-0.01246609003079922 
0.001829222598322882 
-0.01498203146814891 
-0.002395117062754689 
-0.01218244404585431 
-0.01748457350226118 
0.003636054355483965 
0.01304303408051361 
-0.008023799797060598 
-0.003807750767477616 
0.00766721620636951 
-0.00027469505018709 
0.001607952583434528 
-0.002051438176146367 
-0.008977373938218668 
0.0003222662310939138 
0.005132729834131371 
-0.003063521882040942 
-0.01494478731093988 
-0.01778232110381015 
-0.003239365273761019 
0.003833622416186404 
-0.002656164835818984 
-0.00627213031816135 
0.005573103437289421 
0.002819002268576048 
0.004536327488592956 
0.001102569435225903 
-0.002159669172774215 
-0.002575464583696107 
-0.009292867690225502 
-0.01058750532825676 
0.005582182079251262 
-0.003406657825810531 
0.002671695557075074 
-0.01002025491383233 
-0.002785381309176882 
-0.005583541397557148 
0.00639843645699413 
0.01567051530071487 
-0.006211900385415857 
-0.003246490216795195 
0.001341327650602399 
-0.003279063228642838 
-0.004330885128375823 
-0.00519277782308223 
-0.01301055872747017 
-0.01162496888510187 
0.01041844313814901 
0.009283420604167826 
-0.01155599711139988 
-0.0002080936248391606 
-0.007413897778648422 
0.001985793166632417 
0.01263003727235418 
0.005449922963863732 
-0.006301227272718172 
-0.008414100747426221 
-0.0009676572708168275 
0.003909194219888725 
-0.01619336735104074 
-0.007847560856403219 
-0.01758119727175318 
-0.01513327126020619 
-0.001862400747768029 
0.00242567122904311 
-0.003904941821549638 
-0.009271279538640704 
-0.003562644956540948 
-0.0006415223912316096 
0.01630238782607911 
0.01418113277486866 
0.006928920541790647 
-0.006974267544609369 
-0.003435512783714418 
0.01117890708150829 
-0.01142036913202597 
0.006692390514333543 
-0.01667399355313376 
-0.006180931998483167 
-0.003528546919744326 
-0.001076364983506897 
-0.009936165434042932 
-0.001723419462094607 
-0.01110918826779285 
-0.004973905804804423 
0.01461873682935866 
0.00293432575583846 
-0.00443194353077054 
0.0042830508525305 
0.002153497505553922 
0.0003745093250334778 
-0.01046049612070677 
0.004977055015432012 
0.007340231103249702 
0.0007118915582042717 
0.01082019028275256 
0.01130432975959949 
-0.008827082432525947 
-0.01395294966273412 
-0.009233137272345409 
-0.002396786170828261 
-0.005195370808590394 
0.004782151178790836 
0.0002491007889967364 
0.002749673629895331 
0.003279213326127366 
-0.01088832374726828 
-0.002784742404713516 
-0.002868335222006265 
0.008385533294581719 
0.03081033658996998 
0.01389990469793387 
0.007067539448951772 
-0.004331678032751899 
-0.02397026358264396 
-0.02048375321537188 
0.003228789757413972 
0.01813480925881399 
0.01166700684658628 
0.002553184016399716 
-0.002867904419578769 
0.0005070305569553411 
0.0005764252875957235 
-0.006362635576547361 
-0.001542149054375688 
0.01325193196661449 
-0.009284629354506958 
0.0001325116060248727 
-0.007293509693466496 
0.004696734367335161 
-0.01616583536736201 
-0.004981043381836088 
0.001255526128144484 
0.003399878982385275 
-0.005942251388965248 
1.149001765952471e-06 
0.005077278522530728 
0.008772039911738215 
-0.003636643205665367 
-0.01440107129709469 
-0.007630574367469029 
0.01080604590423699 
0.02000600276509527 
0.03067490167003795 
-0.004975601147102896 
-0.00937977019335339 
-0.01958276713039761 
-0.002873571540224989 
0.004413207276845458 
-0.01005793171216374 
-0.05827071291808259 
0.00887168114824969 
-1.552200676447136e-05 
-0.01509686697407311 
-0.001830620939677345 
-0.003680415023117905 
-0.007264983014331977 
-0.0182589701958373 
-0.01736268980518998 
0.0002513951843040713 
-0.003628334060901765 
-0.01178014187455479 
-0.03824220395719798 
-0.01056963489854209 
-0.01176807012781306 
-0.01436576560691265 
-0.01503366733787948 
-0.007752178015575779 
-0.01141055594523615 
-0.01255002386235805 
0.01156382986399128 
-0.006814651673218609 
-0.007943491154192515 
-0.005090147213274774 
0.00107931588060796 
0.01223468550562899 
0.008337828292418777 
-0.002374173104029128 
-0.007058249058479674 
-0.008159520625754473 
-0.01042216942380345 
0.008525874589146928 
-0.01448355502268423 
-0.004040513790993025 
0.006846543295998292 
0.008598931007707186 
-0.01089239896733531 
-0.003045753372154886 
0.007941163414458765 
-0.002454863928852037 
-0.00799561994591224 
0.01636911027207649 
0.01215581755196446 
0.0003924330100473777 
-0.01355454274356376 
-0.01769626588403619 
0.003174370626963354 
0.01352338637374961 
-0.01076179259270304 
0.005548747906146227 
-0.001980274617522156 
0.0115266612398274 
0.002423977358497065 
0.007472230268645163 
0.004056136256304051 
-0.01512770096264163 
-0.01138346357797731 
0.01621446378397239 
0.008597256838276007 
-0.005186181644738894 
-0.01722802634722221 
-0.01373348841458748 
-0.01183837480568742 
-0.02142547012849641 
-0.02539145787536741 
0.006342944981855482 
0.01394082137795743 
0.01313041750974381 
0.008281115957928164 
-0.009107367809827037 
-0.005716932966601905 
0.002044187906155244 
-0.01078183589969344 
0.000769585311942571 
0.0147326852916373 
0.0006962062238889535 
-0.01054398394142758 
-0.01607362319183626 
-0.007350800966749393 
0.005852217992173501 
-0.02274903817606563 
0.0008355193486426312 
-0.0011760555812712 
0.0001476375990212059 
0.01261719395333797 
-0.008099216217615663 
-0.001766082431247194 
0.004100421174966764 
-0.005364958569814645 
-0.007640199795648592 
-0.007939171057984208 
-0.003842012748463452 
-0.00930086063693406 
-0.01112933089607314 
-0.008178957467630119 
-0.006397754808319037 
-0.01160301839694677 
0.003750574331090114 
0.004857583457596968 
0.009813999431681866 
-0.006182527613823882 
-0.003738929439338931 
-0.007582045127699564 
0.02425946424383774 
1.819099264541485e-05 
-0.002675429005641449 
0.001928923292457091 
-0.008336456349833011 
-0.02014207709051378 
-0.01103158504045517 
-0.01175751005919686 
-0.003284370846502994 
-0.005180337732992744 
0.006723426696125271 
0.001123408927158534 
0.002026029083081281 
-0.00606985758141759 
0.00731154463815737 
-0.007085429670996766 
0.007610630087513487 
-0.0006978251596750376 
0.006940710990114395 
0.004228136576216972 
-0.006317088351290504 
-0.02671923741504472 
0.0002544908978078568 
-0.004181716317997396 
0.009301018801869808 
-0.0214144728585399 
-0.009227447602501907 
0.004458322110611032 
0.001919225143962424 
0.007022834349335857 
0.003176959926007877 
-0.004721785791530712 
-0.0005014317872373016 
-0.01648030085020121 
-0.002016552264650061 
-0.00810158687604861 
-0.003960393006973369 
-0.01976629379403679 
-0.005700947123882097 
0.007282777990673782 
0.0173855063773027 
-0.01104003460044008 
0.0009218465629889823 
-0.003892608951024189 
0.006305433519732322 
-0.001383891929888438 
-0.006316816028135015 
0.005190215722412929 
-0.009307645500811134 
0.003710754783188033 
-0.001932038814810761 
-0.005853488767286972 
-0.003834439966307797 
-0.009801432207256721 
0.0001006003114993692 
0.0002407427285694051 
0.009625131327023374 
-0.009386481732142312 
-0.007420076888296443 
-0.01875743370222129 
0.006956805758083753 
0.002810825838680977 
-0.006746283845391622 
-0.006191915895325549 
0.01496591790865703 
0.003426510259073383 
0.0003448968870259318 
0.002150740069718493 
0.00466259981863501 
-0.004784248059299697 
-0.007124956332764359 
-0.01179173373692255 
-0.0008571169268956777 
-0.008716799357015378 
-0.01670275195500392 
-0.01184524692640702 
0.00316579118450996 
-0.004677209934677814 
-0.0009658901106014601 
-0.0003941162508265545 
-0.01095159093320126 
0.009000212636480553 
0.002658322260124354 
0.001815566078747035 
-9.860566167127182e-05 
-0.01482787256760221 
-0.009782578981617327 
-0.01435853731134103 
0.0114807777162573 
-0.01051532095532083 
-0.005964435101629633 
6.139480038589801e-05 
0.01083493147333893 
0.01013506299505235 
-0.01709861598954811 
-0.004125376714768471 
0.01896995358841493 
-0.005785890939708418 
0.006431047420792477 
-0.00762757461364923 
-0.007226962589535166 
-0.01629263387151332 
-0.009272742976927909 
-0.007913040311070069 
-0.009954690052523966 
0.01382920220981999 
0.00520633441313703 
0.006578005904415452 
0.008072592352054269 
-0.009813880843921888 
-0.002713008514913383 
-0.002850975297198908 
0.001028118552613098 
0.02495583054525715 
0.01107016806463173 
-0.007249432885864104 
0.008116306468767574 
-0.008878693379640434 
-0.01086497521730858 
-0.007597550319845908 
0.01305013431561172 
-0.002982360223212109 
-0.003624702858165878 
-0.007272202345778652 
-0.0004231787996906823 
-0.002276540271816878 
-0.002947151414506029 
0.004214190053068821 
0.0007485007602046901 
-0.0005449299311369286 
-0.002302992640563268 
5.40774216588138e-05 
-0.001070770367318099 
0.001123757038266169 
-0.01202195662510951 
-0.01098214126827681 
-0.005442936124686763 
0.0002528852892078427 
0.0007316257401404133 
0.0001148396552245366 
0.003295727570859876 
0.003568307846791673 
0.009369463060116056 
-0.005503879228551364 
0.01048577311318701 
0.003410510227185192 
-0.006128611552840418 
-0.003798864216955835 
-0.01400620991910393 
-0.0009651754807066804 
-0.003428801307982109 
-0.01330827448141786 
0.00654865862247125 
-0.0320761130019741 
0.002119537289442908 
0.009649252820995951 
-0.006357006776069625 
-0.002477055328151503 
-0.01240033347728632 
-0.01054614084727024 
-0.01329273918341551 
-0.01293967662238091 
-0.00261840045726588 
-0.002984294982635055 
-0.008366174820236169 
-0.03719789738145395 
-0.004960924090734332 
-0.007130022395816925 
-0.0136081085358216 
-0.01604821902970263 
-0.007877266402444669 
-0.008328648395286666 
-0.00798245463765654 
7.242116114813745e-05 
-0.006244941544241617 
-0.009767749662491955 
0.0006081177714862973 
0.009277678199123679 
0.001929120618948306 
0.004019873745151354 
-0.005016249448908178 
-0.006385887063405402 
-0.003709441038224789 
-0.004389662333534113 
0.006327926463748151 
0.01352811735867042 
-0.005167328763257142 
-0.00582655511796874 
0.01920422924844363 
-0.002477595480890007 
0.007880859389313797 
-0.005066678072519116 
0.001963194407055444 
-5.809527413615954e-05 
0.007354339960601525 
-0.003033659933634195 
-0.005513852856922863 
-0.01092492021846212 
-0.006849896889828096 
-0.0007700771291149818 
0.01413050731530332 
-0.002968860979596704 
-0.008888034325715204 
-0.0005651061056910122 
0.003103536000702904 
0.007020893990882699 
-0.00457844405406215 
-0.001103284152331955 
-0.01839794393959991 
-0.005294541724218311 
-0.01384079986843904 
0.006437241191058065 
0.002069316629216568 
-0.01146311826577755 
-0.01103353237649432 
-0.007233879523162162 
0.01509820907065213 
-0.006765516077671214 
0.0007591159053957257 
0.005298831610046871 
0.01171569916434544 
0.004234350339716273 
-0.007139592913981587 
-0.0140990571165886 
-0.007415987241301145 
-0.0192096120104561 
0.001956466885517718 
-0.0005174669501657554 
-0.004983466464943775 
-0.01603265218737615 
-0.0006099510339318869 
0.001979972770304182 
0.004685036073503859 
0.002415327231995992 
0.002482469957480711 
-0.003429294102717004 
-0.006437582316570564 
0.005343666881533845 
-0.002879800301703611 
-0.00679986584677806 
-0.01430795321593573 
0.000728157867321951 
-0.004789148862532287 
0.004099814857413176 
-0.009040791810389893 
-0.02258457223993005 
-0.01134639192909364 
-0.01296029526696841 
0.01764750031942284 
-0.003242325760051374 
0.00381769896902933 
-0.0100926783638572 
0.002357663624073873 
-0.005193482095052943 
-0.01550297176164958 
-0.0009682715167143205 
-0.009035583813874022 
0.006565149424568795 
-0.004679226693534271 
-0.006323249683306519 
-0.009528620965680013 
-0.01932973532760274 
-0.01061183096972831 
-0.006946836129028103 
0.01364911063208491 
0.007341297488548364 
-0.01249516410074714 
-0.006708724836932314 
-0.000519843096838051 
-0.00244436583905032 
0.0003706189457870588 
-0.008599067620343254 
-0.008666995063700448 
-0.01018165979740335 
0.002418270784475077 
0.005430940547050456 
-0.006726567478997659 
-0.02370876202501129 
-0.007752579967530831 
-0.004034821873407711 
0.02894443639953513 
-0.001626810958923192 
-0.01705427725687148 
-0.01014842893654802 
-0.005560705615676395 
-0.002362646797468142 
-0.003938775867580815 
-0.004248313552682681 
0.00530754482728622 
-0.01390280568344111 
-0.01207513119004072 
-0.006352258615814008 
-0.0155150989738563 
-0.02469863931201265 
-0.01554889940366015 
-0.01311494411436286 
0.02511709434991877 
0.003457238948106438 
0.005734160378995426 
-0.004197161366526414 
0.001631175815086052 
-0.01449383251236523 
-0.01005744646149382 
-0.007045878551531337 
0.0163640207551012 
-0.02190825507266027 
-0.01075973492262599 
-0.007611646544338599 
-0.01124277237473657 
-0.01947108563806667 
-0.01103370568814019 
-0.004675960881909806 
0.02053805568745217 
0.02021187252896639 
-0.01057603131812136 
-8.175833982973449e-05 
-0.004388171259779841 
-0.0007298895664165704 
-0.01325365382059018 
-0.01639606181404671 
-0.00130589406097415 
0.006019562119437773 
-0.01780473438417193 
-0.003997087657477774 
-0.008903853528932434 
-0.01765269662489664 
0.00310745518826932 
-0.006713341386566471 
0.006469742487337831 
0.004169147517754512 
-0.003153655507349788 
-0.004036884010445468 
-0.005340919707222008 
0.001398133236166508 
-0.006667171301993505 
0.008021571204900853 
0.02415316890029792 
-0.01998378159935428 
-0.007583744168949458 
-0.005357202981449111 
-0.0019577001217455 
-0.0275010774917557 
-0.007668499443117006 
-0.006996301756447889 
0.007473774145991312 
0.01163790595107867 
-0.005742438284471046 
-0.002116000768276709 
-0.001643944410618134 
0.01638302827490172 
-0.00684779504597369 
-0.0009837015491044303 
0.0141127986290307 
0.003073037603735151 
-0.004980553082637593 
-0.009177610958477481 
-0.008204664605210252 
-0.009890348279022836 
-0.01190680531776497 
-0.00411880028454339 
-0.01156860392894289 
0.01070896174358081 
0.009722723583191244 
-0.004712358997533955 
0.002560963158398622 
0.0006844941782279283 
-0.01185256108619023 
0.007943839777804221 
0.01015545982398051 
0.01307186572434917 
-0.0005246286567304234 
0.009713621471795688 
0.005400567057989159 
-0.01429907145533725 
0.002189831486248576 
-0.009814816084904338 
0.002384802982155144 
0.002299111498827651 
-0.005340280440151174 
-0.0005626206203546538 
0.003848754910433024 
0.006975775613686447 
-0.007510136908110378 
0.0002367074802785859 
7.493800017528876e-05 
0.00296145565382355 
0.00393601525982493 
0.007056108323135409 
0.0008982231342438096 
-0.009145300679841914 
-0.004927541301722968 
-0.007183692620675416 
0.001768271007270893 
-0.006173028129553322 
-0.00555475681594955 
0.00929429240697356 
0.004513528329933242 
0.003014704607414701 
-0.006796955073184313 
0.001018155521561561 
0.005153927778247669 
0.003778818620664846 
-0.004265722458301094 
0.003246015198173388 
0.01994495076433527 
-0.01667261685396998 
-0.006317808988752612 
0.00243077642822901 
0.003605161979412225 
-0.02206891739036831 
0.00376266590752846 
0.01199003086611406 
-0.025245776206427 
-0.01378879697922247 
-0.008714282909445155 
-0.001982361926451606 
-0.0164874130636894 
-0.01084321320253165 
-0.003215806020223793 
-0.006223599826042627 
-0.01117072492940298 
-0.02876149645059371 
-0.008344328730815802 
-0.01050828756630182 
-0.01432047302822654 
-0.01374721647962762 
-0.01280338095500326 
-0.009107437947077753 
-0.01648306814931118 
0.01638950943477088 
-0.001360924897841378 
-0.005420864757617587 
-0.006976833180699128 
0.01382463568730834 
0.009318566114254275 
0.002245328361288162 
-0.005041173008994596 
-0.001717782256528744 
-0.0007459345682901965 
-0.00479942550378625 
0.005935049684402937 
0.005980382655367704 
-0.006561057428499695 
-0.003581042173587805 
0.008429967572612702 
-0.01189724650910929 
-0.001955035170268517 
0.0025315861848185 
0.006492563839634907 
0.01852231326615899 
0.007062488666064595 
-0.006164985796331793 
-0.007094924161285706 
-0.0173352452331998 
-0.001296007520917832 
0.008658825650747728 
0.00676935954384274 
0.01210570255340092 
-0.003741802439877451 
-0.002749074763823882 
-0.01004339238632182 
-0.001176119951221452 
-0.004192577580122282 
-0.003467707419070302 
-0.0170346052598791 
0.009975554059994216 
0.01100682057500447 
0.01166071275819039 
-0.004312310743172272 
-0.01917461692142517 
-0.01163276022342383 
-0.002026322240910045 
0.01367008337263374 
0.009889775723970009 
-0.010062239332125 
-0.002971398704343587 
-0.005631955312651278 
-0.005254699619092009 
-0.004543726246457995 
0.001382066870100231 
0.005473204698655237 
0.01692461803361654 
0.006787337504783306 
0.002460852869370184 
-0.01616341004436935 
-0.02276106484474719 
-0.01175076568082349 
-0.009544576345975041 
0.001352035048188759 
0.001576073644382671 
-0.0008826096230645678 
-0.004805746141275059 
-0.006366973811636747 
-0.0001434798074591808 
-0.009902869147794967 
-0.00272643953894977 
0.008542316786502696 
0.008044812374563056 
-0.01428192308577374 
-0.004728206176133284 
-0.003120905338190387 
-0.02553140035387381 
-0.005490597662972163 
-0.01070502125478501 
0.02185507531227812 
-0.01494205863720633 
-0.006250050152801266 
-0.008621448190060029 
-0.0003043548247875429 
-0.001463448770704758 
0.00393057590418854 
-0.007425307617396375 
-0.01790906764997715 
0.0211407892766792 
-0.003819835595034521 
0.0004595709157390169 
-0.009268757242725875 
-0.01598470835214579 
-0.009130843615539178 
-0.009362317820480021 
0.01376088841395826 
0.001151843661502543 
-0.01062545597064364 
-0.00320371126273554 
0.0001564861801550396 
0.002943566850736747 
-0.0006182507323257453 
-0.006160878067409164 
0.007607989103697415 
0.01514746215930285 
0.006407501283447433 
-0.001195472179775067 
-0.009148411538235864 
-0.02557470304855048 
-0.01642916133274974 
-0.01191391061750829 
0.007802265904940946 
-0.01067584679863684 
-0.01301035559136987 
-0.008336240149257426 
0.001595964711713805 
-0.01754338080773999 
-0.0193921092043801 
-0.001328635697565847 
0.01492181240074007 
-0.002464316983293629 
0.009650873517972754 
-0.009426435432320395 
-0.006131840652149585 
-0.01868825471114318 
-0.01143346033368468 
-0.01407095759997014 
0.00835029615786888 
-0.01082495172659213 
-0.01605330744335383 
-0.006280441088027124 
0.001818053411244906 
-0.002599838366772185 
-0.007825919218114865 
0.007898737714545731 
0.01151415936261301 
-0.004070763273085874 
-0.008930137249317516 
-0.005129502686264533 
-0.01230093442099461 
-0.02311453912389251 
-0.008035600480469286 
-0.01795914837252001 
0.007572127322584764 
0.007286193413537537 
-0.01314919291889391 
-0.007714733501926339 
-0.002106456723922663 
-0.01479784113316671 
-0.007490551248675649 
-0.003190578770188843 
0.03011960933084014 
-0.003718554054849908 
-0.001581781912535614 
0.00922438457789858 
0.006343131757986813 
-0.01353370945466563 
-0.003512824266172518 
-0.01685502042114757 
-0.007923141445791995 
0.01656394751552519 
-0.01394277947963805 
-0.006926746901118841 
-0.01167136931316275 
-0.006390688086055038 
0.0003757362145756894 
-0.001066952838580331 
0.005568840154686667 
0.005314160391753035 
0.00142484718198768 
-0.002085066327847245 
-0.02079264617419418 
-0.02634043114713597 
-0.008211355326045357 
-0.006148569398860012 
0.007219503601181904 
0.01391969744085906 
-0.0104067072763915 
-0.004964426149781045 
0.0005477767365529641 
-0.01024653465648202 
-0.01499512838680522 
-0.003132613883402071 
-0.005525790404615795 
0.0005210806998884488 
0.0006671881297443204 
0.006076554033708365 
-0.01024207604366135 
-0.02124174374362001 
-0.01440440603957985 
-0.00464070056917689 
0.01601320874543401 
0.03771710380639317 
0.00514646411651627 
-0.01381777973382068 
-0.006442695301760874 
0.000942451658307892 
-0.004417629506702145 
-0.003818741523416744 
-0.01048288437042633 
-0.001461999857243582 
0.009093648074823076 
-0.001564256342860594 
-0.00617885080360564 
-0.00864754024569352 
-0.004049352263030471 
0.006224309626262918 
0.01648648107846143 
0.009033156791723864 
0.008091813495847981 
0.002477332365323341 
0.003457661399929494 
-0.000175929143909 
0.004529910915475061 
0.005113960453755472 
-0.006856852759243825 
-0.001359386432084886 
0.00492502756910569 
0.008679419111678879 
0.008140266095766372 
-0.005269379432083181 
-0.009499340418319381 
-0.01422773810447846 
-0.003290405474882772 
0.001030864357969175 
0.0001312473013598104 
0.004469639055264101 
0.002025723107537481 
-0.008859457609688861 
-0.00248293957133643 
-0.001080811257667291 
0.00941218960796413 
0.02215895482482779 
0.01543692544546187 
-0.005942340962044068 
0.003604702412647052 
-0.002168937085264843 
-0.01661379703528291 
0.007654803801091805 
-0.01832236725807855 
-0.04206613514021527 
0.001417160928388237 
-0.01080230657816939 
-0.01755395641132219 
0.0003477250349406439 
-0.01139090938441145 
-0.009761942981636906 
-0.01745324541969911 
-0.01329639283886969 
-0.005093210843117459 
-0.001543348358279828 
-0.003374001965051757 
-0.03258052147073885 
-0.009986969926051716 
-0.0084632444931723 
-0.01459345772324736 
-0.01047387204385855 
-0.01147280805356512 
-0.01246182912618645 
-0.02148541953687366 
0.01626840609276966 
-0.008630784718968968 
0.0001574109044720424 
0.01588465096855533 
-0.001124562029130412 
0.003701588853601586 
-0.002697650522583738 
0.0003953002087727016 
-0.006207525755650228 
-0.002232266912199905 
0.003515976783904376 
0.001263631183064601 
0.001758338201945703 
-0.006910415960981333 
0.00323194638887554 
0.005568104654378079 
-0.006790699903949034 
-0.0008236726621970425 
0.0009477738041191198 
-0.01092429135891334 
0.01365056794321768 
-0.001909065192143019 
0.005788998137837953 
-0.004560908186575389 
-0.0003992253296190934 
-0.001728890611877895 
-0.004225333089747669 
0.008208570912502952 
-0.006642075365248868 
0.008156574544623449 
0.002599065311943967 
0.005531047862156272 
-0.00830895794896915 
-0.005231268878362716 
-0.005293325882557701 
-0.004656356353004765 
0.01548117264441315 
-0.005183002586840791 
0.00318553865568039 
-0.01378739832629851 
-0.01375168040180262 
-0.008544484647208162 
0.003185106289355664 
-0.01763904835254913 
0.01951441019821933 
0.00687429544667954 
-0.002480273177444998 
-0.00375992246821367 
-0.007370479043272556 
-0.00398061981629423 
-0.01046650414077627 
0.01168806731610842 
0.0245678413622182 
0.001663431034927164 
0.005808829363223509 
0.001013640072004491 
-0.01795012780645331 
-0.001776239985749553 
-0.01020958244481449 
-0.001232257567119495 
-0.01685118074175216 
-0.01000051214148312 
-0.02480495308984913 
0.0007979117380668368 
-0.003326558504658163 
-0.002932859037661292 
-0.007366487895667006 
0.0042511398932015 
0.0380686971633495 
-0.002916651712025165 
-0.005163083740473131 
-0.003967855673080496 
-0.02102515462176162 
-0.01609616747036255 
-0.008031143248775579 
-0.01252544128498753 
0.0040130488271426 
-0.02062443926634357 
-0.01318359259629049 
-0.002937041919442299 
-0.01046206416470068 
0.00446020773918217 
-0.003376002380921215 
0.02067798706337589 
0.006766157203493795 
-0.001659330260262793 
-0.003655628150171566 
-0.007665987498788098 
-0.007984963121408237 
-0.01124562567305597 
-0.007659338543317312 
-0.005200761145767912 
0.005671229741476954 
-0.02361417043299693 
0.001068221400910092 
-0.003917898505441172 
-0.004982045119655623 
-0.001742678438534437 
-0.001402242066837052 
0.01508323476098835 
0.0185856156631883 
0.002992904979043288 
-0.002957616199007225 
-0.005543359652422661 
-0.02900961935546167 
-0.006988572659244811 
-0.006042381547486581 
-0.003263735106591835 
-0.01672944835553895 
-0.01388195770702597 
-0.003756365049342612 
0.00599625509465622 
-0.003850265826092335 
-0.001269881192214284 
0.002730798427043253 
0.03048237867032753 
-0.003280214006456875 
0.0004092936823946063 
0.003025308742597993 
-0.002154664371691999 
-0.02298628868617923 
-0.002089527916908088 
-0.007749860392823021 
-0.002952430340788645 
-0.02714047423208958 
-0.005967184828062806 
-0.007722817044990093 
-0.006510780654074353 
0.003205459906379129 
-0.0003758301484352138 
-0.001864824531031933 
0.02606730641377262 
0.009192739813195159 
0.0006356245252349389 
0.0003908730387122645 
0.004273999286142196 
-0.02255033043836426 
-0.008744805784129096 
-0.02578394513498217 
-0.000242783236344526 
-0.01674781598265186 
-0.006245489987000601 
-0.005370214407163746 
0.004646753102851511 
-0.008335023049938186 
-0.01452839046044807 
-0.009947539243487451 
0.02060510297776044 
0.00619103684077174 
0.00024631159814501 
2.310032686252433e-05 
-0.002257883127839559 
-0.009963899266703744 
-0.004545236589113212 
-0.002422320658947372 
0.001322418721376017 
-0.01434980027130927 
0.004324174834745914 
-0.007061569719264346 
-0.001329699113784395 
-0.002945598334136087 
-0.02048258761055395 
-0.003975356906235776 
-0.002248275347725804 
0.01008680316296517 
0.009204666966904236 
0.006072274044401639 
0.0001838284773450521 
-0.01229596807078886 
-0.00569477802436529 
-0.008787399466530975 
0.006740450638411073 
-0.01654061532900274 
0.00335136148050872 
-0.007759728752199224 
-0.01684317410450187 
-0.002727225533048094 
-0.009899787239222786 
0.006245466147049205 
0.01527928620095445 
0.01905741803576135 
-0.01137154441120696 
-0.009709366880583842 
-0.004380236590071774 
-0.02101334151846929 
-0.01553022229145871 
-0.005218825860060455 
0.008205158870445142 
-0.007624603363138237 
0.00154775470222267 
-0.008064902452532842 
-0.003350076855119277 
-0.005345774327512523 
-0.003462062985492342 
0.008154449475391432 
0.001383378265262139 
0.01365162266700807 
0.01404243369099825 
0.00374547992829884 
-0.004846368029403815 
-0.02256649080428948 
0.002711917958345952 
-0.009280180458723751 
-0.008685357265728368 
-0.01368762013801858 
0.01933896466879788 
0.01551656260240913 
0.01627305426192357 
-0.004755507584229006 
0.008905315017335784 
0.003460443790992562 
0.001225747488504529 
-0.00527303908449911 
-0.004954432876449728 
-0.005167776239328863 
-0.003539551263038357 
-0.01190749601087287 
-0.01622263560310064 
-0.002681568353770068 
-0.008412203044738902 
0.01028492197339526 
-0.0008611936126689995 
0.004240283401471957 
0.01310616934968318 
-0.007383754390109605 
-0.0009947405932681629 
-0.007808893505862479 
-0.01408574848826408 
0.005210211870666399 
0.01184420301394929 
-0.0003726508185950094 
0.0006096301535876197 
-0.008439049564128297 
-0.01420503333971699 
0.006431311419973627 
-0.01404208675046117 
-0.02464011117968216 
0.001295654735340789 
0.008448100105895934 
-0.01584220326705709 
-0.006399377394570542 
-0.01766763761463565 
-0.01281662136513877 
-0.02238838839352165 
-0.01040381595837758 
0.0004848877149777966 
-0.003592635169963941 
-0.001156368493774515 
-0.02752622924906235 
-0.007629038107488001 
-0.005994707149179689 
-0.01039288748098017 
-0.018019236796008 
-0.01169427468017429 
-0.01711388354282142 
-0.01844816544861089 
0.0149769035712941 
-0.01688400075138321 
-0.005057530677198966 
-0.007115928924300334 
0.002892255250399582 
0.009486217280527925 
-0.0006896250687989963 
0.004971144198672548 
-0.005584031476260229 
-0.007127122964354431 
-0.001848687316248361 
0.01093037693504764 
0.0006936418773890817 
-0.005004891612240239 
-0.00553389249299863 
0.01949705225894832 
-0.006270530594801652 
0.0005618719123357516 
-0.007961183568295524 
0.0007101414048099798 
0.02142226938973484 
0.009988158124824188 
-0.007749394734155621 
-0.003744578810523433 
0.0004124779962829929 
-0.005172410820071379 
-0.001500347123721912 
0.01154998941120708 
0.003321981218427727 
0.0006051581041150685 
0.002338202054402968 
0.004773313606103614 
-0.001888518806349594 
-0.001367064954479922 
-0.009699066583375087 
-0.009044166441913484 
-0.005961669117327427 
0.006369728635552432 
0.01044051059857222 
0.004038148329577199 
-0.01703497435791246 
-0.01004143041944438 
-0.002114404662548759 
-0.003289915422411539 
0.02098176281204299 
0.006499004300160259 
-0.008826196373535012 
-0.001071830603802701 
-0.00543241682234513 
-0.005820500373252783 
-0.01048117466791264 
-0.02050045323910167 
0.01152267923548598 
0.0104021026063083 
-0.000244894596531051 
-0.003689393253946847 
-0.0102068565992818 
-0.00839070780338806 
-0.009104797480595851 
0.003259475348501531 
0.02306070232445834 
-0.0091644262494107 
0.003790083492528033 
-0.0005020690285332572 
-0.002439173187766329 
-0.01174222960611603 
-0.00949991525542848 
0.01021003900975922 
0.03910028556818571 
-0.009986038654209972 
-0.01264992120900385 
-0.008992437906553623 
-0.022275267640027 
-0.008027011282292759 
-0.005653066980284113 
0.01034492503052608 
0.02430282296591838 
-0.01070005963042234 
-0.01541861395566551 
-0.008480093322907665 
-0.005170364971227549 
-0.00985922070891169 
-0.01278324541197855 
0.01326118521247832 
0.03054341110424198 
-0.01701912235471354 
-0.003757951893809055 
0.001053479663295484 
-0.02069329021457911 
-0.007955680863154678 
-0.01730753452241866 
0.01683395440950273 
-0.008500509623936571 
-0.003255273643307286 
-0.004906125042898526 
0.0001488520735879912 
0.002342958156477504 
0.006270238193102151 
-0.0115766972981754 
-0.01479401060483058 
0.01559554053465153 
0.002520247972868464 
-0.001662068427944681 
-0.01116360743793682 
-0.01449758413691351 
-0.004903718692871503 
-0.0008613165391091359 
0.008166928662333321 
-0.005250880682624445 
-0.005757717574850415 
0.002855673425104309 
-0.00258992885314048 
-0.006862661977271234 
-0.005736552357167557 
-0.004959384956536182 
-0.004706548493745158 
0.003983398937326212 
-0.005414984897099609 
0.001333383205049749 
0.002224574228363043 
-0.02198704323894794 
-0.007882766346116607 
-0.007736606861748264 
-0.002698264068845789 
0.009917579102372285 
0.01064592844796703 
0.0008550704139933136 
0.000931387519478452 
-0.001558011400901931 
-0.00495164271626377 
-0.01099875498886196 
-0.001055718301277986 
-0.01220092037762588 
0.00713889459232553 
0.003772898115273124 
0.002827668946200278 
-0.01035241643033588 
-0.01070986937668767 
-0.01026790619979697 
0.00866035037335903 
-0.0139253592567348 
-0.00348262062665424 
-0.002087471124298899 
-0.0008054938180512772 
-0.006733738007239337 
-0.01219268008598618 
-0.00890478081719003 
0.0003512668668361414 
0.006839304126321796 
0.001968260994612779 
-0.0001435811631292278 
0.0008622454330608336 
-0.01279504542125999 
-0.008609495759178552 
-0.01912678544741157 
-0.0003447525699208232 
-0.01500342084376759 
-0.003697893607411273 
-0.0003796837395491334 
0.0007810153193442101 
0.001363664664873105 
-0.004747811113086406 
-0.01299287829688874 
0.01223583962679385 
0.01241861595133483 
0.01713956403323523 
0.00502181031419154 
0.002928785466964766 
-0.01960915332653004 
-0.01959923964115843 
-0.009808662024285311 
-0.002754922340409685 
-0.02700932856735598 
-0.005062740033968133 
-0.01158721359410105 
0.002580383543279541 
-0.006758493378144227 
-0.006828367302315654 
-0.002935616957180204 
0.01079431412369263 
0.02449796388908842 
-0.006368677016865151 
-0.0004425186807519003 
-0.007769485219048247 
-0.01792599846615509 
-0.005151275327850857 
-0.007836659221251919 
-0.001412020845276173 
-0.003980896952448994 
-0.001436910340852237 
0.004416609701190093 
-0.01276230648980925 
-0.01128944616836467 
0.005990115089586149 
0.01025669051092843 
0.004799494114692791 
0.004468138911892125 
-0.00174548805379292 
0.007621950372939425 
-0.006401741997369188 
-0.01736791756775376 
-0.005411225254854268 
0.006050785221069692 
0.005081712675116799 
-0.006979456117847407 
0.006854132348972411 
0.003034715403262721 
0.002682790645313147 
0.008232359064284314 
-0.002850231790492455 
-0.005016765983512747 
0.005704633432545657 
-0.008351033925374897 
-0.005453685121842576 
-0.001380330206815256 
0.003450254931347822 
-0.003781879644973921 
-0.01990355325472531 
-0.01742285559390848 
-0.01485855235391735 
-0.002357398246964342 
-0.004901184777094321 
0.0003862491012379062 
0.01090780206597843 
-0.0003249919743963394 
-0.01591399481496323 
-0.0294069703818877 
0.01414068173916824 
-0.01333247235158882 
0.01519378691506157 
0.0006658398412442538 
0.0088588559736874 
0.02022411270993766 
-0.03850708183491774 
0.004504321570022303 
0.01118796992481464 
-0.007095087180697508 
0.001696810434004983 
0.00659767567586605 
-0.01947203812792779 
0.01084267820485354 
-0.01548570683902837 
-0.01019109840704149 
-0.01796674926671169 
-0.003427571357300891 
-0.003009706442131849 
-0.005251804972471644 
-0.005187307735556962 
-0.02742923858461966 
-0.008589934406762527 
-0.009091478498697505 
-0.0227255036010602 
-0.01805711995146027 
-0.01800248648899978 
-0.01850817507721137 
-0.003119352227362156 
0.01125030857000178 
-0.01383820233428009 
-0.00278881585123038 
0.0124813858589501 
0.02484871233771414 
0.01614469308117942 
0.003889404437159945 
0.00589203269654551 
-0.01752707757291524 
-0.007395021427605387 
-0.003909192059100582 
-0.002939147198326946 
-0.004921092827529345 
-0.01429363881143458 
-0.004568914095174755 
0.01276324677887446 
-0.002955963922180926 
-0.0003038936495379861 
-0.005871135684176871 
0.01505884402591951 
0.01976091112939819 
0.008629861321676908 
0.007674656566834677 
0.004016698598961348 
-0.003742831249653742 
-0.001091054771370863 
0.0004553791222016662 
-0.003472304421128276 
0.007609298231648239 
-0.004418139080724453 
-0.01214726509416316 
-0.004124497064217927 
-0.007507298395020655 
-0.006264358484029869 
-0.009921733544502218 
0.0007482790820673163 
0.01265148395115515 
-0.000774321397678422 
0.006059224882900657 
0.00318525955787109 
-0.01983911511671288 
-0.01598091435552783 
-0.002201635695033364 
0.006423832799406626 
0.00927371514389398 
-0.006320888325627355 
-0.01199949289201661 
-0.008276871877897201 
-0.002265346846053531 
-0.001978728364347172 
-0.01047512362809709 
0.006669722622192556 
-0.00423961613985251 
-0.002833983052454163 
-0.0162333667524423 
-0.006655954130977425 
-0.01609234650177747 
-0.01598997163131017 
-0.01228979776600466 
0.01481384537805652 
0.01708961242779953 
-0.00753057673441256 
-0.0009275316103560169 
3.067077563766585e-05 
-0.005104364961892969 
-0.005122932896172161 
-0.006768572300981457 
-0.007416941038456532 
0.01886874852750559 
-0.008638763484180445 
-0.002186843982453448 
-0.0008620477778855961 
-0.01960908179345602 
-0.01284977831753525 
-0.007764938128825494 
0.0148674976063865 
0.03587101341037637 
-0.00545720446744319 
-0.006502917978853668 
-0.005153550793320573 
0.003774044802063165 
-0.008183949558639249 
-0.006743171725893625 
0.002739226398533604 
-0.01040721586026019 
-0.01798408345907093 
-0.004482742724979663 
-0.0185536932172552 
-0.01516476416246088 
-0.00244112416323535 
-0.01324539330656631 
0.01252523426637446 
0.04800947082501822 
-0.01418940990558522 
0.001298247078798798 
-0.002561351951282119 
-0.004474579119525464 
-0.007304715160082612 
-0.003928164001377779 
-0.01251585703514164 
0.013015341472037 
0.006847130373825742 
0.004380777062815248 
-0.01351640606906207 
-0.02344024465748496 
-0.006842372544767085 
-0.003474554289706525 
0.006202341306648439 
0.009215206537376452 
0.01097043658236439 
0.006701272155048343 
0.01082439878233804 
-0.009450910468017583 
-0.004786666362190721 
-0.009919747248887037 
0.009562866686979624 
0.001982519275656998 
-0.00176280183532093 
0.0020868651423682 
-0.002530167579008473 
-0.02622802985415691 
-0.007325312190668009 
-0.006373507204951685 
-0.009781364213905361 
0.01133150094314102 
-0.001297698383598789 
-0.0009367290820861113 
-0.005576053197568732 
0.004989736693366912 
-0.01727547866833363 
-0.01758864523823494 
-0.006164346192230374 
0.02408407187917246 
-0.001456342769808593 
-0.004366423856602466 
-0.0001191817857594416 
-0.01014934377888988 
-0.008329680095263392 
-0.01342753583249917 
0.007769330859065816 
0.006795040680013492 
-0.003006716189182635 
-0.008689028102032875 
-0.001872811830182482 
-0.005619475095972918 
-0.008857459934573127 
-0.004966484701146552 
-0.005056245462006664 
0.01375574993162301 
-0.00357067039875106 
-0.0009152220428881123 
-0.0004642802650582337 
-0.01163713732831821 
-0.004520246037493104 
-0.006364737533604222 
-0.0005489405213927782 
0.00977163772421305 
-0.0004793942489050368 
-0.01069587019603331 
-0.01216612730834699 
-0.006122005810735295 
-0.006388798414766742 
-0.0221948838159343 
-0.005512451015586977 
0.01235472636309578 
0.005874774145992986 
0.00219152120671207 
-0.00168940312179851 
-0.01658931586619758 
-0.006175454620656161 
-0.001514747780923112 
-0.006578557273184449 
0.003914156076953131 
-0.008718222461130727 
-0.006936428752268557 
0.004521232455814535 
0.0001101692355363578 
-0.008922534154445879 
-0.008977771292453248 
-0.0002677514011050246 
0.03247952155289612 
0.002890587246219298 
-0.005908645192979695 
-0.008808140829788357 
-0.00429984189500783 
-0.001651916068408255 
-0.006778875872258616 
0.006315367672248547 
0.002309744285013016 
-0.009636576266653213 
-0.00484326513046512 
-0.004446428794012047 
0.01136322983082924 
-0.006507900744157621 
-0.0008116307530572142 
0.01199853700178686 
0.01726376487023546 
0.004453155040005425 
-0.001894109226207084 
-0.009727596599425979 
-0.01299941085295263 
-0.00196704420843976 
-0.001943823602305725 
0.0002330323037470904 
-0.006948157176663372 
-0.002410244906169289 
0.006215303725454857 
0.00784242818449991 
-0.002840633706932283 
-0.001464321368786589 
-0.01143387512702579 
0.001474175425957827 
0.001702655466111481 
0.008441846946148237 
-0.005961042984070089 
0.008722834932331192 
0.00686028073241088 
-0.01579966348071894 
-0.01463919126625816 
-0.01278064504906831 
-0.0008960839704212958 
-0.005770602699911836 
-0.00265394843890368 
0.006775793541979346 
-0.03389006408669999 
-0.006952549077150864 
-0.004128682125726171 
-0.007485781705889592 
-0.008599062471049308 
-0.02345528331287464 
0.004555979004679088 
0.006905811955196337 
-0.01070712218111003 
-0.01275891912677781 
0.01534105742135964 
0.02995471051190183 
-0.01695065945756935 
-0.01080689377984516 
-0.005619890835238465 
-0.01451934543401867 
0.0002198743114981499 
-0.008246048554871903 
-0.01154711963307205 
-0.02130079597439602 
-0.0147354860206545 
-0.005220481181339262 
-0.006260531158522666 
-0.009730252098272668 
-0.03169206589670749 
-0.005326135353215649 
-0.0134194036391444 
-0.01329353591682586 
-0.009170663307944686 
-0.005695992548947934 
-0.01071541371159628 
0.0007818465846821735 
0.02694382481846569 
-0.001028585343810701 
0.001571743576232663 
-0.002754718830550906 
0.004829100309273974 
0.0007516208175057507 
-0.002869522789802991 
-0.0001679236303430346 
-0.005347493140654698 
-0.002709405063185002 
-0.0085760980795722 
0.007550143824849817 
0.003938536198789921 
-0.004297021182240961 
-0.01071804025578856 
0.00675992455109397 
-0.004035540450577598 
0.004533242973851662 
-0.004886002908124261 
0.02162653214007838 
0.007553341592841237 
0.01342649544151889 
0.003194791449428392 
-0.001392188933848549 
-0.01132144517657002 
-0.005554571005037159 
-0.001649978863231852 
0.002149319204214808 
0.006595910608960592 
-0.005775949835178013 
-0.008879866253235577 
-0.01040759921077041 
0.002330803909613791 
-0.001318043345839413 
-0.001600709383106031 
0.01043892116498867 
-0.003625811548185421 
0.01059553946517309 
0.008729827381041336 
0.001448693648853787 
-0.01433185185156153 
-0.005919901268954494 
0.006412685416404018 
0.016707130069096 
0.0007790163882283242 
-0.01676271015535871 
-0.01874456299794051 
-0.0003813914426210337 
0.004430459632167437 
-0.01830330907544616 
-0.005766653546158147 
0.02411477093842695 
0.008804475101549584 
0.01029133331080707 
-0.001073841945717589 
0.006782747060061932 
-0.008114942673895507 
-0.002257128101688721 
-0.01722162255102724 
-0.0156632209093545 
0.001871201349334266 
-0.00739368913645487 
-0.01034076539218254 
0.01207545679051237 
-0.01017709405994804 
-0.005364884799500352 
-0.007673505105326952 
0.03491893185794378 
-0.01142337499489944 
-0.005514040153195118 
-0.004435700326099791 
0.0001184765989999345 
0.001716084194839254 
-0.003245558902965599 
0.004375431297196067 
-0.006116793186534772 
0.01099116654384516 
-0.01419815152866961 
0.001364318015943963 
-0.001013768641961519 
0.0006844159800846095 
-0.0005780386766626323 
-0.006453650123768951 
0.01451741199501395 
0.004791993656454184 
-0.001769037211487739 
0.003267891236065459 
-0.002633787002180535 
-0.02816452980540723 
-0.003960541685082892 
-0.005794663835663717 
0.006881482256713872 
0.01745896019245897 
-0.006192028616118651 
-0.00870739184439003 
-0.00137922493353451 
0.0004582723691697534 
0.0004360909598743229 
-0.01019719961777282 
-0.006576075074750948 
-0.01659619296958916 
0.0002346911750909686 
-0.01011151711358074 
-0.007886980812078019 
-0.02236794360144888 
-0.0186308014143754 
-0.01452056435370963 
0.01657858633806014 
0.01147411885475504 
0.003910465896175521 
0.004340675715243543 
0.01392637200821057 
-0.01023502381689242 
-0.009121928561375564 
-0.003898319777648737 
-0.001603728516559707 
0.002803000212109419 
-0.0008230068401407887 
-0.005873880257981914 
-0.003446081356206047 
-0.0124898135337962 
-0.01029282906768786 
0.002022599769162564 
0.01133130429432675 
-0.01076439059321266 
0.004546625191048017 
-0.004598907932844833 
0.008018728401175085 
-0.007297768772361368 
-0.004283814552824347 
-0.01826629759367301 
0.0007472326786477526 
-0.008558039754721875 
-0.0009259456090238815 
0.008603221856686386 
0.0009367889460493908 
-0.01461153990408932 
-0.01293776240053655 
-0.01219531795069185 
-0.009629887752987554 
0.03200588651955054 
-5.034070360875805e-05 
-0.004935268678990713 
-0.006876010074546456 
-0.01133238266218204 
0.001163857408502559 
-0.01027662500931207 
-0.02441691618651726 
0.01279040696007232 
-0.001378895014871875 
0.0008124767020038945 
-0.009613593404501264 
-0.009591970646524155 
-0.01039681366691154 
-0.002957424958397121 
0.002872571530620992 
0.01267757000822133 
-0.009240121323234433 
-0.001680985233745779 
-0.01365005234935234 
-0.005356408251658177 
0.0002641942088353499 
0.0005863109477839943 
-0.0003544950854530055 
-0.006630111512592162 
-0.005268563191521924 
-0.003617767711554715 
0.004105913749113127 
-0.01868194277177071 
-0.005942446082557445 
-0.02239971539056169 
-0.006502457075588266 
0.03144949962754813 
-0.01384090566159069 
-0.003110697667256621 
-0.001474558478840105 
0.007952433076516623 
-0.002573321292191373 
0.0008189690199696106 
-0.001668814664764041 
-0.0003822400128761738 
0.007276264740844575 
0.00097215301435664 
0.001999732917071665 
-0.01006158647020176 
-0.01349538973169534 
-0.0009170345616205367 
0.002383397726565973 
-0.001115984152301462 
-0.008787711128626462 
-0.003112768872392791 
-0.002820380517297053 
0.001938496863299817 
0.0001984429185857203 
0.004113706710253867 
0.006185688559319269 
0.01229340265951834 
0.008164854580114836 
0.005130832593370974 
-0.006216290387571152 
-0.01893557656497262 
-0.0128178372321624 
-0.01383863036062469 
0.009343809932959831 
0.01168673451117598 
-0.001622775720955949 
-0.01469838058226505 
-0.0004696258591926202 
0.001944467703466826 
0.0001359038526218891 
-0.0003562218458681128 
-0.00771690730281052 
0.003238855714509639 
-0.003514439563517133 
-0.0003664863239442045 
0.01237362776117207 
-0.005364830966918147 
-0.01945755922378005 
-0.008693942185787217 
-0.01340533444769986 
-0.004304544101650039 
-0.002549949992440719 
0.004068159561754396 
0.004926634468580166 
-0.00512892889063966 
-0.02695820311328636 
-0.007341118545802984 
-0.001430000641759476 
-0.009996206761347005 
-0.01576064361223391 
0.002951938923871655 
0.002162281007208459 
-0.0292952785788721 
-0.006752589904467027 
0.0099922618167142 
-0.01703633191713089 
-0.005218338985051434 
0.004710550904162995 
-0.004351426460200436 
0.007599890668242792 
0.003289455494640754 
-0.001922906056913953 
-0.007819326877175582 
-0.01773057613164049 
-0.01229407659383097 
-0.005814938394204955 
0.001669595824910042 
-0.004675539649700353 
-0.02509810112330942 
-0.006101537667106366 
-0.009060154135957926 
-0.01223640885680854 
-0.01949850572991174 
-0.006847159302226942 
-0.01656461380617144 
-0.01371873665184186 
0.0231277439558837 
-0.01230717749231177 
-0.004348462368844566 
-0.0001462109154778023 
0.01324254899047704 
-0.003879620656781046 
0.01032033390051912 
0.003468918767362009 
-0.003745218272586051 
-0.000560615695669085 
0.003487760936605832 
0.008699842717381322 
-0.004398274040718221 
-0.007022465639664267 
-0.01055871522167004 
0.01017021111626684 
0.007441240911636633 
-0.002463069951109274 
0.01151856633659425 
0.009202681984717217 
0.01296830330791581 
-0.003260218631087526 
0.001406080535278898 
0.002725454933491865 
-0.0146703877680202 
-0.006433526653638469 
-0.005759148526674281 
0.005989636651099922 
0.009717363491330863 
-0.0001484648840132191 
-0.004596267962932398 
0.0065315883681855 
0.01145128169828704 
0.004328562816234816 
0.003707985594436347 
0.00263782267488693 
-0.001228237999826593 
0.01024482582802782 
-0.002499935534995298 
0.009501207229261177 
-0.00382284534725747 
0.0003069301437712973 
-0.01002313038159214 
-0.00893303453627137 
0.009556060726848638 
-0.01718590190506318 
-0.01020031579553858 
0.004458068473279325 
0.001686345458754094 
0.003929816380173986 
-0.005911761767146486 
0.002861708112595065 
0.006844087860423662 
-0.001191623398469737 
0.007161494869308947 
-0.002043679339150802 
-0.004335482567823328 
-0.01423490778219384 
-0.008556190872332097 
-0.00138102607229427 
0.01419384998579497 
-0.005161229867355156 
-0.002547833053304962 
0.007847378048061536 
-0.000374529751396224 
-0.00996968604299372 
-0.00683805083747355 
-0.001539854032270705 
-0.00539018649707367 
0.005853828011657721 
0.004670806559430525 
0.005350669159038387 
-0.003297004242347165 
-0.003801897219704817 
-0.004610863399399679 
0.008458378517601426 
0.01547520653887943 
-0.0005515981078168109 
-0.002802033972650635 
0.001630451301982531 
0.004079650444321689 
-0.006278758296845645 
-0.009942712796371206 
-0.00175810339289679 
-0.007936358779466253 
0.004286407547234593 
-3.696366808542791e-05 
-0.00321542043232846 
-0.0210970184513091 
-0.01126694190448512 
-0.01284988290700785 
0.006566019372236305 
0.00571674806179372 
0.005824653690654134 
-0.003083689859183036 
0.01102204011265366 
-0.0006867874264336732 
0.002914038792416804 
-0.004500376433869367 
0.006036092354591445 
-0.01749581890759972 
-5.646045186199831e-05 
0.0002977672091122751 
-0.002169253803003804 
-0.02045503522159797 
-0.0201040865162712 
-0.01796739388366711 
0.009847853271634722 
0.02882606437313931 
-0.006274352385768655 
0.0004732202380799218 
0.004477839709373577 
-0.008721899822961959 
-0.01442451773559147 
-0.005243698393989954 
-0.0227829474711211 
0.00571741869146996 
0.0114250162971268 
-0.0008218713762942283 
0.004434956036033481 
-0.009256818798530998 
-0.008244015361608702 
-0.006530315119390459 
0.01674911435138994 
0.01029905233518629 
-0.002341770898836235 
-0.008620055429910381 
0.0008472518152420089 
0.01191434541775601 
0.004563031337416233 
-0.007316048151839399 
-0.0002907411399468554 
-0.003232322346140948 
-0.009556595474259051 
-0.001378563047775135 
-0.002395383306730918 
-0.007534680342777504 
-0.01488549938284523 
-0.0163443766945462 
0.005790199101299082 
0.01417299270738666 
-0.005088724896177794 
-0.003082738405415971 
0.002178347349827928 
0.006618447454155684 
-0.001370678036530529 
-0.001371988732877411 
0.01277100929522944 
0.001887996506921199 
0.001666905992011567 
-0.006270221801139147 
-0.002498713841852855 
-0.008489653414193162 
-0.0145772235776055 
-0.01647926049273896 
0.01883013256167004 
0.004876034515532688 
-0.02205504231620001 
-0.005654406116737374 
-0.0112432652432151 
-0.009581938742610823 
0.003973493588412487 
-0.001885132256027918 
0.006405704971201887 
0.000784735142545362 
0.01055465785051868 
0.00594768497135645 
-0.000218503422237118 
-0.01286445004616944 
-0.01419979766238598 
-0.001537453882608179 
-0.002384223405593627 
0.004734865304609121 
0.0003937122132918079 
-0.006235215328069383 
-0.0002348920965245365 
-0.00291472855847476 
0.01007089098943658 
-0.01250353263599368 
-0.002317189820862452 
0.01093476115212449 
0.01063327418437036 
0.005263384743609959 
-0.001132655707818406 
-0.008013719723480707 
-0.01251659395003338 
-0.006604582234477747 
0.007880113907519427 
0.01262189318815858 
1.025285232647297e-05 
0.005201002206810478 
-0.0004970905750354715 
0.002120373956075863 
0.01335727604621742 
0.01664981117010561 
0.01074820061604948 
0.007691217948981003 
0.0002186766057663392 
0.001884641141254715 
0.004086866279138348 
-0.0299515436796835 
-0.01696806249450752 
-0.01372083959338247 
-0.001039443305795585 
0.02134359261900832 
0.003046891252448821 
0.004666271234488466 
0.0009622584710158949 
0.00695414385083628 
0.0009873199933363435 
0.007965666382591137 
-0.013477907538623 
-0.007384597854347047 
0.008624217054557326 
0.0009121776700288996 
0.008470240200158087 
0.009621019231040836 
-0.01175343123932343 
-0.01583760860858694 
-0.00937892975928087 
0.001043051450967863 
-0.006441843994033627 
0.0006698387193125036 
0.01306219053968836 
-0.01081255092418845 
-0.0001102426071072255 
-0.002960140561717142 
0.007354549504797794 
0.02075237071793291 
0.003982614988654566 
-0.009912351847229677 
0.006089397748863213 
0.009125025685518189 
-0.005273286089995103 
-0.005442807241008299 
0.003295373195131139 
-0.01958813487698561 
0.004568465293234496 
0.01320505857880403 
-0.002245744089314003 
0.008848212704175481 
-0.009379093064408912 
-0.006126447687953965 
-0.01335528868385866 
-0.01014596161104326 
-0.005836855526228803 
-0.002022358661607938 
-0.001346405726581857 
-0.02674500220377568 
-0.005603149037126883 
-0.0158695811538471 
-0.01677696572145273 
-0.01286110720911515 
-0.005426482170609741 
-0.01121281863962455 
-0.008053858356532426 
0.02253832555231688 
0.006343780258972629 
0.0001506356614879391 
0.001704668178522593 
0.008835717008039198 
0.009233365242762743 
0.01074129616639364 
0.008223311211086697 
-0.0002815186662033186 
-0.00875410279294165 
-0.00368559913337068 
-0.005601084273953348 
-0.00781571189625873 
-0.002177152099413347 
-0.007219614185395019 
0.001124623667574328 
0.003823177032120508 
-0.002269335937052871 
0.007957407237519986 
0.005935514382558059 
0.01207951482078488 
0.007819218629142657 
0.008702595201599965 
0.003996800832989402 
-0.00232651618327548 
-0.0004682084474064923 
0.00829357424612156 
0.01717192437974494 
-0.0007187412566354162 
-0.002169655964396551 
-0.009305683987159641 
0.006426946151017355 
0.01063011451384929 
0.0003811379618201823 
-0.00593209081208246 
0.003818661995932368 
0.01309012311536919 
0.01433021458332542 
0.00568404636678015 
0.009752506466971763 
-0.01371118360084723 
-0.002197777659021633 
-0.003935578955872744 
-0.01241041873025884 
-0.0001559092302592058 
-0.006843954806199922 
-0.005549431155352137 
0.002884137096752403 
0.007004792665761163 
9.012350070850323e-05 
0.003483551864760384 
-0.008345126665380941 
0.01424171610664195 
0.00304121497308911 
0.005042059853584004 
0.004145295154877579 
0.003546286445080006 
-0.004762673370582646 
0.008840220892902369 
0.002774657341267956 
-0.004331444984140065 
-0.005957662698551781 
0.003039697471058384 
0.004675650668516677 
1.035590425455698e-05 
-0.005991597193768617 
0.004868616754005231 
0.01130463848609307 
0.00840560716218048 
0.009573602640331734 
-0.001725094311843922 
-0.003485225079325647 
-0.004522850652995082 
-0.002935094168329318 
-0.0008320270338239918 
-0.001406599164094584 
-0.006844018947252901 
-0.007938509730545351 
-4.46509530987009e-05 
0.005193129645235949 
0.004832270169835154 
0.001735272898750523 
0.006765935998222946 
0.003685640837037245 
0.001370203362814796 
0.008945957430780041 
-0.00458357174956783 
0.0005774251485519505 
-0.009219917014194112 
-0.002322062524439011 
-0.003034770979686217 
-0.003851656683484582 
-0.01932803891073124 
-0.006885598596565129 
0.002085509430286669 
0.01305160878775517 
0.004744155996449993 
0.004061710955501219 
-0.001788104240703428 
0.005554985703306363 
-0.00760875632075599 
0.005858870127805704 
0.005782225187700929 
0.002254102410287146 
-0.00348786768917681 
-0.01165997390435887 
0.01555416082597154 
-0.0220579211213543 
0.00274317618481153 
-0.006053023212253063 
-0.002362369127223102 
-0.001459904320226764 
-0.0004150162557454024 
0.003342532609013915 
0.003424009612699129 
-0.01011027435816877 
-0.01035426528087924 
-0.0009991261175604268 
0.002054964087222928 
0.004491664279494077 
-0.003977123920444639 
0.005003817731724992 
-0.004403816676167281 
-0.007392796564815753 
0.000277874511318127 
0.00877621747944568 
0.004087386361733023 
0.00681037617024156 
0.005996860475107733 
0.006047056742767907 
0.002721305513190421 
-0.00864387044877607 
-0.003503909776721836 
0.005996001675818272 
0.006563883755950333 
-0.0005123375818117265 
-0.01105005968377354 
-0.01260570765505156 
-0.0171260184666914 
-0.003032823325926312 
0.005180119324078004 
0.001777856524177188 
-0.0018913547763687 
0.01583081634302395 
-0.00211128724021235 
-0.004307173386067875 
-0.009180679155021349 
-0.0061165971640104 
0.00334013081398869 
0.01536528007606808 
0.0008273440009135287 
-0.003384872513966176 
-0.004039833479102552 
-0.003171034739314082 
-0.01206447212263201 
0.02337596890464198 
-0.004979469334045648 
-0.0005699388366386262 
-0.00422990653464029 
0.008299074687488878 
-0.0005976963289920976 
0.00338784475656603 
-0.0004804668025794629 
-0.01175478536648381 
0.008552830905056496 
0.009675565452946728 
0.001113777831557895 
0.001989015030923817 
-0.01220656941699774 
-0.003510236579273094 
0.005951958332345166 
0.0162045024528774 
-0.007744950594803035 
-0.007797188505926869 
0.002755012262595917 
-0.0009415587315823203 
0.004192579037825798 
0.008409598330013481 
0.01382368631689371 
-0.006631778967469421 
0.009309970811193181 
0.007844359403586052 
0.01283574285874652 
0.002433073906978264 
-0.01083157068887032 
-0.0001025764742590514 
-0.01187866733858538 
0.01034879389775885 
-0.001175478407130097 
-0.003638601269080668 
0.01000449359824922 
0.002228344078677663 
0.01778615156392123 
0.003754444146982463 
0.009370198381343961 
-0.004081896679139444 
0.007706262422258962 
0.006821005468919675 
0.0004434662213946971 
0.004766579341118933 
-0.01557844758384535 
-0.006741873519415508 
0.009626068440456593 
0.002183641687258875 
0.01360135353586904 
0.008222117952141374 
0.004397185412793729 
0.01828826902687208 
0.009752528548366363 
0.0008379026452371902 
0.001096285747509174 
0.006539425764223522 
-0.009151917569045513 
-0.001440703635758866 
-0.000918250517549908 
0.01564134765538079 
0.01413287996200087 
-0.005432409230521996 
-0.005135085231381274 
-0.008076287369980954 
-0.004116586585895402 
-0.005753434301381445 
0.002994736082487385 
0.01913401059247876 
-0.006422726496268094 
0.002453055466392796 
-0.007584878486443744 
-0.009869842005611584 
0.001996110901079686 
-0.005548116208106621 
0.0001333668230230596 
0.02090993896192185 
0.00589012094604341 
-0.008020500554308578 
0.008845935811322153 
0.008505424468071574 
-0.01556582939766788 
0.00552352862487661 
0.001861782498149001 
0.006210935031327743 
0.006849235339576817 
-0.004021830259889046 
-0.006823994570623515 
-0.0128451659492296 
-0.01935281680610088 
-0.0123505690196052 
-0.004829081804746593 
-0.005747551151473902 
-0.01280589048866733 
-0.008068729325706977 
-0.007081104413209149 
-0.01154730702557802 
-0.02155315202901838 
-0.01068383767109817 
-0.01399141063559677 
0.001109206831887732 
0.04084485746113037 
0.0002172407551009176 
-0.000492532101760071 
-0.006373010355696004 
0.00422315800738517 
0.01150047142175102 
0.01489613274842472 
0.02129351387405978 
0.01234507192315446 
-0.0002094223249241908 
0.0008709862803300406 
0.001876686672049757 
-0.01243472422258332 
-0.003785146634264088 
-0.01705929852746962 
0.02442663713167112 
0.01395675881085021 
0.007683259875246639 
0.006236440937878923 
-0.007924540362291481 
0.02466115959240437 
0.03523635090125797 
0.02403666363719307 
0.009695778779192227 
0.009517822939605396 
0.003481264707369213 
-0.002645568302042921 
0.005433042689500094 
-0.003757679753149446 
-0.0003794162169774343 
0.002676264804979899 
0.008532853452658641 
0.01103938537939539 
0.01257526308528413 
0.009942078478461278 
-0.001576720436685717 
0.001555603820492664 
0.003109920381168422 
0.004432068071819896 
0.01484809836367436 
-0.002875686663167217 
0.0001166307838913651 
0.00158405313077476 
0.006318027518463019 
-0.01451368214775847 
0.003589223699196026 
0.008425500187983935 
0.008139722119610704 
0.002521069776009416 
0.005061052020245677 
0.009486060133106039 
0.0009649650003735469 
0.001460413122297256 
0.0125408127771939 
0.009846743894542983 
0.01073924639405767 
0.002367332878961341 
0.0005067928945260362 
0.004028065866615017 
0.001668720724054969 
-0.004930431535408353 
-0.003454923169324861 
0.005442828615971072 
0.006175449379862406 
0.009212095195801547 
0.01037523181887944 
0.00297604730217308 
-0.0127416989874674 
0.01124394216004967 
0.01487426060348225 
0.005223804399340076 
0.005254047104616082 
-0.002239382512660257 
-0.001089558275721359 
-0.0003964922794416437 
-0.002379807599583412 
-0.02186746838653315 
0.001187493350775052 
0.008788992884384748 
0.02162216065733329 
0.01132082630970929 
0.009490367143355461 
-0.002387389469902963 
-0.01068848975978206 
0.01409704159362049 
0.01417291807497246 
0.006811648458082856 
0.0109074803063012 
-0.004046615306148954 
-0.01160841316036753 
-0.01149937745561451 
0.002367810598168697 
-0.02418577363671433 
0.002759022891299617 
0.003124947998261057 
0.007168156968421913 
0.009352180364856471 
0.006057007910235644 
-0.002496220553035588 
-0.0103419176783041 
0.02582006629302957 
0.02030792787076453 
0.01147377904735018 
0.01079756121668165 
-0.002764658239217289 
0.001752769304464941 
0.008409437639326934 
-0.01371344968779843 
-0.00329339941783933 
-0.003108727537281303 
-0.004639360973362262 
0.01292776173590157 
0.01028087448359217 
0.009527118949438538 
0.003270880222268482 
0.001349103225575047 
0.01187734741010403 
0.01697855068356883 
0.003406662749705498 
0.004202468822898494 
-0.005501902920768683 
-0.004901681404249093 
-0.002633374818822729 
-0.02132095899017158 
-0.01580962116898221 
-0.005626426838855631 
0.0009581121270195855 
0.005723433976137011 
0.01065407915162791 
0.01739007971714132 
0.003903479832676124 
-0.01413263903400443 
0.009357052559372884 
0.01631766069201337 
0.001896974130267391 
0.002542047206772142 
-0.007176874373614027 
-0.003327436413725679 
-0.01618605444830308 
-0.009246472728304072 
0.01133443793840503 
0.0002540933345684843 
0.006482925728896842 
0.0121918872502836 
0.002065547038245525 
0.006123358777253955 
-0.004764663469813453 
-0.01467006465137738 
0.01846060810067545 
0.01579402573999909 
0.01366757937801223 
0.0105025980094532 
-0.002938257726413968 
-0.00405283173880777 
0.005312067283104634 
-0.01273661151014298 
-0.003571605649657898 
-0.01043179044577788 
0.00605077341239771 
0.006811972659759415 
0.006721884031631356 
0.006795507641690147 
0.0007181263134927959 
0.001469938938605494 
0.01255606369863241 
0.01439172409654796 
0.007738301865892938 
0.007182891929071033 
0.003279960898045419 
-0.008932969450987401 
-0.001629774334857268 
-0.009522436088082604 
-0.00310476741404216 
0.001192506196506424 
0.001712997779130603 
0.003369175382129096 
0.01040001365561212 
0.009462647210738534 
0.02144124397408972 
0.01333161990724017 
0.002199821424831998 
0.001018720077803442 
0.007906060316696162 
-0.002748337874941734 
-0.0108235167752081 
-0.004471146270142386 
-0.01106113475267747 
-0.01258203551426377 
0.004969624287055064 
0.01152641317379945 
0.01029619532583419 
0.01783799523754637 
0.01424146335859555 
0.01423885857746273 
0.01263568180540101 
0.004025294048839913 
0.019918230120747 
0.006341220584081231 
0.006537792533900858 
0.01039814298998977 
-0.008925223084618454 
0.001731255151538266 
0.007245648768722335 
0.004103381553951551 
-0.001469806514300849 
0.003201877123647031 
-0.00245890032987797 
0.01352609260238741 
0.01763962888211585 
0.009939611203199882 
0.008093909324659847 
-0.0060328336712136 
-0.006881484151524292 
0.000866744730348457 
0.0004941687998730158 
0.01236637902170116 
0.02019551959889021 
-0.007252078970528091 
-0.006133674691855503 
-0.02173947961781234 
-0.01669647536459061 
0.0009793056579917464 
0.007866287930536767 
0.02826020438182418 
-0.002489976540453297 
-0.01197636356307928 
-0.006440614017636051 
-0.004979638283160304 
0.0336684524692975 
-0.0008313390434563092 
0.01043250998592744 
0.0137615124165064 
0.01678759426318481 
-0.003128469147728948 
-0.02263285612350103 
-0.005407856618159218 
-0.02481375382712183 
0.002924047336389715 
0.01544939164235155 
0.005336002206934967 
