solver_type L2R_L2LOSS_SVC_DUAL
nr_class 2
label 1 2
nr_feature 4096
bias -1
w
0.00813391410322856 
-0.02321843952304768 
-0.01554566987735376 
-0.02004171250230135 
0.005571001268792253 
0.002179186331509038 
0.003359616517912768 
-0.01042230679851205 
0.007315808482902749 
-0.01565594666319713 
-0.006915622502513218 
-0.01044151166916553 
-0.02018173099352463 
-0.008651370969917149 
-0.009828229034626598 
0.007326360785752857 
0.01194267385299255 
-0.009577351898211366 
0.0006845986006313974 
-0.003990635824336313 
-0.003201488033729273 
0.01528182182464371 
0.0009686462224418382 
0.00105358837780855 
0.008171854517353352 
0.006696112373529843 
0.0002560775416190931 
-0.01088704129093058 
-0.01169854685856625 
-0.001794652386340121 
0.006437858441517195 
0.0407260628514689 
-0.001400481909171621 
0.007988996768059888 
-0.0005090933569304776 
0.00655609744641864 
0.01147635435915835 
0.001394206244313697 
0.006818415144342174 
-0.009699011431896463 
0.02259717651717355 
0.005527252044051485 
0.0129513737305882 
-0.00440469449027178 
0.003621114225094413 
-0.005822979654267323 
0.01274425860263133 
-0.004603653656517672 
-0.01028305466361061 
0.01823376581487593 
0.01065693615724817 
0.01301180478805278 
-0.007432526332552056 
0.006249542893099342 
-0.002016782215798445 
-0.002765087114865679 
0.01458053255347981 
0.007016498047939397 
0.007707073452914185 
-0.005547640618632652 
-0.01602198063284484 
0.003511788026853145 
0.01052575540438191 
0.01622654310245165 
0.001049507137923361 
0.01124008167925688 
0.007715693597383461 
-0.001511350048429483 
-0.01807014994479022 
0.01742037429934649 
0.008940325809454542 
0.0115687756653374 
0.01402364538256604 
0.00765048713412466 
0.01353215584744616 
-0.003930180287302159 
0.006539265033117771 
-0.00301236324729728 
0.01633783779640271 
0.01020976501812975 
0.01062012091549298 
0.002576145835311407 
-0.004504383540407151 
0.002943481732996452 
-0.02681224544866025 
0.008989318751582542 
-0.00704184890319284 
-0.006008119705985948 
0.02811143258389191 
0.0105807002571698 
0.01578743950814672 
-0.002989503567458097 
0.007888677059894256 
0.002930504105434648 
0.01123740078633642 
0.01275192042969563 
0.00217717040690729 
0.006471199082551217 
0.006526463446783216 
0.005343233980412043 
-0.00368068306266794 
0.001545597470676665 
-0.003491174531309722 
-0.003509631318637429 
0.02664077374340484 
-0.003176441622364421 
0.01697123895877138 
0.004363837058995094 
0.005704045470289417 
-0.0006215177883165335 
0.01522997798183926 
0.01678666733764846 
0.01958471832970509 
0.01550825803733622 
0.005856321782575469 
-0.001542939814146704 
0.003107042553582204 
0.01808638587281343 
-0.003415247037591441 
-0.002559616488939502 
0.0106920852864901 
-0.003972136952153885 
0.02587184016433958 
0.008075580177977612 
0.005256045501501155 
0.01467276294778912 
0.01751580045263914 
0.008941760208179416 
-0.005067097936202612 
0.003260085721614811 
-0.009256660238091 
0.01400774311524884 
0.003770437273533417 
0.01175448261729834 
0.00453399020858639 
0.01301636952336652 
0.0139968625575324 
0.006720750911625012 
0.008435150937337769 
-0.01264228303806893 
0.01398274012794177 
0.01140877170419797 
0.01643664137500559 
0.01123383266252226 
-0.0002149235161165639 
0.01130719574381256 
-0.00813298196296248 
-0.002750434957912747 
0.002552354839292879 
0.01432692951254477 
0.007166734263777698 
0.00528326997697369 
0.01784719321262886 
-0.005621024147566466 
0.00584488538882779 
-0.02000880296514078 
0.01819119413080287 
0.0008584387988794694 
0.02186067851223679 
0.01536642049652323 
0.01063123905345018 
0.007570176192327965 
0.00538491448397917 
-5.879574968205073e-05 
-0.01080389215143816 
0.01474030373287593 
0.005742135262991568 
0.008382097031511763 
0.01758940745431824 
0.000706951076272763 
0.01671752355400041 
-0.005172330866208676 
0.001144875962770094 
0.002826190454476948 
0.01716970504708627 
0.01247219702421096 
0.0134839413015542 
0.01726266498328148 
0.009429259417891557 
0.01044632550401685 
-0.009172724096231476 
0.002806518768005323 
-0.002512143810434115 
0.003855972431678781 
0.01413404964368375 
0.007420121154409604 
0.01230057517135278 
-0.01004435579306681 
-0.0008730121507694003 
0.008111883411566942 
0.0008869638514781672 
0.04524560564697148 
0.01113878555202485 
0.01440679195728822 
0.002642620798685054 
0.01296454879484069 
-0.01261204376295048 
0.02072451902263556 
0.007726837650231523 
0.003756399486787213 
0.009740635517560225 
0.004196773103177499 
0.005951564325076961 
0.0105601076087359 
-0.006067722205489507 
-0.0006807255921174287 
0.01010302990915431 
0.03319010471343385 
0.01017192349160417 
0.01337045704815793 
-0.002972501346820289 
0.0164121373229866 
-0.02330566524318605 
0.002988808907337191 
-0.0007279185782609722 
0.01759900915110496 
0.01298875413135772 
0.007079582385142986 
0.006286331997570055 
-0.0003990902381603782 
0.004083846049313835 
0.004262978892746077 
0.01205001637662611 
0.02447098057183833 
-0.006661247054258165 
0.01464643583720859 
0.003072098553878138 
-0.00674476686402232 
-0.004165260569621272 
0.0004676722890056062 
-0.009233466540687534 
0.01479750153955199 
0.0458697268705662 
-0.003175914267627327 
0.008643280661576706 
0.0257185353710684 
-0.0101686683640343 
-0.003735130738349099 
0.006698295936720006 
0.02575620129469403 
-0.006555118657444357 
0.003980043930872274 
0.005807081895749125 
-0.01148766098221368 
-0.00224717674134352 
-0.01996715716018605 
-0.007666413297843156 
0.005207084697075049 
0.04588486695124226 
0.002659551935660337 
-0.0001886071029252556 
-0.005580667169319467 
-0.01867904495017768 
-0.006487950047312687 
0.009666086849307599 
0.009011285631113589 
-0.003648420475742395 
-0.01565950862742103 
-0.01204703631923516 
0.01170741791361188 
0.004297266040334392 
-0.0004340780286822087 
-0.00734566477570444 
-0.02169650866594861 
-0.01405567551000334 
-0.01296005528245642 
0.003937513337640331 
0.004927782433661103 
-0.01195546529944324 
-0.01012408823311416 
-0.0137476796483834 
0.004359249215203037 
-0.002382268459641788 
-0.01053722167536637 
-0.009394713338633101 
0.009926957017140416 
-0.009537090535820004 
0.01522415707940229 
0.002437653988941732 
0.001165225196319441 
0.01704905407667886 
-0.004683087791013608 
-0.004610690531770952 
-0.0127512953548844 
-0.01434031094004374 
0.0004527800016962748 
0.001740865277393401 
0.03132096926493738 
-0.005581966289660611 
0.003661552649272221 
0.003124790482040873 
-0.008208354636173426 
0.01316123718550583 
0.01691634869379721 
0.01003626641995072 
-0.0116571344636802 
0.02765996559260816 
-0.006848949311549732 
0.002763672813537229 
-0.01608327601196159 
0.02012406879166871 
-0.005670111170893254 
-0.002812893787083279 
0.0004173903447931652 
0.005446364551703296 
0.014193993070606 
0.00962704364051673 
0.00092041866038666 
0.002148463482345507 
0.02279037337479934 
-0.01268747174108835 
-0.002945078249285255 
0.004705023397526945 
0.009230712634772596 
0.01840673621482618 
-0.009081346129165087 
-0.01471047696045896 
0.006744307937473937 
0.004771610862887701 
0.003061849351663494 
-0.0007858172714050964 
-0.009025104050895287 
-0.007775349736976783 
0.003900356834044562 
-0.00114674732125172 
0.01824768857882949 
-0.001252135844763908 
-0.0006357459332234719 
0.0167166400447489 
0.003671517533768258 
0.0008001142430789053 
-0.02715655093655543 
0.00466038128133801 
-0.01190066767191055 
0.0003015414978963221 
0.001401897461126892 
0.01099429878240631 
0.001705132491278073 
0.008375177699391482 
0.0002295714308253641 
-0.01305901177908889 
0.01135057539445506 
-0.009506022189846879 
-1.471159905096853e-05 
0.004341581611043519 
-0.01156005736769108 
0.02031787196965809 
-0.0134446605557574 
0.004810475588649395 
-0.01345137102626828 
-0.005028017071259627 
0.01151962828497348 
-0.001083492551420863 
0.011044253947344 
0.006339878857272424 
-0.005560965672772689 
-0.007553491506072142 
0.009613904134812412 
0.006329302342177582 
-0.005417454575906734 
0.003448349984260557 
-0.002181729565618709 
0.01755768378075643 
-0.003980034299180329 
0.007802291633607068 
-0.00760490510672891 
0.001489561915591994 
0.01700867756997859 
-0.00842177074342937 
0.0105892481299271 
0.001373075504466563 
0.00325793298906716 
-0.001153090826321072 
0.01402794756591121 
-0.004598380609062949 
-0.002591811101300801 
0.0109206758907295 
-0.01306418344213848 
-0.004467674251944537 
-0.01451356684506316 
0.005695986822143365 
0.005108308991833691 
0.01483308810060068 
0.006338836590637943 
0.005387756938374758 
0.009242613593928539 
0.009954050547473029 
0.01523535428490985 
0.0002195106775942328 
0.006273180544078331 
-0.005556503083839955 
-0.00893561635482199 
-0.005901429142622394 
-0.01148886412305804 
0.01152508798724725 
-0.01607246610372729 
0.0171539898480655 
-0.01560313301301516 
-0.006102016714347154 
0.01130299116495315 
-0.01043503788040979 
0.01513746899143192 
0.004297790180966502 
0.005879794544041797 
0.001147454815104773 
0.01428080117523277 
-0.003259487926964782 
-0.003194339465724632 
0.002097977245733004 
-0.00486299917505741 
0.009255549932095999 
-0.00974447333367863 
-0.001552421316980854 
-0.007243459385154772 
0.006826143838491462 
0.007487002712981368 
0.0001477026176075724 
0.01396237481511335 
0.01747441853859909 
-0.001915037830068055 
-0.01674261074368034 
0.0107707192130172 
0.01092610796996785 
0.002312819786673734 
0.007258873318640149 
0.002116159856874336 
0.01663056155865092 
-0.02632158421961518 
-0.007281717026485933 
0.001103240408676164 
0.01512796950328966 
0.009252514633608653 
0.001013003079783367 
0.007335622565462158 
0.00491872465301929 
0.004426601115938303 
0.005229092084583332 
0.01651446610235218 
-0.0006229642384330378 
-0.009573719280929214 
-0.005028944828337905 
0.003365437959881012 
0.004069252551247854 
-0.006612169642586537 
0.004288034584230354 
0.01759741373236652 
0.008638653748539813 
0.01204865588663358 
0.005465225766271281 
0.02038087133496806 
0.00164201460676424 
-0.005723634376224318 
-0.004399718283137885 
0.007651834814277515 
-0.01030790947832291 
-0.00891818113135477 
-0.002130950806792955 
0.01065035804863486 
0.006122298813037061 
-0.01762743133875447 
0.01308186023199792 
-0.002039359084117774 
0.002185847458159294 
0.02838902346386098 
0.007679569941520782 
0.01952006162511896 
0.006925995750685417 
0.01007112356525273 
0.0103940530797682 
-0.007942541813086516 
-0.01198203123611331 
-0.005804054867916 
0.009406576755872999 
-0.003142116080974122 
0.0004981368777865694 
-0.003071278224948981 
-0.002021916308214672 
-0.005094170313357386 
0.005407132286923117 
0.00640998253126905 
0.008088417343419096 
0.0009337342451466129 
0.0003649168453063033 
0.009380422599680652 
0.003408287750582972 
0.0002932584310732256 
-0.006591976378398186 
0.01473005142467368 
0.01992635573355162 
-0.00820601819706299 
-0.00012784605195286 
-0.01022281195370608 
-0.0009371643629316016 
-0.002070642449947571 
0.01206875187924169 
0.01253788874068932 
-0.002703086183059418 
0.007685991092562477 
-0.003393272390606739 
0.01079884009584848 
-0.01086428224274445 
-0.005139312554615795 
-0.01152622578161936 
0.0104421321469515 
0.01621733103129851 
-0.00247701285966643 
0.0002310234804843104 
-0.004976716942295522 
-0.006656854202070949 
0.004126368773727422 
0.0155918289035832 
-0.004878621206608663 
-0.0004432015882153287 
-0.006172951141290204 
-0.006602602760594677 
0.003222482573337278 
0.00716287857485026 
0.0122495499989567 
-0.0006735100955660732 
-0.01448034393927912 
-0.02507175987482296 
-0.01291557104771492 
0.01472746794518337 
-0.01328613374349833 
-0.01722614797890625 
-0.01679510331098023 
-0.007636563458519503 
-0.002570707895023872 
0.0005288157536821259 
-0.03152978107315108 
0.00234495509485817 
0.005850626805802252 
-0.003423926885964693 
0.009446946939487366 
-0.002970033377739044 
-0.01082102261728932 
0.01165219138650465 
0.004512321535745801 
0.007413986764206261 
-0.01338692518679283 
-0.0146713126396753 
-0.01692228646646221 
-0.001281189009091816 
0.01200231298060698 
-0.00299273106230347 
-0.006750294392397641 
-0.002265481342977347 
0.001334056095174244 
0.006159841665995594 
0.01426093710430524 
0.0005072905892862098 
-0.01676434225461775 
0.001341116595027013 
0.001920535586417293 
0.008994223633844762 
-0.007730603079778981 
-0.005570744613980215 
0.009078801659937921 
0.007774006949759204 
-0.00159474136959563 
-0.002695827666505525 
0.01553421505901341 
-0.001751883297697793 
0.002332104475630337 
0.003336244841824808 
0.01459147271172538 
-0.01546543963267934 
-0.01066656436085999 
-0.016014004990653 
0.0003267494351820255 
0.009732785187219787 
-0.009272186134912973 
0.008442008636425921 
0.01101511255216297 
0.007966881726204999 
-0.007844066985427577 
-0.00810642150534617 
-0.008806975768940054 
-0.001788139362307179 
-0.01932691955070881 
0.01084871881656171 
-0.004739120251472499 
0.004218071575117855 
0.01976172276035404 
0.004496549210978554 
0.006092128501709516 
0.02046559181138965 
-0.02270279775394168 
0.006425790023163377 
0.004169013846404654 
-0.0003956981631542281 
-0.005775102240869107 
-0.001858029042197315 
0.005334096071981676 
-0.002622324481134477 
0.002458471701222416 
-0.00122958243962437 
0.01020921413861016 
-0.005462385573975168 
-0.006884137003135737 
-0.001957811192063352 
0.0004628933304773396 
0.01766197318351881 
-0.002099587912501008 
-0.0002732873463882901 
-0.0008000620382439874 
0.01260886942822278 
-0.008791376087021394 
-0.005789465318899392 
0.002881163901693372 
0.003830261929709076 
-0.01140711606161619 
-0.02051575241171657 
0.00589680822822616 
-0.007762375414702059 
-0.00629164071473413 
-0.002028442258039892 
0.001192919296336624 
0.01316082224375023 
-0.01213568408597175 
0.01239635080003166 
-0.000432554943209041 
0.01312419416978617 
0.005789876867241709 
-0.01555417481400173 
0.01393407244463291 
0.002477290952517084 
0.003902803031193907 
-0.008582674186090249 
0.00994734647064115 
-0.01310342086675443 
-0.001789371324049794 
0.004177987649917858 
-4.886513220063172e-05 
0.01379830950943485 
0.005457149754769889 
-0.004307438312037184 
3.76062782476784e-05 
0.003859644163184853 
-0.01312808988897923 
0.002627448663026254 
0.005150779662556186 
-0.0006243072962164256 
0.005563519211196234 
-0.01236950329077203 
0.003238077406653421 
-0.006166203814388879 
-0.02830904391865544 
-0.000442845006999987 
-0.002354794572650174 
0.005891895799602669 
-0.009930654327713086 
-0.01144473903597681 
0.004969562157922583 
0.007667270817566524 
0.007410373784539686 
-0.01786188198630295 
-0.01349923980169122 
0.004948694363678955 
0.0271007692200747 
-0.02728186846841342 
0.005685294497975334 
-0.004746772862624464 
-0.003600118475540686 
0.008099259470375892 
-0.00280053896624471 
0.01025280507458392 
-0.008282368031979868 
0.004427519037428465 
-0.004540605651353011 
0.001665974894490168 
0.004406403172965498 
0.0003975033265817078 
0.016155019962929 
0.003380266274136243 
-0.0006364370707537927 
-0.003658706740184563 
0.00897211438211544 
-0.0109551960834476 
-0.003446777713676161 
-0.004136613888214643 
-0.003492330693825367 
0.01217406134899064 
-0.002147120977885367 
-0.006595188703611849 
0.001206248473529929 
-0.005020978279808412 
0.005364882714539557 
-0.009865532885335065 
0.007349779525411814 
0.009732818829442257 
0.01977613089394385 
0.003216914632943462 
-0.008277590635111191 
-0.004563658733483175 
-0.005510085450690067 
-0.0007478052117728786 
0.001202685423982205 
0.008971599118175881 
-0.01343636893951115 
-0.01442051304888884 
0.002145928339855086 
0.00517404594873669 
0.006284126499962196 
-0.001671559749929385 
0.01618597936370717 
0.01225657091300453 
0.002029049030904262 
0.004233877812003252 
-0.002002606539471696 
-0.006688929793074198 
-0.001739815650615053 
-0.0110190287863567 
0.002196792194523304 
0.01264060771968039 
-0.008271749466496897 
-0.01016606696874353 
-0.004691199081585417 
0.0155839745589746 
0.003780179147844758 
-0.0123065776835441 
0.01658747276670515 
0.01036956098288811 
0.009899618784276577 
0.005777242523996935 
0.008169094327801604 
-0.005134162808028938 
-0.004259578545991194 
-0.02313982343936875 
-0.01401500057425189 
0.004210779835437006 
-0.01174991775056882 
0.003561523365080044 
0.00363158890453158 
0.0100456580452828 
-0.001285867654255218 
-0.008354291637200903 
-0.005888702772571605 
-0.006411919264559144 
0.01549487079023831 
0.02805314211639393 
0.009397530155789948 
-0.01346915570887865 
0.01290608578448934 
0.007405292073269531 
0.007770641972893046 
-0.0007568218839795545 
-0.01464682460358651 
-0.01860840273073982 
-0.002469267386631719 
-0.002241205116622166 
0.01253643020998448 
-0.01836856053835094 
-0.003079409781342515 
-0.007081927656570172 
0.006490117869662596 
0.0131584906734915 
0.0004483928894460521 
-0.006909634774778117 
-0.00258247329825197 
0.01892134217753669 
-0.005796122031984455 
-0.002540167452797014 
-0.001288235475888735 
0.01517409501666472 
-0.0003492274002003769 
0.006795079415883525 
-0.004361317187625845 
0.007601952791325957 
-0.002275716105902137 
-0.000260359177988408 
0.007989651578689264 
-0.008145323421375094 
-0.008330987605246197 
0.001046734748897802 
-0.01926227452111932 
-0.02293320563066102 
-0.002432336758057611 
0.003653208879547781 
-0.01715146772881231 
-0.01642421807203124 
-0.01000694507447279 
-0.01941326769607345 
0.006321243870048284 
0.02865221737839837 
-0.01463777990473371 
-0.007321328935036368 
-0.0132561819741307 
-0.005597399405349505 
0.01227736969194343 
0.009888566316285778 
0.001306362363806375 
0.01261063338368143 
-0.01143242826206135 
0.001403224445651789 
-0.01110081249287121 
-0.003007798506849548 
-0.01937721218703244 
-0.01211769406427383 
0.006421918713865053 
-0.001462585939157528 
0.00660560711435578 
0.0004862076229103805 
0.0003380629850907566 
-0.001453577645480502 
0.01343720745868306 
0.01780221824568014 
-0.006213296687370988 
-0.007572359269854658 
-0.004575283745123096 
0.006138837710007304 
0.006408216207744255 
-0.02138324439891816 
-0.0006993699117797744 
-0.001231240555595006 
-0.006937570804955651 
-0.004025184949418521 
-0.01960749068850228 
-0.02023132449695942 
0.0003615027856915677 
0.003807728501173539 
0.0099025617023709 
0.005258889400467416 
-0.01427951599172602 
-0.01072960601948095 
-0.01572245146732069 
-0.0122201728621657 
-0.001801350677377417 
1.185815704385085e-05 
0.01715573819519306 
0.02227346370551294 
-0.003509830408020564 
-0.002395066052168722 
-0.0009647051159610545 
-0.003726680571283427 
-0.0225155237956802 
0.01284705826003303 
0.01289823187648839 
0.00138690472180755 
0.005975547615336223 
-0.009310889476139899 
-0.02133642005567133 
0.001770005342196192 
-0.002386676139011125 
0.009475583102816933 
-5.660007446171742e-05 
0.007764441372041754 
-0.006469188267343411 
-0.01334953371025582 
-0.002993130386505741 
-0.008683504702245434 
-0.01215750613461216 
0.005742894374618571 
-0.001628488161918731 
-0.001477038652526283 
-0.01409235138519197 
-0.006676947716908473 
-0.008453839110103995 
0.004200236215353165 
-0.009511758464057803 
0.02741648375264839 
-0.00767737646917326 
0.01722442502597967 
-0.005897092864045861 
-0.01061301500487279 
0.01149057409015641 
0.002964787250987118 
-0.0005011005484420833 
0.004596612108392473 
0.01038190457487958 
-0.00648406083820186 
-0.004988405198937086 
-0.0005821978697444334 
-0.001844050998023829 
-0.001725198385866585 
-0.01796547435473475 
-0.006517634321510523 
-0.005072993238827561 
0.007067875268376372 
-0.003183660588270514 
-0.006875804447013012 
0.001191189098988595 
0.002517224297679208 
0.009277897199272522 
-0.006184345024616964 
0.001983315695357335 
-0.003893392706819029 
-0.006825631406994027 
0.00651810216648582 
-0.01048630664001131 
0.0122199289049091 
-0.003604383074602793 
0.001224283870497597 
-0.007607752027494091 
0.009819586291943634 
-0.002456674934562497 
-0.003583875692212453 
0.008266897312228056 
0.002690969517692542 
0.01617655769704756 
-0.01236944053801504 
0.0177332755666833 
-0.001630559188830586 
-0.01991589615325218 
-0.004741517711688932 
0.00233585736635132 
0.006881558317810173 
-0.008393686520047147 
-0.01321358449096127 
-0.007911561182881336 
0.004601939058725379 
0.001708527434029127 
0.0007002112864461564 
0.01326874096371616 
0.007055214893706875 
0.0140756798064829 
-0.01506893081755699 
0.00385521402821714 
-0.004056692713400409 
-0.003593313611132327 
-0.0002898140127328599 
-0.004700597309036927 
0.01458622994910677 
-0.009636103663659657 
-0.004440609015781047 
-0.006262923451368483 
-0.002282246655245187 
-0.0002080447373514422 
-0.009174651985570778 
-0.008838198475960291 
-0.008924694971316819 
0.01703759545583519 
0.003894908692792125 
0.0001307704908655117 
0.002756339854940846 
0.007501955872961548 
0.0006816110035802894 
-0.001670719139693546 
-0.006351071809918545 
-0.002597458638423348 
0.001074984718921753 
-0.007325031849915458 
-0.009461008767132982 
-0.004409457825283321 
-0.002924781972695772 
0.003628417920400809 
0.005824124950660957 
0.002709551550765368 
0.001865949041907606 
-0.002326474721151523 
0.001264892922881369 
0.001216585566171197 
0.002141857390989646 
0.006928476530361662 
-0.00241420317116536 
-0.0002669931751474918 
-0.008296309513634643 
-0.004542462579735128 
-0.007377656894424351 
0.003729612434354192 
0.001164795082317511 
0.0009203671341121658 
-0.009630881393132614 
0.005779250272192387 
-0.007936821544506265 
-0.006817595416214256 
-0.006771356748144343 
-0.004326659769983384 
0.002574344088774281 
-0.001441705667529577 
0.01102879625179992 
-0.001921660374549963 
0.01538740256566567 
-0.01276732864393128 
0.0132511620224866 
0.01685819622251618 
-0.009346059329434775 
-0.002447340946889833 
0.004175160920284094 
0.02023665482604683 
0.01707937722254352 
0.007542746905190033 
-0.01548289680933549 
-0.009274507632711929 
-0.0109431764675149 
-0.008967972601549953 
0.01042260629977562 
0.008882209102657012 
0.006223153046803927 
-0.001588859730455499 
0.008962594871251511 
0.003943337839996071 
-0.002661629194612395 
0.004128647523339753 
-0.01258194715933246 
0.003473321141544585 
-0.004604616347737757 
0.005413035548491249 
0.005176208853254869 
0.01558256643118515 
0.002352645634645678 
2.121660317457567e-05 
-0.0007703901757251155 
0.001561675596747103 
-0.003074360352659315 
-0.01534481507169222 
0.01344642370536661 
0.005698221945415709 
-0.01037728448326027 
-0.003075442888917225 
-0.00997083494023112 
0.02254530844266567 
0.01319319597629893 
0.003942811163602209 
-0.004705894676379743 
0.008413408958919478 
0.009678026736353621 
-0.006831719598573587 
-8.604949313229216e-05 
-0.001448220724509879 
-0.00504690540055269 
-0.004054963800041299 
-0.001493475633216458 
-0.0182807452032159 
0.01714013559451319 
-0.00840513817475033 
-0.007504959444736104 
-0.005911061820262502 
0.002826889532018558 
-0.004105181582277552 
-0.00971262618609604 
-0.02991151526948392 
-0.01785347754492768 
0.004308988369369608 
0.0108618540717647 
-0.003825857182387294 
0.004957743176792 
-0.01609210961565907 
-0.003769225947079808 
-0.002197274541386862 
-0.01059769951855433 
-0.01594223088907545 
-0.0143328089134596 
-0.0026411852608207 
0.003305966009680531 
-0.001002419900683106 
-0.003729751618876689 
-0.008844080445603267 
-0.001917207492592002 
0.01140009493511597 
0.01579958408514571 
-0.006175669086521717 
0.01075120218471029 
-0.001587248571437324 
-0.01802663259832415 
0.01114008924870869 
-0.01881718845810538 
-0.007507991575420155 
-0.01995694282110802 
0.003201363095144816 
-0.007598194248067609 
-0.009878181635593775 
0.001640601629966506 
0.008706945513343977 
-0.0007938243753514534 
0.0004335634855761093 
-0.0109701973614452 
-0.01363804899061086 
0.001778558686355943 
0.003160781783314479 
0.009749466623619325 
-1.612750368926723e-05 
-0.01798183321783759 
-0.02241458908815519 
-0.01153663369120604 
-0.01628704030268888 
0.007783227254206265 
0.02575716451954147 
0.017129407271065 
-0.007338638601301835 
-0.02039461360729615 
-0.02172458931436159 
-0.02210545204920034 
-0.03733128695752318 
-0.02045120162667237 
0.005062368925906184 
0.02218971755633029 
0.003360682698820477 
-0.01426346006309229 
-0.005363469866486967 
-0.01557067124753927 
-0.00624774529885008 
0.002806567482712038 
0.01715405969466747 
0.01748208365825675 
0.01153450997276456 
-0.007144681400677896 
-0.00792520509799258 
-0.01217886374995231 
-0.01746610118107318 
-0.03201773557514248 
-0.00690609047646589 
0.01101410443736211 
-0.002575811325198526 
-0.003973073792322139 
-0.005366643629826851 
-0.007493664951191542 
0.01697825656370431 
-0.009689053711976975 
0.01162153138000957 
-0.01098954160746986 
-0.01700288662031053 
0.001476101425626764 
-0.002420552239076488 
-0.003429589244900769 
-0.014284552600465 
0.002339455873231075 
-0.007631060075537302 
0.007764221149088707 
-0.0118884835440301 
-0.001644229634667415 
0.0001185932920585427 
-0.01407842789820438 
0.01017642818103001 
-0.006685826228190101 
-0.007536962776832587 
-0.007396507978885387 
-0.009758603010722474 
0.004960680298415702 
-0.001827784978327634 
-0.0003379604129301577 
-0.01944007527438297 
-0.01242727475944704 
-0.003734917513087872 
0.0118200591340048 
-0.005530293005558953 
-0.008253019067511884 
0.00406446294483304 
0.002575864238684492 
-0.006932341817642354 
0.004115717458136414 
0.008043876839440241 
-0.00843397139222222 
-0.005428359068641249 
-0.01366244573860567 
-0.00561644536901741 
0.004099364400818095 
-0.002063271107640163 
-0.01549777488859849 
-0.009219180276748135 
0.009779559370948362 
-0.006559296802579869 
-0.004237120824315553 
0.01308429299081452 
-0.01003870955858809 
-0.001211622845470582 
0.003464477724594843 
0.002503332566286023 
-0.004343528332657881 
-0.009210442369191123 
-0.006615190276878934 
-0.007238338829202921 
0.01159757049812062 
-0.009049387792551085 
0.0002654392524905356 
-0.01068566465444538 
0.004624169569282285 
0.005187105750270821 
-0.02121779970108051 
0.000932060264288405 
0.01714354818266019 
0.02296844606287329 
-0.01106720292485627 
-0.007023750137327277 
-0.007151288790216685 
-0.01300417900681251 
-0.002547100623695848 
0.005908596123255816 
0.01146894909457956 
-0.006689455748963649 
-0.01124333685906473 
-0.006708525079117816 
0.002401649273335545 
-0.009247602688626823 
-0.01217142040652808 
-0.01547984115838266 
0.003228657972854237 
0.005381126878469178 
-0.01863423538116703 
0.006016148579631782 
0.006716180229242001 
-0.0009179630657059295 
-0.007194242932874614 
0.0009793870024308125 
-0.006603460526563885 
0.007176826781879127 
0.001017600209677718 
-0.002083496063908153 
-0.002372302842783209 
0.00327860201052381 
-0.01208784825015638 
-0.009024020505897819 
0.009355425441451794 
0.02515100101437694 
-0.01207846262141879 
-0.003025805314596893 
-0.006024854013474749 
-0.006092809253849072 
0.001807887551217595 
0.0105164166960282 
0.001735339550386837 
0.009908217472608052 
-0.0013277611498125 
0.0004331151810111406 
-0.002754199104668658 
-0.003679915039107421 
0.0009428247912537236 
0.00264221562725915 
0.009594971230060282 
0.03066958281565376 
-0.005487736859313006 
0.008292339500102785 
-0.004484074647007725 
-0.007606997004964733 
-0.003209498839467681 
-0.001864517848793681 
0.007515864250826326 
-0.01297487266112061 
0.01182002011644874 
-0.007817724139999602 
-0.0040224953497867 
-0.009948877736899592 
-0.01056612614403504 
0.002283388936228684 
0.004724156582630585 
0.02876140025109436 
-0.001327340497291343 
0.006729666612966101 
-0.01625880793090518 
-0.006744732772327914 
-0.004942509096114737 
-0.0007783443733247586 
0.003976766577304132 
0.001470593019233083 
0.01363393544160741 
0.004124358555964182 
0.006609773715183324 
0.004029720564936286 
-0.001513460825454659 
-0.01530401348641855 
-0.0007999716760422192 
0.003563622513767367 
0.0206006958254651 
0.008038611584380189 
0.002457238820283158 
0.02634008563213576 
-0.001540058295789138 
3.926432934917962e-05 
0.003481295678053499 
0.0002788765643919432 
0.005969273640646844 
0.003468752544783343 
0.002797394477621156 
-0.01643014080526281 
-0.005457040817830429 
0.002548602728216225 
-0.001636022556845799 
0.01165209774954897 
-0.0006798807805110105 
0.003608891039279787 
0.0003427250575880664 
0.01360788887462338 
0.01408885720398739 
0.0002404658879108231 
-9.15695211352559e-05 
-0.001241974252536106 
0.01026931007275229 
0.004399640085078805 
0.01122724594377822 
-0.03434312391909455 
0.0133441653899795 
-0.01157387360049674 
-0.009548926144042545 
-0.01317223306995144 
-0.01498401288297625 
-0.009036643800794711 
0.0001393800695547001 
-0.02101238232466515 
-0.01362133554407475 
-0.004963767667977319 
0.01048635324949519 
0.003474016816131563 
0.001940842080652607 
-0.007180334960670884 
-0.008175634803764263 
0.004363675995400444 
0.01418231349567703 
-0.01698724394508707 
-0.00799503699983775 
0.001576204987781011 
-0.003364616600041203 
0.001459641200785744 
-0.001004361997522331 
-0.0102645187802295 
0.01778320265472229 
-0.002028859229449946 
0.01339054278530866 
-0.01135099795852462 
-0.002132849615186342 
-0.0001882361148587561 
-0.003430065037756614 
-0.007955110148535515 
-0.0006527093732065066 
-0.001166752009261066 
-0.01118612877677517 
-0.01201461525355644 
-0.01077267489277039 
-0.0005195177814045673 
-0.004258803540366572 
0.0003954505455353618 
0.008369158194462116 
-0.002883162497674353 
0.01003887426047755 
-0.003391372438101385 
-0.01593506741440506 
-0.005178264159466369 
0.007814683184787874 
0.0030235087131212 
-0.006807945698953149 
-0.01297397505994645 
-0.008479263789948878 
-0.01602386491215484 
-0.03350336471122423 
0.027306055260842 
0.02274342978170623 
0.008205654954822868 
-0.00803770088697533 
-0.008969242662783252 
-0.003351533900007923 
-0.02181684183717958 
-0.02957444599111488 
0.006376126816176511 
0.02871378014817795 
-0.002045765885698378 
-0.02274061030881604 
-0.008587146635783112 
-0.01438543369939113 
-0.04201006326228427 
-0.01915633622350642 
0.02647187215756058 
0.02644776072024448 
0.01034716915336467 
-0.02056150390661152 
-0.007916471042997534 
-0.01290527238688451 
-0.0160927187933741 
-0.01004140833863444 
0.006954074436706725 
0.03105384153680922 
-0.01007120434846167 
-0.002087249595238963 
0.002207360622870627 
0.001657312282110366 
0.002914913028569944 
-0.01225718422266108 
0.01302192659476869 
0.001350142729479096 
-0.002269225626795912 
-0.008524962162690691 
-0.006761167188592925 
-0.003221567669418543 
-0.01386494042151484 
0.01676005554784814 
-0.0006683385716012019 
-0.007238834921206335 
-0.004252601131356698 
-0.004865584623180371 
0.002595217251149408 
0.008858378634795704 
0.02343102983331415 
-0.01716397206941949 
-0.01048502874455291 
-0.008263965697344085 
-0.02298797111957361 
-0.01376606071670956 
0.0009866585733839986 
0.01029795394778208 
-0.02885785826376856 
0.003535977476486022 
-0.003362139534401406 
0.007810900546272919 
-0.004210079987957437 
-0.0124983099841317 
-0.007077606684335098 
-0.004940830478497272 
-0.005427864143948731 
-0.0003462058484126869 
0.009574196930593307 
-0.00543665170307378 
-0.01512204320063964 
-0.00445393416286586 
-0.003508794438307319 
0.01161438562704665 
-0.008057554153273588 
-0.01816296913839926 
-0.001684395864769783 
0.005708951404642097 
-0.01261147736858562 
-0.005272427691726351 
0.003771797777031726 
0.01054786087565432 
0.01938270314418357 
-0.03388072548980667 
0.01323783024463621 
-0.00566159928145869 
0.003328466792764206 
0.008498863432451263 
-0.001650622235252888 
0.001951909962261345 
-0.009532565298514564 
-0.02195124311715139 
0.008591126956249287 
0.00571532197899997 
-0.006111284781604114 
-0.002886800402696493 
0.007949974743555813 
0.001020919095589451 
-0.01591375511252988 
-0.02652774098692747 
0.00689111343897148 
0.000853129982017151 
-0.004262777642841266 
0.007989227902745916 
0.002869963217883026 
0.0002906078462326097 
0.01381091363580321 
0.008777117573522907 
-0.003130096382635895 
0.0008953151974505828 
-0.0158735468421995 
0.0006921910989766592 
-0.008474351003917042 
-0.007880658665363903 
-0.001724878704699414 
-0.0392082277493916 
0.006664153815730818 
-0.008699202634182846 
-0.0136520049055754 
0.008506920407853506 
-0.004980274033810905 
-0.008736484193966746 
0.01164122017873745 
0.01278626005120268 
0.005052748353701381 
0.004131901938649984 
0.01348161820906268 
0.001223601971436004 
-0.01516068798870984 
0.005158522741975118 
-7.697873848972482e-05 
-0.008403794319357567 
-0.002623617308133608 
-0.0159791902854896 
-0.005871592389800439 
-0.002212197981220415 
-0.001870596088316755 
-0.000399975284099526 
0.03300655127588081 
-0.01160815529268905 
-0.0102804401538014 
-0.004459092175552146 
-0.002728930124215705 
-0.010645184825775 
-0.0002867295316479946 
-0.001988092170340281 
0.007056823460123835 
-0.02241987360881679 
0.00716189961819733 
-0.006435354329331041 
-0.01832071099796749 
-0.00897144171968828 
-0.004452088542567737 
0.004708678777336623 
-0.003866539365181373 
0.007901518516019158 
0.002748535214597522 
0.01702714375716001 
0.008969622242362401 
-0.001354751459321449 
0.002221304919060231 
-0.002298636354246937 
0.005303329750802832 
0.0136079413527776 
-0.002089242977543428 
-0.001314615705986125 
-0.001596795181031279 
-0.01221062600167202 
-0.01262191776291406 
0.008876732418139698 
-0.01011616834344493 
0.01454389522607604 
0.01515715633498816 
0.02304997012446427 
0.01027670980493482 
0.001854972316894928 
0.00669411911417915 
-0.005330001061924688 
0.01943291822411737 
-0.003429938436573272 
0.01036767991220476 
-0.00632105675052838 
0.02019121994739766 
0.009269323804243281 
-0.004930178713553695 
0.004966918901391018 
0.01535031160001016 
-0.007215660436186869 
-0.006926596340820326 
0.01085132129910549 
0.0001726288654799929 
0.002519301198191849 
0.006470225099411025 
-0.002901888000681856 
-0.0001707377714821188 
-0.000578642866447231 
0.007567312977431764 
0.0003344273439479873 
0.02615703327310505 
0.001103541068186707 
-0.007444845039617729 
0.0002968812909369284 
-0.0005749889112211266 
0.001039022111327003 
-0.006132660174136538 
0.008345242992969714 
-0.01187952009644418 
-0.005293509918089971 
-0.00539538827252531 
-0.005816636162642407 
-0.001379198361895559 
-0.00938780173249237 
0.007109659402967955 
-0.00640472830376648 
-0.02854496543603451 
-0.01894642139343369 
-0.004460031534101323 
0.009236025779437107 
-0.01322263930598051 
-0.009577696919195518 
-0.008976208515626565 
-0.002665862704914762 
-0.008428517104307845 
0.01292613999172674 
-0.009542179098056595 
-0.0163510955672593 
-0.001640668614458112 
0.01269738016121195 
-0.001864074656011233 
-0.01425522867641599 
-0.02155637814489262 
0.01721732494709179 
-0.006601471591333352 
-0.0009252983008812681 
0.004232033671443422 
-0.0158607730679828 
-0.009362596436702664 
-0.0002483410982941169 
0.007611611583914144 
0.01040338423460285 
-0.003617646721668374 
0.002852572976665669 
0.003023274836800476 
-0.02579463402896101 
0.003882817212394885 
0.005518225605015578 
0.0006029885535713776 
0.008070804516678791 
-0.007836926247084128 
0.003101402622184381 
0.0004892355374602564 
-0.01598768549668424 
-0.009834848778003722 
-0.005866959760709173 
-0.01386307979334307 
-0.001404946248631913 
-0.004292446562331878 
-0.004955747493998401 
-0.0178201059409513 
-0.01135427806247678 
-0.005391794211144851 
0.01537965646035423 
-0.000402802510048922 
-0.003152480835130228 
-0.003097046316359542 
0.001139412814736546 
-0.02355366446665342 
-0.03184991803013705 
0.01199963069882081 
0.02592236505563111 
0.02236178859875418 
-0.006887102358251908 
-0.02284171084582566 
-0.01923659906923855 
-0.02335170819918552 
-0.02810914226112161 
0.03477882952184756 
0.04427129570474159 
0.01036142406857233 
-0.02395289293887135 
-0.01286872173064902 
-0.01421302197733171 
-0.01768467800075706 
-0.03950602898116404 
0.0136454427592235 
0.02598768850809239 
-0.0005196434714862249 
-0.008845786737995631 
-0.005086311662620308 
-0.009956319180433526 
0.008175673535524668 
-0.003228669552583819 
-0.009615125506256275 
0.003167245752616043 
-0.01761880185191536 
-0.01330513698435752 
-0.01384098861735577 
-0.01080085558289107 
-0.009952082119645489 
0.01166596557169566 
0.01546843922016105 
0.004065773372683909 
-0.009782654524141073 
-0.01697127071171784 
-0.01855409548468097 
-0.0151237273479284 
0.03034592758122842 
0.005890988283364931 
-0.00229509551398991 
-0.01183755704342031 
-0.0256285286076084 
-0.02645028983679509 
-0.008844466504205369 
-0.004686748783209335 
0.005157060983315093 
-0.01133563049598098 
0.0006289407156566056 
-0.00233450131823828 
-0.01481086480113532 
-0.008324479651327895 
-0.002007021974689517 
-0.01728708731235078 
0.01212908587175071 
-0.004445036612653557 
0.0106841506482037 
-0.00867522213203966 
-0.01850668038022571 
-0.02420038898388684 
-0.01053904186257752 
-0.006214600840664557 
0.01834012902596608 
-0.02652086920994551 
-0.003061882485739117 
0.001098189849891359 
-0.01988510405089394 
-0.003527222433782143 
0.001315606252939317 
-0.02354791591911612 
0.00283476762955171 
-0.01607500447275704 
0.002443720245220108 
-0.01061322678715487 
-0.01745295237590501 
-0.01054641353847475 
-0.003460515161962908 
0.001767032942455706 
0.006295223613068983 
-0.02069014439720468 
-0.0113070821319595 
-0.0009727610636857604 
-0.002323964499834033 
-0.02022283429407476 
0.00504188662571039 
0.01204765430013992 
0.002726032032792365 
-7.294783991242504e-05 
0.004453880809351039 
-0.007371786555030949 
-0.003288512637175091 
7.108948676056761e-05 
0.002171397673118166 
-0.01312982170695039 
-0.003471875015889593 
-0.02369565152875859 
-0.007415125315860129 
-0.00939104199389984 
-0.004474771994536383 
-0.004989628589579371 
-0.003259281193431506 
-0.003534956006017936 
0.03220360757432027 
0.002550298198028299 
-0.004705601453899796 
-0.01511371639152554 
-0.004688152374700303 
-0.007836127250894914 
-0.01794505933359822 
-0.01936543896153683 
-0.0004024852093040099 
-0.002482533665297861 
-0.01606274499527176 
-0.02428981122360378 
-0.003783234100948754 
-0.0131024203002999 
0.002376665073729741 
-0.01232863949600359 
0.0195513969340547 
-0.004671387428552792 
-0.002383340663943861 
-0.01102114471722876 
-0.007415845996019546 
-0.009198390676415343 
-0.007462931631427219 
-0.009198009174372308 
0.01466603587243058 
-0.01982940918810791 
9.632531629649862e-05 
-0.009959604832770625 
-0.01380745958035687 
-1.025607061849434e-05 
-0.004647940334248934 
-0.01613731128909686 
0.03328743474237991 
0.01375622776289061 
0.0004595386571956947 
-0.02007669338721053 
-0.006461644296225522 
-0.01967727502849341 
-0.007284812968618918 
-0.01052151648272725 
-0.0205247723736328 
0.01203890359504592 
0.007575545442110857 
0.006841751989114837 
-0.003345656750078232 
-0.01117414851246556 
0.005062580887690927 
-0.004537278333619395 
0.01228553033935882 
0.02727637770511564 
0.01185145682652429 
-0.006473244914084822 
-0.003609933235903419 
0.001082444319772538 
-0.01113034291610376 
-0.008351295308714616 
-0.001864423973919193 
-0.001891808676193207 
0.003061561714801488 
-0.003440769560989715 
-0.002161533735830035 
-0.01643860032155594 
-0.007232355546556405 
-0.004735961443323212 
0.01990860299563033 
0.01271614150570176 
0.004540077935519306 
-0.00982506407588475 
0.009862729564645623 
0.006439464410221522 
-0.0085336361857238 
-0.002216654282368257 
-0.01656210423279413 
0.008247951764244428 
0.01113629804335961 
0.006853746051696403 
0.004405410400110737 
-0.01601445269910057 
0.002303453994038928 
-0.002469352391612387 
0.01073561519583579 
0.004607797145355154 
-0.0060027351634189 
0.0004564853957001595 
0.01349139752997771 
-0.01772837408789527 
0.004511821986315241 
-0.003633391253561207 
-0.002882736394552749 
0.0001174605461182164 
0.003729012138383651 
0.01305048489565767 
-0.01029623195218608 
0.001957136776184215 
-0.0122593903770542 
-0.01383943983279714 
0.005472440549582052 
0.009128168321658706 
0.006549528821440036 
-0.01481075483092745 
-0.0266897051591321 
-0.01583313434551557 
0.005784012734391367 
0.007458785210994552 
-0.01061372624698145 
0.003933507032439886 
-0.003825276127816866 
-0.005103963413076907 
0.002660686329483475 
-0.004727594268116399 
-0.01174641817102387 
-0.01674998911411438 
0.004469905560871675 
0.004636333954789837 
-0.0001243539199065523 
-0.001244696329673396 
-0.008555971601933885 
0.009895772758152283 
-0.004788177790737902 
0.01335420432483647 
-0.02111015607974929 
0.0001681187835593247 
0.001594505805260583 
0.000744783219107395 
0.01033499284608096 
0.006469033100173268 
-0.006369102765667728 
-0.01327828605447477 
0.006288897872229749 
-0.008080886063120919 
-0.005640865471031966 
-0.01392054136228286 
0.006577388478794443 
-0.002093819654793226 
0.01054476383469234 
-0.00150753928127341 
-0.01359659375638486 
-0.01530053923443553 
-0.00300262561361577 
-0.008573258671708705 
-0.0002294082455563122 
-0.005220852733768384 
-0.0009997034499786212 
-0.02023471335113065 
-0.009431729065895591 
0.003413672744037104 
-0.008377038894124311 
0.00384605133984226 
0.01061498820646504 
-0.0198834849967601 
-0.01416840995000173 
-0.001552323590706549 
0.003024889334622822 
-0.02144810084933703 
0.01633834637577047 
0.01721431172714497 
0.002059687649264899 
-0.006029504353706604 
-0.01435471777408285 
-0.01597067615767097 
-0.01283751073531076 
-0.03077781626031702 
0.02530058937870515 
0.0278162943113957 
0.007218026012726992 
-0.01106009104855063 
-0.0009940979537142111 
0.00356546712111297 
-0.002038605159242639 
-0.03081674460884246 
0.01761359991654487 
0.01302944483787242 
-0.005259653252543028 
-0.01065731976194662 
-0.01564622903481959 
-0.01337939297400947 
-0.01508228059749925 
0.006047670230879263 
-0.000805698712234031 
-0.0006803123016558989 
-0.01763801693762106 
-0.01706392462954591 
-0.0105413681622354 
-0.02092009020215404 
0.001318785444039803 
0.01862618084824669 
0.01538108607142357 
-0.003018262267066966 
-0.01756203976899965 
-0.01317818476557997 
-0.01330670884508019 
-0.008136048146013378 
0.000548180682856297 
0.0003003665870965798 
-0.009144309055858117 
-0.005395574531343416 
-0.01726353851403729 
-0.02177275490070219 
-0.02537983284436333 
-0.02126931995331883 
0.000359712619891802 
0.001405198533802586 
-8.628869732131443e-05 
-0.003949044616427823 
-0.01261809226023865 
-0.01930535156141943 
-0.0165502814988172 
-0.01856672865887928 
0.01139625728166162 
-0.003542763036742657 
-0.001959998973608371 
-0.006275403960471157 
-0.0131738902716007 
-0.02560978497717622 
-0.009461339512386136 
-0.007585829919217944 
0.02661629630497666 
-0.0142208736314108 
-0.009775948603615709 
0.003778394418242228 
-0.02815431151177151 
-0.01327513965619284 
-0.01036414205026931 
-0.01063810585997887 
0.00723295037662689 
0.001891956486095397 
-0.01039341947420691 
-0.007112471141491978 
-0.01278689481194507 
-0.02678189347837319 
-0.01323124466041875 
-0.01088720856838528 
0.03000290381364155 
-0.01121371378820365 
-0.01995905884032694 
-0.0188936940565863 
-0.02082194013150882 
-0.0268332409462798 
-0.002319152813844236 
-0.009744060288903752 
-0.004460870160506783 
-0.001921780829486461 
-0.009774191454163981 
-0.007477790599828098 
-0.0265718630325348 
-0.01292590441677143 
-0.01404019800436134 
-0.0005927800877983618 
0.02591956376374784 
0.008238791590465852 
-0.009260276289541734 
-0.02239050522841505 
-0.02129652465058172 
-0.002610277860153779 
-0.0126095038678505 
-0.03172134223464367 
-0.002167451131791179 
-0.0088166751014315 
-0.01865887314504952 
0.0008325532694807322 
-0.01651230946809838 
-0.01326628043533206 
-0.01268826143227497 
-0.008484451416993092 
0.04352506055979593 
0.005715951953297589 
-0.008334370796800392 
-0.02196504973780199 
-0.01340389418167804 
-0.0009301081898249881 
-0.01200763139454585 
-0.01364105916650781 
0.01019203113071297 
-0.01985073144989871 
-0.0008723836332712057 
-0.007346295373890701 
-0.004823617445976109 
-0.01368560182028184 
-0.01245944810341789 
-0.009886136556400771 
0.02444082575294482 
0.001438247044506894 
-0.001508261329227397 
-0.001668139325590526 
-0.0119418784764583 
0.00253508299830601 
-0.004376062379223198 
-0.006849123934157927 
0.007493415649012212 
-0.007344410685548025 
-0.02141994326276991 
-0.01651641523129348 
0.0002490283911858626 
-0.01703271761765751 
-0.01187307482289686 
-0.01176844119406706 
-0.0004305169479803174 
0.01251884288158342 
0.009758665888417258 
0.001504104805892808 
-0.002466227483164863 
-0.0159614624783238 
-0.01155205321678228 
-0.003506887562150548 
0.00636859599643987 
0.01152485616528071 
0.01153264762019678 
-0.005560402398412897 
0.001518487014396389 
-0.01000022378965959 
-0.006772718249819639 
-0.002052481989677597 
0.002577319078492017 
-0.007260918320358813 
0.0002207688815367531 
0.01380076090220666 
-0.007266174843753654 
0.002579685956469103 
0.006836818064510021 
0.005924937473524955 
0.005299064270621974 
-0.0003224125970112244 
0.002998761070965428 
0.0004775884054476964 
-0.001685693973091325 
0.006193473006271766 
-0.002094574315500202 
-0.002225637424892883 
0.008832352188785008 
0.0005267225090956122 
0.0008452596093323118 
0.007207016786812165 
0.01432538930153301 
-0.00724909613550972 
0.002780497246730771 
0.005694462439725664 
0.009685626333418152 
0.00941029445223561 
0.003462779531309768 
-0.01988779122017045 
0.004996930589949372 
0.003050243318572182 
-0.001807930604554509 
-0.009109816267166412 
0.01043148678122943 
-0.004746915465655898 
-0.005575400054824075 
0.01255137739286106 
-0.0149733398166478 
0.015247207962888 
-0.01829486819344058 
-0.004567969259270274 
-0.01196813363934199 
-0.004383456985399312 
0.001791440225980925 
0.0003789677522512497 
-0.02847748050473117 
-0.01520258956477566 
-0.000584235198234243 
0.01219886616032677 
-0.0001651434066379539 
0.01238556152046292 
-0.004659133703149672 
-0.003292300706518532 
-0.009920062299376841 
0.009499176894202689 
-0.00495378920299544 
-0.01294125618455649 
-0.01449049590007665 
0.01630276110029668 
0.002758392627764939 
-0.009509259780067456 
-0.006755955270929171 
0.01526900176351572 
-0.004885028620387481 
0.00554640993755682 
-0.002008503804159535 
0.007534257267318973 
-0.002628980660385816 
0.001066311038811472 
-0.004112365735971166 
-0.02318278464310845 
-0.008327585543916011 
0.004436346509213299 
-0.005224689663547416 
0.005430147264733041 
-0.003660557765662218 
-0.0002625753902225343 
-0.00594201988408509 
-0.01356779230848722 
-0.001674039514117368 
-0.0009868900279640749 
0.0110576791703132 
0.01524877546203194 
0.003347779010531051 
0.002603544795265247 
-0.01360096341456688 
-0.01670114037261941 
-0.009696812565924608 
0.004925306793437024 
-0.01502059995245899 
0.005944857062916347 
-0.01012336692565511 
-0.009673675809096956 
-0.006027973767089793 
-0.02229026663516569 
-0.007196078271825329 
-0.005034612170353118 
0.002226540822645331 
0.007797102460827355 
0.006078424901081483 
0.01858988588666263 
-0.01523405407331109 
-0.02171983983209833 
-0.01918420795186877 
-0.02808735060590548 
-0.0006454414111846719 
-0.0009553706420025034 
0.003609719634008213 
-0.002977407350462069 
-0.008466538875303123 
-0.01770985616281412 
-9.449679967691095e-05 
-0.004682410797106275 
0.02134919101044881 
0.0005698916421645845 
-0.004526942005364059 
-0.01243034069805145 
-0.01902103209478872 
-0.01424153865065966 
-0.01808313600288681 
-0.0221743518554148 
0.01328752717437659 
0.03009811877333458 
-0.009398896191001921 
-0.01181247073132306 
-0.02106845174439861 
-0.02230428594674935 
-0.01146627733271194 
-0.0132263115633972 
0.0300656198750403 
0.005822799773465575 
-0.001244096815600915 
-0.01700482728194755 
-0.02308393122407137 
-0.0073406606483663 
-0.006048209366199364 
-0.0112510799408729 
-0.004090387540059322 
0.0007033517889566451 
-0.005964142964922778 
-0.003201972896684123 
-0.01200938792136745 
-0.01094967827761714 
-0.009604511319440005 
-0.01413676637731141 
0.03228868489557408 
-0.001829335767070892 
0.001648694235462291 
-0.0003890504602216126 
-0.009063305926482038 
-0.009914588735760023 
-0.01233083017321967 
-0.001949597768460669 
0.000187154596067237 
-0.007358731925878826 
-0.01479075291395136 
-0.01887322230381969 
-0.01952080104421369 
-0.02529814247150057 
-0.01362511977461089 
-0.02348673545006947 
0.02692569466930084 
-0.005165013733046917 
-0.001029114594716026 
-0.007685502750925529 
-0.007382116324267394 
-0.03643492695094155 
-0.01440511607316704 
-0.02012011031701388 
-0.003226075292751312 
0.01157537161326893 
0.00688010247515698 
-0.01278796362766729 
-0.01764541794599735 
-0.01056136948616636 
0.007384409562461925 
-0.0009712195036856307 
0.01609330732322234 
-0.02638170095360723 
-0.02043815533199536 
-0.01539338721537382 
-0.01348000368507607 
-0.01463540327286309 
-0.0161691165832909 
-0.0005246728406662015 
0.008189460825078888 
0.009919481574901915 
-0.006456386569552858 
-0.01259368332096131 
-0.01795831026892435 
-0.02466554653206857 
-0.005691714450884923 
-0.0032046019506881 
0.02181542440077137 
-0.002073195251041491 
-0.02201760779221523 
-0.02920575672828701 
-0.02044953643827176 
-0.01662255615461125 
-0.008126166400830276 
-0.01688180355875761 
0.0230484665210778 
0.003406892303473082 
-0.01710312444665274 
-0.00458424614021341 
-0.001707538241598965 
-0.01214579835411559 
-0.02150801187195739 
-0.02213015472063371 
0.02006217661902562 
0.01708271066600027 
-0.01963913567446075 
-0.01143375627702445 
-0.0186983697917651 
-0.01636113320280421 
-0.01007864066076018 
-0.001642314524821717 
0.01769219243560064 
0.01821415297825271 
-0.002109748571092928 
-0.00479300507563583 
-0.02215021400091811 
-0.02632472487353251 
-0.01347014995143589 
-0.0160530166848613 
0.009970763191487051 
0.01448954634629772 
-0.01489400110359223 
-0.01440778619357199 
-0.01093869159247909 
-0.01767441381866485 
-0.01928300786330773 
0.0004440292567656219 
-0.002196342451143921 
0.03222733661505163 
-0.014617913835867 
-0.009117094701613327 
-0.02382229980187154 
-0.03391455394640232 
-0.02095904309415514 
0.005206584229988728 
0.006384062548307485 
0.04321452772476701 
0.008711581972202696 
-0.01278808640711585 
-0.02504647809413269 
-0.008176006000233766 
-0.002986599145610414 
0.005054138492840151 
-0.006249798067992608 
0.01091500345422301 
0.01458873757952213 
-0.008364153069017683 
-0.0004213828423437998 
-0.01391254259054567 
-0.00558554608124209 
0.0170035272179893 
0.009089723838617962 
0.007431582247374899 
0.02236385089007682 
0.01172603708503418 
-0.003616824810282151 
-0.013715071574644 
0.008676431221574092 
0.004354651604045642 
-0.004237590267093032 
0.01189456689671901 
-0.001348836932004901 
0.002935747962022562 
0.00650086019242369 
0.007108218464637288 
-0.01205040847543735 
-0.00802417228814019 
0.007346434829033732 
0.008328158274861228 
0.00456100818118655 
0.001869251221715909 
0.00708203689524304 
-0.01074699539096541 
0.009866992962123827 
0.008412048606495926 
0.003683480039730083 
0.007470146929607653 
-0.005271032961888128 
-0.01263742876909611 
-0.001983295796849713 
0.01047018925168211 
-0.002071370293441259 
0.001769797223813125 
0.006525940770563851 
0.005784111419262673 
0.007360172700549277 
0.01085640380979268 
-0.01935431359405983 
0.01697972896659638 
-0.02059086226191643 
-0.01469329996888837 
0.0004303285169589498 
-0.001329719926311578 
0.005681335457353938 
-0.01428152611986657 
-0.009800661321676099 
-0.01780030687353474 
-0.004254226182569139 
0.01290430046639757 
0.005486357554693139 
-0.0005908102912504479 
-0.008269219794981401 
-0.01472127232656384 
-0.01681269201802089 
0.01851826411722806 
-0.0001140170287622976 
-0.008275795320185604 
0.0104174257770433 
0.0033654471626913 
0.006604301697771483 
0.004105984647600433 
-0.009823554862832019 
0.003087102809799425 
-0.009363299387183438 
0.00619136405786928 
-0.005566870843003494 
-0.003650680186782276 
-0.0053088984714598 
0.003567498023535164 
-0.004848943290012373 
-0.01277700716228902 
0.0001243584288832888 
-0.004969876275629888 
-0.01177183150697145 
0.01362073841363597 
-0.009525554287994465 
0.009349965666347783 
0.008153753931240499 
0.005318071698385304 
-8.81951428641734e-05 
0.01015786572143397 
-0.007406178927819829 
-0.008248096930207177 
0.004967937014626612 
-0.006258464134762699 
-0.00328669141303297 
-0.02461097760757418 
-0.01428174419203564 
-0.007569754471881181 
-0.01538997368196 
0.01254048945549808 
-0.02292964934862844 
0.0007171163606398926 
-0.02305099125156385 
-0.01652181134451485 
-0.009659058887636606 
-0.001344741415417735 
-0.02165301912125701 
0.02608142529163012 
0.01215344151286946 
0.001033088157565035 
-0.002022178108509009 
-0.02666586917955404 
-0.009294188060962851 
-0.01599117966594902 
-0.001981659210653141 
0.02047035818528436 
0.001053751359812164 
-0.00251195836726024 
-0.008345911522696488 
-0.01769235667507234 
0.001829997048858812 
-0.002673140955087363 
-0.00744745941102186 
-0.006118884868936211 
-0.006317539358140108 
-0.02102993747687846 
-0.00854413367804497 
-0.01757802417949527 
-0.01623964778537075 
-0.01814931181886762 
0.005039064419694169 
0.04420028591556637 
-0.0143822867516408 
-0.003622055288646691 
-0.01779026943812619 
-0.02908838525082369 
-0.01578452908480103 
-0.00336682302925837 
-0.001685785266946039 
-0.01090474485549329 
-0.02097433620294466 
-0.01582132708654183 
-0.01344940205635933 
-0.01588275029072089 
-0.0114556282494695 
-0.01786358664589164 
0.02682510209176001 
0.04630782397383902 
-0.01446790362474935 
-0.02042869413042588 
-0.01712874899396725 
-0.0129741019200557 
-0.01494858549164805 
-0.007822871478807529 
-0.0005417890329835592 
-0.02370799551220226 
-0.01404212806932327 
-0.00447766451544303 
-0.01824643926291386 
-0.003859027752089074 
-0.002377357767007529 
0.00640705904863481 
0.01206810124235732 
0.01463307322891053 
-0.0127752804905949 
-0.01145810936503827 
-0.02074954433748054 
-0.02584819988680827 
-0.009929045731466971 
-0.007845493662975829 
-0.0001763329783177413 
-0.02507186438320047 
-0.01708621460477999 
0.000325350137239228 
0.001997013415170462 
-0.01772958421354325 
-0.005793856837144247 
-0.007780900531303901 
0.04079821706765976 
0.00350873698944176 
-0.005279161251969498 
-0.01684116558942611 
-0.01418891437410429 
-0.0232603722233599 
0.004125090720128261 
0.0009535569794173673 
-0.0009113752801497918 
-0.01698165029825538 
-0.01424579782412382 
-0.01861398932618345 
-0.03091613932115953 
-0.02962612266337665 
-0.01331235355696977 
-0.01490303808018972 
0.04346350632764315 
0.02376270399696978 
0.004530366119901354 
0.001491575515802004 
-0.01269781910250514 
-0.02103125975717007 
-0.009946743670723407 
-0.01917380450966764 
0.004798426096280446 
-0.04023545812457106 
-0.0127020507535887 
-0.01367664154042749 
-0.01923692244654876 
-0.0231236794541989 
-0.01278887627055877 
-0.00945921960508057 
0.02984252373253196 
0.006591298228984155 
-0.004715083079751698 
-0.000273774013670593 
-0.01362696497935022 
-0.01738657686278889 
-0.01593932900124905 
-0.01594930731577713 
0.01296496114291631 
-0.02823223319803598 
0.002158592513196709 
-0.004793758446207721 
-0.01499407315277818 
-0.003549643860429984 
-0.01766435224832357 
-0.0007304055754299048 
-0.001363226885220802 
0.01907767677283432 
-0.01401739863038799 
0.0002476406793376415 
-0.00451784517330195 
-0.01178982800163073 
-0.008376256652629793 
-0.005840541037507994 
0.02897177945872552 
-0.03743456365568316 
-0.003714778698789472 
-0.007505881626125191 
-0.01384653702323956 
-0.01332851333243016 
-0.006467413062150582 
0.0009564123436750152 
0.01446656373978653 
0.01344854220972602 
-0.002837481804091692 
-0.01218256420488822 
-0.02488733293070188 
-0.02972396843154358 
-0.01851269187161328 
-0.008547504591733993 
0.0145184594833009 
0.002703622441838614 
-0.001255156769106666 
-0.009178260068173683 
-0.01618588043539789 
-0.01804851526331839 
-0.01317833309144714 
-0.002900071363540268 
-0.01000592366930655 
0.02431569895127121 
-0.01835586726369619 
-0.003616911527553449 
-0.005960216778962693 
-0.01889256785415568 
-0.001600388890122096 
0.007350425347943159 
0.001167138157389068 
-0.01163142042357567 
0.02580543305393026 
0.00298230261427127 
-0.002445379556584927 
-0.00145538527560799 
0.004710379426739618 
-0.0003225981659667763 
0.004925540866630535 
0.003844244641023815 
4.816819459733059e-05 
-0.003531060732849761 
0.007235869768663507 
-4.114227775543326e-05 
-0.0094276165957066 
-0.01097932731385565 
-0.0002761786856477897 
0.007665908094104655 
0.0009770288048922108 
0.01176092079046062 
0.0004974223396926163 
-0.009768692910379165 
0.003143150503316536 
-0.001682982339907814 
-0.003898971529937059 
-0.003743387672489462 
-0.001820844272876253 
-0.008397390179228865 
0.01303737103737186 
-0.00830904333370951 
-0.008926181399955997 
0.006115122044587304 
0.01224328074023272 
0.001660625565703426 
-0.006315513853383998 
0.008556007204765972 
-0.01794267448663629 
0.00314523663692767 
-0.01697265294590895 
-0.01210739702672689 
0.003785299067101044 
0.003357461438418204 
0.01907783943508358 
-0.001536183783716499 
-0.01351737175733858 
-0.01603458110678127 
0.004780043730939908 
0.00984960329518839 
-0.001749358375278822 
-0.01781731262121038 
-0.02263238398518494 
-0.02636238148132169 
-0.002685006489533002 
0.0196220046058453 
-0.01178894515374338 
-0.00771364956119925 
-0.01368226035996919 
-0.001542147436546224 
0.00802643424543919 
-0.005071433359108139 
0.001624495120484737 
0.01489113010584648 
-0.00753805689205387 
-0.003899105562809872 
-0.01602993842170221 
0.01691705138477302 
-0.009371985561457481 
-0.008970851456198491 
0.01232683327959671 
-0.009759149561022341 
-0.00839355581920182 
-0.01153569749327201 
5.609858335781459e-05 
0.02208363551132954 
0.008246203330028901 
-0.007615096178990774 
-0.0004122110638428217 
-0.007587755668166238 
-0.0006430673310278512 
0.00423464907777684 
-0.004441900751699657 
0.01252370982266614 
0.01136474010785193 
-0.002587307037373765 
0.00360020121510336 
-0.008081173884201905 
0.001759133245147982 
-0.01753792109704745 
0.009188718869233994 
-0.02018568481341471 
-0.007273959839317136 
0.01202160059794024 
-0.01194679647668521 
-0.007473187197675803 
-0.002784918113782258 
0.001398242244907011 
0.001628065519849971 
0.03238071796705664 
0.00338690132847655 
-0.01905444409721036 
-0.01391364363388871 
-0.01291994476046573 
-0.01305103021319186 
-0.01400837250727205 
-0.01378064612792876 
0.01314951796715699 
0.0006250700515186717 
-0.008048772467175716 
-0.01899353467549706 
-0.01251746743813687 
-0.01124204777489316 
-0.02190013682576603 
-0.003543657842861803 
0.03546161928680504 
-0.003775837129758801 
-0.001103623670733639 
-0.008871072900507168 
-0.01888971472046698 
-0.01790529139122649 
-0.01661444437259047 
0.01603989798684722 
0.01672030393607738 
-0.02174564723250959 
-0.01160014041457918 
-0.02191501626233676 
-0.02428611086197381 
-0.00627357444761799 
-0.00151087778089594 
-0.01151978879086837 
0.03939201109033354 
-0.0207814953927561 
-0.01647754088072975 
-0.01892909721685006 
-0.01990246995743229 
-0.01859965241168244 
-0.01466479101441081 
0.0312960400815435 
0.02630094735491153 
-0.01889160828426712 
-0.01657149417983903 
-0.01528413885139192 
-0.02894915527159849 
-0.005811516969408004 
-0.01356589404490441 
-0.007046227624423359 
0.01998200410338189 
-0.02433262950187446 
-0.01155062775861341 
-0.01560190486159072 
-0.02611632041351641 
-0.01412960279082799 
-0.02633140414696647 
0.01961040340137011 
0.01620196487331366 
-0.02786140897689485 
-0.01082098553249633 
-0.03032924424679208 
-0.03119526383398667 
-0.005462732770685052 
-0.01235176732101776 
0.01144272105137651 
0.0009803751558617778 
-0.002274038607283927 
-0.01165747098789541 
-0.01359451769071762 
-0.02633056791263504 
-0.03005584638621833 
-0.01527097854683224 
-0.005479420627993693 
0.003046221455675422 
-0.01389585504706513 
-0.01271936185325148 
-0.01946287204149097 
-0.02339443565414212 
-0.004869273389157452 
0.007199133157363107 
0.0344664493839052 
-0.008876973240134312 
-0.002971494007904921 
-0.0111869125248355 
-0.01984749055412026 
-0.02918074639765142 
-0.01700304533472403 
-0.01924410397788477 
0.006707255194373049 
0.02207808667154509 
-0.002411521470186765 
-0.01426125535708733 
-0.007481417483709654 
-0.02966135132899222 
-0.005130922503024844 
-0.008653060346705037 
0.03025547651619311 
-0.02113777328659667 
-0.003058707580150975 
-0.005222246349721642 
-0.02249642596918768 
-0.01802300241548139 
-0.00520264814261241 
-0.0186010916100228 
-0.0001981075708535497 
0.027273097315438 
-0.008393886972072972 
-0.001810773860838959 
-0.0006194558770849569 
-0.02553786338312799 
-0.01073982938078746 
-0.01925657339338285 
0.0003173657483985483 
-0.03465002262240746 
-0.007118045121109804 
-0.001565959469748756 
-0.01064394956215571 
-0.006424089510852447 
-0.0099829723483405 
-0.02396774186667344 
0.0105767036692392 
0.02528954299666797 
0.008042505217801475 
-0.005751657247644047 
-0.01140492898921142 
-0.01350070296162822 
-0.0233192485416473 
-0.02113014975264349 
0.004242419104182542 
-0.04203827192173497 
-0.0008322878186542849 
0.005162098359781498 
0.007104813401781734 
-0.01087945218748725 
-0.01250932825680378 
-0.01215708368161527 
0.01269482412719548 
0.03136560912826288 
-0.008064695620039961 
-0.006117123889766461 
-0.01841697520177994 
-0.0223307713504242 
-0.00794660872996278 
0.003455529050883635 
0.01274519136542401 
-0.01704156455266078 
0.0009457562664174055 
-6.028152467809415e-05 
-0.01664980946822446 
-0.01802356152751811 
-0.00842166583266904 
-0.001859120405363112 
0.0139125099195065 
0.0187876667454049 
-0.01347964092210324 
-0.007195506295181467 
-0.01537103215222024 
-0.02000321570096084 
0.0002217682402865702 
0.01386675920949505 
0.008788667306698179 
-0.002904301390006271 
0.01318188786700362 
0.005646341466177335 
-0.01763810985034573 
0.005085739061356774 
0.005953484798986768 
-0.005162434468180451 
0.01603251570917913 
0.001159918637477077 
-0.009054751510245679 
-0.009449384559187462 
0.01602659817077446 
-0.006293990000306584 
-0.01131091563048168 
-0.01298029787368667 
-0.005883732623181233 
0.003049532291540269 
-0.003379328858146612 
0.00597467594099171 
-0.008385325992987617 
-0.002470473455193583 
0.004543101202470395 
-0.006465869484273264 
0.007818509027440513 
-0.007242455199838919 
-0.01422608871657164 
-0.0130188342329927 
0.007768477901904706 
0.001360081924393013 
-0.006435106220540605 
0.006830457863263748 
0.003066290570346662 
-0.00549103109167509 
0.003492199596836278 
0.009710987094941115 
-0.02596652196322095 
0.01212128950337855 
-0.009420269454459635 
-0.01291803741909706 
0.003002772056014166 
0.002869176829226636 
0.0005935087418937599 
-0.009029776203009293 
-0.02275975077089239 
-0.01413947613558188 
-0.0006592740416987932 
-0.0003282071263495715 
-0.01285770674160852 
0.000213656642687077 
-0.01363743277080194 
-0.01463936190580438 
0.01156654159859634 
0.001979629744306423 
-0.006436516258713815 
-0.01404108582634394 
0.009388897204107304 
0.01370836980388119 
0.00358880825592481 
0.0007117511598096566 
-0.005084415168844785 
0.004098625219908562 
-0.002580890721248929 
0.003105154597083802 
-0.002614586083154366 
-0.005730310367958687 
-0.02173648746077366 
-0.01389056330324341 
0.00782333790333394 
-0.01926717325330706 
-0.01028140703977302 
-0.009060322923878634 
0.01608453476067558 
0.01863594962345635 
0.01912112722243254 
0.005459491033576958 
-4.500194293537687e-05 
-0.009654337772095387 
0.002340265804945474 
0.003658689039556584 
-0.01442297758629501 
0.002415641792498446 
-0.01017886973284409 
0.0008165994833635341 
-0.007578279127135295 
-0.01705893389952203 
-0.008202481759667646 
-0.006680010581625464 
0.02220754350801976 
0.01077852599743848 
0.006303056465276144 
-0.004927476784077288 
-0.005500413491535059 
0.001910047084700469 
-0.0117822879154237 
-0.0008292468938457198 
-0.006165569408262788 
0.006464278844376172 
0.002340299295519145 
-0.01289298810747573 
-0.0148675124430769 
-0.01268414395515325 
0.003804484364035754 
-0.006578518571933143 
0.008677247467872766 
-0.03018188945907566 
-0.005320597666112307 
-0.01085626013858476 
-0.0157752739548512 
-0.004001797121304317 
-0.01663973585772948 
-0.006242680914161731 
0.009432844675623995 
0.02739920871905048 
-0.01767208126635537 
0.007384421151792987 
-0.006312147086073818 
-0.02506894276193277 
-0.0116643706967141 
-0.01632511928593838 
0.006486826735628763 
0.01092911380664443 
-0.006684053535349033 
-0.009007824066087047 
-0.008061773417925749 
-0.01466276737675138 
-0.00946054879503681 
-0.008263327573292312 
0.01275093982080516 
0.03977517813442676 
-0.01759097728180483 
-0.009742305177936322 
-0.01459182264156789 
-0.009492786893328997 
-0.008337004438341135 
-0.02119763885624183 
-0.00791502904726326 
0.01142540284667887 
-0.0266907225690622 
-0.01423094849018485 
-0.02634915078848539 
-0.01589796089290252 
-0.007268281393139614 
-0.003855428157951301 
0.02296462887333942 
0.04418863991201764 
-0.01933944411327411 
-0.005079454357371898 
-0.02005322618461863 
-0.010943861986112 
-0.009862050904613109 
-0.003737309378579483 
-0.01731007167828729 
-0.0005843570152550398 
-0.01513215002311913 
-0.0142031665972404 
-0.01911508754554604 
-0.01291994542027248 
0.004582653490582496 
0.002268150187865005 
0.03118011799969252 
-0.007859019159094208 
0.01030734478360811 
0.009839342422749418 
-2.277244725935226e-05 
-0.01212431809800539 
0.00381045333302292 
-0.006520523538557731 
0.001679572979005001 
0.005273507841833925 
-0.01033230610493099 
-0.01690326268022086 
-0.007380717655752118 
-0.007587777136091056 
0.003784469242645791 
0.0001590563595093845 
-0.002786338959761481 
0.0006084127424598979 
0.008019313999385056 
-0.008058929170974444 
-0.002985575749312514 
-0.0139864216750935 
-0.009450885189540185 
-0.01245163660254923 
0.02199510359980667 
0.01599476801956518 
-0.01690799087970701 
-0.0183453476715581 
-0.001288009625225014 
-0.01180184257481126 
-0.01126916087166251 
-0.01982857341932503 
0.01301809152086408 
-0.007505164471612768 
-0.006305643766683325 
-0.001942155317041758 
-0.01524955143699144 
-0.02148375860917582 
-0.01469181496606014 
-0.001898060909745804 
0.01077389044937376 
0.009198670491362136 
-0.01546566435931087 
-0.006876542458715761 
-0.01379644870089336 
-0.007212657886471969 
-0.004164254598586422 
-0.01224623128491019 
0.0008789646424380142 
-0.00419346548254144 
-0.006939435572252069 
-0.007773364170059188 
-0.02336832935930228 
-0.01136279604068626 
-0.0005031183334070482 
-0.0191453933376577 
-0.001395754106632607 
0.0102290053277995 
0.008089827095132543 
0.0001334859204112967 
-0.005958582285445998 
-0.01004266268628921 
-0.01073410959491831 
-0.007269310506533346 
-0.000128052019759509 
-0.006096506197512409 
-0.01268585625227827 
-0.003161704479594315 
-0.002196571133815127 
-0.005772048825339253 
0.0008634356698785421 
-0.01529870711345369 
-0.000771283800832925 
0.04018810290084719 
0.008395043338926779 
0.005533157314102372 
0.00311705187201438 
0.001453232700034831 
0.006882476911477841 
0.004822262290009745 
0.02137779105302498 
-0.03636081956199725 
-0.001712830154464922 
0.003932385749995151 
0.002024414698928064 
0.007128939289431646 
-0.003893003879046614 
-0.001627118122691433 
0.02755502432845685 
0.02141371176351642 
-0.008214995380997039 
-0.003798929460064882 
-0.008406492507601717 
-0.01089087152380354 
0.002581990419656131 
0.0005991450272897648 
0.006752566822120738 
-0.03525043147952631 
-0.007373129430103377 
0.01328680681050094 
0.01492597197719164 
-0.009895577718784755 
0.007694468782055941 
-0.005270861522425312 
0.01076439002225246 
0.02214612767990281 
-0.01114468770689048 
-0.01820517660039944 
0.01275553686705942 
0.009144088554342612 
-0.02142174577797826 
-0.01461958922194584 
0.006969838488991191 
-0.003260691789316896 
0.001253106697794363 
0.0003566812000329153 
0.003579931330587966 
-0.007324451262520269 
-0.003932274680496872 
0.001742098107144994 
0.007853382785807965 
0.0104406135566907 
-0.005249273365442295 
-0.0155854072769539 
0.01109061512847756 
-0.0002680118129871212 
-0.02089918570554491 
-0.006843624230383582 
0.002618874122805489 
0.01292143469216229 
0.002749596265116173 
0.00271063677654349 
-0.01452596987296434 
0.002030062628398239 
-0.01590610192662618 
-0.00904160666223657 
0.005475779214901368 
0.0009855523795129471 
-0.009783331361919723 
-0.01627749133165445 
-0.02194767974908574 
-0.02937218887990289 
-0.004916568817093813 
-0.004085946924649383 
0.002779234928245268 
0.01012759828125006 
-0.005273954816209931 
-0.01144961440946279 
0.01577069697440384 
0.01460781317484709 
-0.01246825590912973 
-0.001327685934619539 
0.01051809035219809 
-0.001256462732967107 
-0.003101421284519103 
-0.0123077607041503 
-0.004619263246055746 
-0.004681014402575295 
0.004106135848710422 
0.003114458433544702 
0.006753032817263714 
0.006729208641930181 
-0.01652845117843022 
-0.0106457810405461 
-0.002353001384000727 
-0.008572819520935063 
0.005990232130236711 
0.000191337860550741 
0.01851566239519164 
0.01011741169245117 
0.008927875606642186 
-0.004128190517933193 
-0.008384453699779873 
-0.009423605702629369 
0.001330254613437897 
0.009382510769047123 
-0.0002297176235524645 
0.01113877069387481 
-0.0008684997858018339 
0.001117443977647993 
-0.01878846852059562 
-0.01468563732907003 
0.002025858227313776 
-0.00186893111600916 
0.009858081735769551 
0.0001503528156517364 
0.01092367366576172 
-0.004633578968265332 
-0.01389635995702075 
-0.006391550326427745 
-0.006424660044449968 
0.01661172064631434 
-0.0007783625443003914 
0.01665561560132257 
-0.009881526567183618 
-0.01560054641011737 
-0.02053717923727183 
-0.009942297529061532 
-0.0006962264791675746 
-0.003839044079661202 
0.0178048757027263 
0.01877751853182192 
0.0009894051323578921 
-0.01294663458265827 
-0.01672168998734728 
-0.01205267365949474 
-0.01169458580234807 
-0.003668714962108475 
-0.00527925848010607 
0.02125832414783883 
-0.007076233898547802 
-0.009676152115368285 
-0.003951067599041698 
-0.0223151871334575 
-0.002881649806065668 
-0.01191989702521899 
0.01793736812627804 
-0.00262393783086169 
-0.00664867747398962 
-0.0109475944904014 
-0.003988304417571016 
-0.009406968713658257 
-0.01461095611789588 
0.007802104361703256 
-0.00329755286354252 
0.01919163864033384 
-0.01157789771337052 
0.0005643174319353772 
-0.001534561497803156 
-0.01911003144038846 
0.001757361110803769 
0.0004438617768477861 
0.02047144505544899 
-0.0016370862858189 
-0.01681502860957576 
-0.007282205047539843 
-0.01456214943915674 
-0.02104824720801884 
-0.00890889931611322 
0.005720063109416515 
0.003843594478487655 
0.02668864138681476 
-0.01207701984272512 
-0.01062969224639727 
-0.006350160302760632 
-0.01523859067181808 
-0.001032102988255293 
-0.006377816269879737 
0.003366320534005574 
-0.03051232241213572 
-0.01002486967024218 
-0.01207423309629283 
-0.01381982313510123 
-0.01757854488592536 
-0.006463488844941388 
-0.005027166973391882 
0.0111280281138287 
0.01796474166107636 
-0.004426779438168059 
0.007891706158795571 
-0.00147587046450451 
-0.02267283832410156 
0.0003688233969531174 
-0.002665704266026484 
-0.01578576955216749 
-0.002415955879978553 
-0.02828754522372089 
-0.01158726876435769 
-0.001246937248535382 
-0.00173430142337169 
-0.008748017397947144 
0.004225501660147291 
0.00585082138867381 
-0.002581528122235404 
0.02214120150542372 
0.008441833891747862 
0.004276731340064415 
-0.01335297779930429 
-0.001546585326551809 
-0.02157542709775749 
-0.01216399702675725 
-0.008813418006983209 
-0.01279904234753238 
0.002342857819830967 
0.003645346436583323 
-0.00323755671139719 
-0.002866975741349078 
-0.009618596054301277 
-5.06694588688644e-05 
0.01845034147592177 
0.002398009560208991 
-0.002499392897923336 
-0.01866947534841704 
-0.01432385574677188 
-0.002907254125227193 
-0.01910815221137917 
-0.005139014498514139 
0.002739142412629724 
-0.007191543672917089 
-0.01680093342591802 
-0.01774848026868009 
-0.01892059339301936 
-0.01743969328348543 
-0.009426592466840637 
-0.0004606276838819455 
0.009097362202313847 
0.000774107056059029 
0.002676444228727602 
-0.009045643115021314 
-0.005234699062774502 
0.005098066179681528 
-0.008349122341300686 
-0.007617820338779612 
-0.0008836440059267901 
-0.004926924931841029 
-0.01178899758405069 
-0.01108419360635271 
-0.02391045242163528 
-0.009936523681963325 
-0.01648359996753418 
0.02791354965968555 
0.01196720728176053 
-0.009951824623147013 
-0.002974576590092809 
-0.004445273746175925 
-0.001453138142949564 
0.01429370905626554 
-0.005054094502981649 
-0.006856190051047226 
-0.005160839796444281 
0.00160193249989848 
-0.002272768939443142 
-0.005259485560588432 
0.008663321720729915 
0.003838663902848046 
0.01810214008078953 
0.01086466364996155 
-0.02038040380369828 
-0.005631660550384096 
0.005964227520011748 
0.003311143171363247 
-0.007283713149054885 
0.00652869007544396 
-0.00107510079752039 
-0.008427711612693121 
0.01647635270723179 
-0.0008347788452316873 
-0.002467827774766514 
-0.01490932926872793 
-0.01351826044087431 
-0.008214249783076553 
-0.01032804613695714 
0.0153986058724546 
0.007448754532592915 
0.006904543456316123 
-0.0116502769770841 
-0.01052904919220523 
-0.001220888500220157 
-0.000249383271013673 
-0.003934020197516095 
0.008086047920919881 
0.0141530627801128 
-0.01125062364426142 
-0.01175553122093911 
0.02305399431514768 
0.0054028053847641 
-0.02539448025275414 
-0.0116782679627962 
0.005873870070284476 
-0.02413745306187828 
0.005814701212935968 
0.008201675487689172 
-0.001008979911566321 
-0.00246461900165881 
0.0003450558462209678 
-0.005566309331578595 
0.01222736991070921 
0.002457512531545814 
-0.0122949136448795 
-0.008038791195322359 
0.02168213584174947 
0.01390879873720006 
-0.002387027252762298 
-0.004039963116441185 
0.0020914659229835 
0.01528005701032574 
-0.01127128631268763 
-0.009640202413096011 
-0.01512433689209999 
0.005583926258562789 
-0.009756137333304724 
-0.01569128099214433 
2.591097894571177e-05 
0.008300188049661815 
-0.00338537890319971 
-0.004367466050536099 
-0.01238831205365112 
-0.01816763077118052 
-0.003699380032673975 
-0.01113944194935878 
-0.00177852218584922 
-0.007179333814251955 
-0.0013566137871047 
-0.01362330634698332 
0.007558680294896127 
0.01517277687108113 
-0.02056714321574318 
-0.004900657878753124 
-0.002910379270788374 
0.01947482211506771 
-0.003837453977614442 
-0.003008331982943861 
-0.01613647525745266 
0.00670089863844173 
0.003165647318833698 
0.01716467343095977 
-0.001207396027683107 
-0.01812589822278934 
-0.01347129479028479 
-0.02205900236676646 
0.01814051043268117 
-0.009162521389312339 
-0.002875877359344912 
0.007566476251160358 
0.01129478512450327 
-0.001303837361777144 
0.009926874959170379 
-0.01450552389065475 
-0.01696894912890652 
0.001310348276892844 
0.0009536370340257777 
0.003758411359344459 
0.009405895245542077 
0.008855965032556245 
-0.007366237750722458 
-0.0006989440188193255 
0.0003580409537541576 
-0.01344691436640039 
-0.006985037216173916 
-0.001383719005155841 
-0.003502348088152524 
0.007818136331454197 
0.005795468052179236 
0.005074880486609583 
-0.008536329343329072 
0.01126763826731394 
0.004336805052961975 
-0.001468185429941899 
0.01255469344300798 
-0.004512323413233418 
-0.006593159096768722 
-0.001712683060918473 
-0.008885689627788974 
-0.01441914875932439 
0.004688886689158692 
-0.006446410479710885 
0.001269043681307735 
0.01173135332983694 
0.01782953065149019 
0.003163496356097763 
-0.007397213856432181 
0.001047763187192307 
-0.01683455328527738 
-0.008855929067567242 
0.001119982093662492 
0.01668359768735502 
0.000698358941729326 
-0.0106015394108568 
-0.004464554958416952 
-0.01077936936760527 
-0.01574191814034438 
-0.008265690718653249 
-0.001362592790608132 
0.008571842654152232 
-0.001683184111155248 
-0.006192344557002744 
-0.001796521438385195 
0.01222086766549557 
-0.009918587740910739 
0.007984395957056311 
0.01204366572922477 
0.003700450162429069 
-0.002207055339449819 
0.01242685028268915 
-0.0006241097699307703 
-0.007699430486232586 
-0.01143311474008035 
-0.002742702408846398 
-0.01503334256414466 
0.001329033223870405 
0.003573621082400287 
-0.008677933936172612 
-0.01584670438259818 
-0.007642993264076158 
-0.01002413564858034 
-0.006299557518471954 
0.01285347747594053 
-0.007887998080323281 
-0.003719901782637858 
-0.006572569507065122 
0.006662160631282283 
-0.005545648014469637 
-0.00918269915005052 
0.001375986316797076 
-0.0007373250833201729 
-0.01363952659320355 
0.003034774733660181 
-0.00575323925151004 
-0.007321083543330853 
-0.009435512444736583 
-0.00952281647474173 
-0.02078729792127358 
-0.0002652882087878253 
0.02457051034237312 
-0.01171940188728182 
-0.001893430116986109 
0.001690628817008865 
-0.01701598167470368 
-0.004239217573892761 
-0.01198696358966984 
-0.02032770380973757 
-0.01195399430443299 
-0.001305443096865526 
-0.008149584489383391 
-0.002475844714551085 
-0.005453591449462453 
-0.001245973768154905 
0.007769392159898215 
0.02307861921220791 
0.00487980621421591 
0.01128649949484291 
-0.000283655197842282 
0.003923810473753487 
0.0005146171367191256 
0.01274641538145861 
0.001617200024447151 
-0.01218000149861965 
-0.01102758425472783 
-0.01230433388849539 
-0.001901629381690268 
-0.02371747222479721 
0.001200356861183 
-0.01517965348958298 
-0.005194738098068002 
0.003492251665545665 
0.00791807330439348 
-0.01301628484952512 
-0.00721697566816916 
-0.002474526838584832 
-0.004913255419522255 
0.004507253235146906 
-0.007837199682648854 
-0.003346314584588178 
-0.005829393258980014 
-0.005010317310019968 
-0.007691428382229863 
-0.01107675590607807 
-0.002592783259369508 
-0.01494671126331108 
-0.004131831489179306 
0.006148627782013686 
0.007543185409504787 
-0.004484174855668938 
-0.01435989306361595 
-0.01579543525822103 
-0.002302936586950929 
0.0194293125089713 
-0.006047651501765252 
-0.01284982720705677 
-0.01035133595686578 
-0.007217607433047487 
-0.003296351771009434 
-0.01131026154787058 
-0.002932795317063643 
-0.01805900671078214 
0.002165389801851528 
0.01048535573595679 
0.001498817273361276 
-0.004855727152355672 
-0.001678561358850381 
-0.0003934924751615896 
-0.01260865457615886 
0.01425307982710297 
-0.01510619231142451 
-0.02114786504782043 
-0.0001196024768156044 
-0.003978173652992262 
-0.009353443084258534 
-0.01191175090959223 
-0.01443162256795792 
-0.01862204794510259 
0.002492823853562829 
0.01299406681406572 
0.03965388212059601 
0.002093397016512213 
0.006581199682617192 
0.001105108112553854 
-0.01315102136218968 
0.0123648048351695 
-0.005015187723826864 
0.0045510702241748 
0.004753390558334128 
-0.01321056691074161 
-0.003422639484274727 
-0.01004333283108253 
-0.009889762139120625 
-0.01278137980906465 
-0.004526785088229821 
0.01918814139142082 
0.01759180445563709 
0.001413384695480416 
-0.002500690258863228 
-0.007362242664837047 
-0.008004965527697323 
-0.01866353574427759 
-0.002903610328276681 
0.001558147917575945 
-0.006104027053001078 
-0.01394550511583851 
-0.01474974572637314 
0.01312857442583243 
0.02109859076957668 
-0.009078507833208885 
-0.008161104077278993 
0.001568173470740904 
0.01332107321128818 
-0.007150398196659611 
-8.062648040002637e-05 
0.002935554029749867 
-0.02271251107807869 
0.004836109268430456 
-0.004172986554820651 
6.851277597487912e-05 
-0.002057753069507749 
-0.00580108732679695 
-0.004062006713491769 
0.01985395264958515 
0.02913652270283857 
-0.01800720363069618 
-0.01212172271405586 
0.009043475466594182 
0.008385016297523262 
-0.005108033463279487 
0.00183180974511623 
-0.02363483182882363 
0.007664066550047765 
-0.01303890658393071 
-0.01388288415627707 
-0.002673956097023453 
0.01013648509924106 
-0.0002684382532823154 
-0.003233649440836663 
-0.01762667780204527 
-0.02344252550583627 
-0.002807515222991881 
-0.005068053345360424 
0.01636709319527197 
0.01067078810869851 
-0.01366002254661734 
-0.02208311022489919 
0.007788916643974186 
0.02572687234396239 
-0.01604499647797727 
-0.01271771531611094 
-0.001596093541413148 
-0.00172877255741652 
0.007243088050869929 
0.0002355877953030102 
-0.007694166069011835 
0.007403917939564489 
0.002934140930152423 
0.01000577308593307 
0.001466784384154807 
-0.01461367934253169 
-0.001835441219720992 
-0.01161075210622496 
0.01782261399110929 
0.004272977675554137 
-0.006896484099585008 
-0.008330837536344062 
0.003286477666348765 
0.01658442524576291 
0.01356401529616264 
0.01245916141185561 
-3.490503631740757e-06 
0.01401974989001923 
-0.001219422123830693 
0.005042208137987801 
0.001363067943307727 
-0.0293137107361774 
-0.008600832380033788 
-0.003362661408257613 
-0.003197077579983147 
-0.003319015097825377 
0.000893866311962635 
0.0008120543032007246 
-0.006148967908986953 
0.004783022344355915 
0.01785253730887021 
-0.005777367250295182 
0.007418789778984278 
0.003924803485511558 
0.0003637525825994961 
-0.003161542261731151 
-0.0092605347633414 
-0.009335067061862891 
-0.0001762824923692816 
0.004994638861355233 
-0.001508290206137962 
-0.006792080950336316 
0.00408594736210386 
0.009591182334745461 
-0.003798527226866461 
0.008237532655088191 
0.005035293563248745 
-0.01033818596699805 
-0.008642084075744945 
0.01210598725862286 
0.0005506149124751455 
0.006752275372853814 
0.005586087989871947 
-0.008404924091793517 
-0.003873919725418924 
0.0154121207251492 
-0.001713742848549566 
-0.01522753952068262 
0.006264833548649635 
0.0042186118085295 
0.02348140082996159 
0.02128879841298725 
0.01417062222546068 
-0.005059407232308633 
-0.00360497701874746 
0.01032554576374396 
-0.006451775866422909 
-0.001189006480351069 
-0.006147231731394463 
-0.01432121939080849 
-0.00701961122326692 
0.004634508941445379 
-0.007656906908238354 
-0.0108291734182056 
0.006430776919029381 
0.01050397154025894 
0.01432855007613124 
0.005817459508737148 
0.01200269023377011 
-0.01499305786875239 
-0.001739613802647777 
0.0002053070513014612 
0.00450754057634811 
0.003915271320291782 
-0.004497075570045639 
-0.02356700278177964 
-0.01119510949688894 
0.0110961072666703 
0.008225134088418594 
-0.006893421746611425 
0.004514703780147461 
-0.006266684500663381 
0.008297637877941185 
-0.0003948725250173339 
0.002589227856221292 
0.004555745952408632 
-0.0005353188043111884 
0.006664817588140358 
-0.00925799105103715 
0.014123340783756 
-0.009479135965893013 
-0.01350941178226655 
-0.01387783090438791 
0.002572579003661575 
-0.004543874744989622 
-0.01264464266658795 
0.001602079431191839 
0.002699819330520938 
0.003793484959537022 
-0.02180219892127606 
0.009891219077330104 
-0.0008647576120605684 
-0.000572886559934021 
0.007451691329985567 
0.006026622895638415 
0.009526103378344699 
-0.0008743562260543473 
-0.02366817007442105 
-0.001634156215296899 
0.009746095789878574 
0.004170777414746774 
0.00255276229611204 
0.01422652048730453 
0.009911436991182179 
-0.01221348861254363 
-0.01066009175708645 
-0.0005461568562712176 
-0.0004558720831065582 
-0.004479186555564658 
-0.005347571273085771 
-0.01730174399670864 
-0.007358265619226505 
0.006184481188603735 
0.006589184453144777 
0.003117169950716226 
0.007571933752308092 
0.00714936969220813 
-0.01507040590689955 
0.009150435287892647 
-0.01004061803644714 
-0.001185079843675945 
-0.0006811722953195337 
0.004453431777014513 
-0.002481059876359049 
-0.002325351110291046 
0.002585521549837186 
0.00320195413910294 
0.000856877452860769 
0.00321838613294601 
0.004166259897189552 
0.008165279232995221 
0.006368916851755899 
-0.001001342422925756 
0.005522622054596666 
0.01873321273452691 
0.001342850662602049 
0.01234564070767918 
-0.002419117328649939 
0.00848734175010039 
-0.002688290287238707 
-0.0112460233079873 
-0.001100111370127471 
-0.006525222882034541 
-0.001413008833961179 
0.007837522683485759 
-0.006727330298343838 
-0.00576239891514611 
-0.006278195914647788 
-0.008159957009035056 
0.003840738273207118 
0.01378171970448314 
0.0009589149818401629 
0.005264365257770739 
0.02319314121091585 
0.01560583877442645 
0.001392450661931258 
-0.01047863623983469 
-0.0134285280487742 
-0.002168083521689565 
-0.008373500781838881 
0.01656189246396802 
-0.002411072921482911 
-0.003644526077255188 
0.006508228679874235 
0.001385747664737592 
-0.005025233079520013 
0.002018054793830969 
0.001689063353337136 
0.008155536404642066 
0.003096256366423189 
0.01051537909660619 
-0.004825690511484477 
0.001170332189851312 
-0.004719497020063948 
0.007988654572689593 
0.02425701154506352 
0.01049414918875832 
0.008516138069676245 
0.003988897796994919 
0.001121897302438907 
-0.001800206848767623 
-0.001159055279494347 
0.01160281956883526 
0.0005963464935786252 
0.01022327097740607 
-0.003036957971142507 
-0.01371867098336648 
-0.02038648952985994 
0.02015673230239987 
0.02068970462499546 
-0.01171958628489326 
-0.01046732594215898 
0.01425292301256036 
0.01700918549646046 
-0.001715101330110152 
0.00585050719286 
0.007924609803591326 
-0.01727258291169245 
0.01098001380793111 
-0.003495126596042062 
-0.003249318938082993 
-0.003829441968073007 
-0.008232221613745233 
-0.009130876290407703 
0.02795806666237591 
0.004575229481617247 
-0.01205495248875351 
-0.004512562001134341 
0.002124550704654656 
0.01957686102253516 
-0.003033490361106417 
0.001825822762759395 
-0.02023792272126258 
0.01749240713933712 
-0.003347641584973782 
-0.007945572285981622 
-0.005585524522034722 
-0.005485379786155973 
0.002853161814093781 
-0.002994892497786023 
-0.009422421902302554 
-0.008989038022484599 
-0.003713278028195624 
-0.005266644557042185 
0.01003597280604853 
-0.01331491661874759 
-0.02224477084183383 
-0.02891727875227261 
0.01854513070189243 
0.04124120741162792 
0.0001855068523472865 
-0.004761161745271951 
-0.01003914564681454 
0.001881965458756244 
0.01904084238119081 
0.009703796103992898 
0.005743875883187011 
0.01657710589626619 
0.002895100945177541 
-0.004572215253462695 
0.003059808945700208 
-0.02110524349264557 
-0.01396759187544581 
-0.01680792845571124 
0.02759800612104959 
0.002354525907840512 
0.004661112162951564 
0.003777442575582066 
-0.006484688506675196 
0.01502476968426999 
0.02084320926400784 
0.01981931328721755 
0.01875690498211441 
0.01364087066591316 
0.0076016498060362 
0.002005456096279772 
0.01214675967144925 
0.001612567521734864 
0.0002821689700023557 
0.004579807260777688 
0.008554818587332246 
0.001006531946929541 
0.007934368926592262 
0.007416304631450089 
-0.01757827618847698 
0.02263734887791571 
0.02349053167705193 
0.01267911182998158 
0.008951917209617999 
0.00971521651528278 
-0.004012222187332753 
0.008173841279979261 
0.002519083300960256 
-0.005646599309275854 
-0.007668275138385965 
0.002080723647374768 
0.005629097178943023 
0.001617827379660834 
0.006490825832698872 
0.001730607682819801 
-0.0008740251126515415 
0.02076048122909038 
0.009694627349793221 
0.01351379208563868 
-0.01058709622220345 
0.01757607251511027 
-0.00555893513559778 
0.006786120941582279 
0.008448442756477374 
-0.002062589761639501 
-0.005158790784920797 
0.003604043452840367 
0.009775315385240426 
0.003225471159241008 
0.01951223645357742 
0.01276973300312132 
-0.003188924011321539 
0.002668885205849695 
0.005963040931862878 
0.001245769681305998 
0.00657028421580504 
0.01639424329623366 
-0.0009775337903594878 
0.01241296630131408 
0.009857240696181832 
-0.001201389247695131 
0.006598554079500178 
0.005998791247462627 
0.005537626396566811 
-0.004500422253862406 
0.008199637154311545 
0.005848259106459785 
0.002637969275793005 
0.002211835205202339 
0.01904188301919966 
-0.004310888574680434 
-0.01112775200133986 
0.006796906894258982 
-0.01488893830533851 
0.01126607544241435 
0.01458208478091613 
-0.001242277570828954 
0.000632794984643172 
0.01714643467663231 
0.005499668405199431 
-0.003540905924174497 
0.01016186307305086 
0.0008804823390136576 
0.002868547614660044 
0.02376699376678912 
0.01058614698404875 
0.0003756999834296275 
0.00297560266541174 
0.01249702376934938 
0.0003578596317446201 
0.003623616072489815 
-0.005624618936230048 
-0.01356892850604161 
0.005463013881567828 
0.001825449378551293 
-0.003278380025912443 
-0.005739819159776423 
0.02545134347860727 
0.008960150214874297 
0.006302482714135151 
0.02259528062919017 
0.01538927380826211 
0.01523542411023623 
0.003990655823893124 
0.01021006422958465 
0.001335146899973163 
-0.01117635272671202 
-0.02583640759824166 
-0.02619962557033394 
-0.01072905994782319 
0.004418285303294455 
0.007321103066179811 
0.003957171099560917 
0.01630611735949427 
0.002488027425904633 
-8.168328170109567e-05 
0.02064741435284765 
0.01290013613162114 
0.003640289227028088 
0.0007244299429129693 
0.001956159843258969 
-0.007455284724934823 
0.0008538854750348623 
-0.03361357801081027 
-0.008662194058774553 
-0.002346766437193977 
0.009736348337537068 
0.005289558404316256 
-0.0003559637780185051 
0.01512022252306699 
-0.0002702038552392213 
-0.001819206143184699 
0.0153549296716225 
0.001387964330768022 
0.0079360238935621 
0.007111163957451182 
0.006884283157256251 
0.002355436332611639 
0.01048336334778681 
-0.006775917841325579 
-0.007062857035280644 
-0.01482999569989929 
0.006991945290541536 
-0.001545597347645428 
0.009013497952060434 
0.005296356448913103 
0.01395394545864598 
-0.008562479952169881 
0.0157048934300653 
0.001427369505203514 
0.00226006101462145 
0.006117691666563319 
0.01655717423363546 
-0.002499346825622892 
-0.004511964392862022 
-0.02028475791080503 
0.006646439495167408 
0.001304689443699006 
0.008277976263585441 
0.01151837479429201 
0.005637351052845776 
0.002243990780621335 
0.01360193269530754 
0.008075074654700752 
0.0124950153282917 
-0.002631550208169563 
0.004678041738869545 
0.003265490203375674 
-0.003154969017215676 
0.002002596533670013 
0.006287053479435374 
0.004697796969102908 
-0.009615258585100634 
0.01393685300505395 
0.01906584727164105 
0.0217528770894699 
0.002797570325174682 
0.01406738261911636 
0.01889822569643397 
0.01216561184169339 
0.02459919137451506 
0.01113156132543326 
0.0114952643228623 
0.009835847363325574 
0.001298071062083067 
0.00275745305047709 
0.01201938387809714 
0.0003278140689527318 
0.006638166397137154 
0.01591957097224802 
-0.01241588147983833 
0.01175177753791973 
0.0172929255882413 
0.02275254245082577 
0.02283646470052766 
0.00728813754196772 
0.007016491095432224 
0.006335007656192109 
-0.002622471174738914 
0.03986605318464358 
0.01368116022250943 
-0.007245308407407448 
-0.01784638453120575 
-0.01654040696593272 
-0.0062524574649412 
-0.003953648719924235 
0.01305950264171654 
0.0137544494766271 
-0.009978012356796137 
0.002930599399963916 
-0.002411497044058166 
-0.001884863497788001 
-0.00444908897540997 
-0.006394688216392226 
0.001210660872528685 
0.03681253332894322 
0.0517993680664529 
-0.01487717166651183 
-0.0150938792081948 
-0.01641171630342361 
-0.0003331168999171251 
-0.0074574287233388 
0.000148156649008185 
0.001768980551438874 
