solver_type L2R_L2LOSS_SVC_DUAL
nr_class 2
label 1 2
nr_feature 123072
bias -1
w
0.0001259559770287556 
-0.0007114314437147071 
0 
-0.001229797768209336 
-0.0001259559770287556 
-0.0007114314437147071 
0.0002870018540300156 
-0.0008799439625079815 
0 
-0.001498568883056696 
-0.0002870018540300156 
-0.0008799439625079815 
0.0004161215560122903 
-0.0008504186666730872 
0 
-0.001507149929680581 
-0.0004161215560122903 
-0.0008504186666730872 
0.0002418029384132721 
-0.001696341749541662 
0 
-0.002641924006964125 
-0.0002418029384132721 
-0.001696341749541662 
0.000486717821068504 
-0.001259396624425255 
0 
-0.00207310025280269 
-0.000486717821068504 
-0.001259396624425255 
0.0006043266778553509 
-0.0006484900325084378 
0 
-0.001440528450558748 
-0.0006043266778553509 
-0.0006484900325084378 
0.0003509569604786756 
-0.001019565044492579 
0 
-0.001471986249310805 
-0.0003509569604786756 
-0.001019565044492579 
0.0004292422488627976 
-0.001283195011134395 
0 
-0.002109001633804546 
-0.0004292422488627976 
-0.001283195011134395 
0.0003727779680045652 
-0.0005532806829191047 
0 
-0.0008847981890417534 
-0.0003727779680045652 
-0.0005532806829191047 
-0.0001891485594829481 
-0.000261302094334203 
0 
-6.984562115379429e-05 
0.0001891485594829481 
-0.000261302094334203 
-0.000136755908909135 
-0.0002704364053952455 
0 
-0.0001857109948696506 
0.000136755908909135 
-0.0002704364053952455 
0.0004747254683839876 
-0.000499234126142091 
0 
-0.001064699190841963 
-0.0004747254683839876 
-0.000499234126142091 
0.0001545293193169354 
-0.001026001058127752 
0 
-0.00143831372888022 
-0.0001545293193169354 
-0.001026001058127752 
0.0004853086352777375 
-0.001040045474233345 
0 
-0.00175950615019002 
-0.0004853086352777375 
-0.001040045474233345 
0.0003011243633217818 
-0.0007469082098545999 
0 
-0.001139433490800733 
-0.0003011243633217818 
-0.0007469082098545999 
0.0003491090185686671 
0.001136551405290844 
0 
0.001816096670032504 
-0.0003491090185686671 
0.001136551405290844 
-0.0001851592503782734 
0.0004538934633272896 
0 
0.0009378448280356322 
0.0001851592503782734 
0.0004538934633272896 
-0.0007045477497190667 
0.0003222349669967048 
0 
0.00138913948860513 
0.0007045477497190667 
0.0003222349669967048 
0.0001545362003933605 
-0.0005259643088424183 
0 
-0.0008665993251878282 
-0.0001545362003933605 
-0.0005259643088424183 
-0.000308673049396316 
-0.001417288195824853 
0 
-0.001955060630186826 
0.000308673049396316 
-0.001417288195824853 
2.114042838104199e-05 
-0.0008497492393914053 
0 
-0.001083214820672112 
-2.114042838104199e-05 
-0.0008497492393914053 
-0.0003329834402664853 
0.0001268736406888344 
0 
0.0005295299485487075 
0.0003329834402664853 
0.0001268736406888344 
-0.0003298645295313659 
-0.0003122137483524024 
0 
1.96147149166359e-05 
0.0003298645295313659 
-0.0003122137483524024 
-8.77294065173043e-05 
-0.0005633762700469835 
0 
-0.0005387019179240416 
8.77294065173043e-05 
-0.0005633762700469835 
2.774128408920186e-05 
-3.423212932909796e-05 
0 
-6.136922019045857e-05 
-2.774128408920186e-05 
-3.423212932909796e-05 
-0.0005413819788299737 
1.199315200374153e-06 
0 
0.0006593397450485129 
0.0005413819788299737 
1.199315200374153e-06 
-0.0003448048439068347 
0.0002543854857182451 
0 
0.0007519094607207437 
0.0003448048439068347 
0.0002543854857182451 
0.0001385136747168216 
-0.0006086134177033095 
0 
-0.001017414648472967 
-0.0001385136747168216 
-0.0006086134177033095 
-0.0003168164729815508 
-0.0001740424180214477 
0 
-3.559974266294678e-06 
0.0003168164729815508 
-0.0001740424180214477 
-0.0005228265166305632 
0.0008208779583007184 
0 
0.001565380748541343 
0.0005228265166305632 
0.0008208779583007184 
-0.0001622618108224613 
-0.0006455091166526009 
0 
-0.0005456870825698081 
0.0001622618108224613 
-0.0006455091166526009 
-0.0003505993855717175 
0.001924699645632285 
0 
0.003321402696739446 
0.0003505993855717175 
0.001924699645632285 
0.0001464190385600505 
-0.0007398737440258167 
0 
-0.001164053659157809 
-0.0001464190385600505 
-0.0007398737440258167 
-0.0007392654740816692 
0.0003024115614852236 
0 
0.001374313955451712 
0.0007392654740816692 
0.0003024115614852236 
-0.0001453302851145846 
9.469141320143664e-05 
0 
0.0002495427086315212 
0.0001453302851145846 
9.469141320143664e-05 
-0.0006829283024260305 
-0.0006344037317109032 
0 
-0.0002906056732218515 
0.0006829283024260305 
-0.0006344037317109032 
-0.0001021484440089873 
-0.0006085520638698896 
0 
-0.0007126274419001316 
0.0001021484440089873 
-0.0006085520638698896 
-0.0006322881863188172 
0.0003818824537243468 
0 
0.001348464604455185 
0.0006322881863188172 
0.0003818824537243468 
-0.0002150641046590832 
-0.0003988830638543894 
0 
-0.0004113130172529971 
0.0002150641046590832 
-0.0003988830638543894 
4.607023607891554e-05 
-0.0005424326849828293 
0 
-0.0008586874727532126 
-4.607023607891554e-05 
-0.0005424326849828293 
-0.0001566860416416782 
0.0006607879478296454 
0 
0.001291952017465033 
0.0001566860416416782 
0.0006607879478296454 
-0.0003620658131691566 
-0.000200147171976044 
0 
0.0003190660752106228 
0.0003620658131691566 
-0.000200147171976044 
-0.001023735030132116 
0.001017691096372834 
0 
0.002447892730900563 
0.001023735030132116 
0.001017691096372834 
3.859183083032547e-05 
-7.577372870134027e-05 
0 
-0.000183663648075322 
-3.859183083032547e-05 
-7.577372870134027e-05 
-0.0006054169751685916 
0.000548017009328411 
0 
0.001357304100212846 
0.0006054169751685916 
0.000548017009328411 
-0.0004923403166236352 
0.0001187605984263896 
0 
0.0007758066881060138 
0.0004923403166236352 
0.0001187605984263896 
-0.0006127527550213853 
0.0002618545499739082 
0 
0.001014369985512784 
0.0006127527550213853 
0.0002618545499739082 
-0.0003142735138653119 
-0.000572564700531447 
0 
-0.0002409177525768713 
0.0003142735138653119 
-0.000572564700531447 
0.0001888151906694257 
-0.0006248876083340333 
0 
-0.001082723557403083 
-0.0001888151906694257 
-0.0006248876083340333 
-0.000829410009801779 
0.0004784535213337615 
0 
0.001740370847834855 
0.000829410009801779 
0.0004784535213337615 
-0.0001033772854577655 
-0.0001172211515870894 
0 
8.386930604273987e-06 
0.0001033772854577655 
-0.0001172211515870894 
-0.0005126730279043047 
-0.0008661270016800082 
0 
-0.0008346801999480575 
0.0005126730279043047 
-0.0008661270016800082 
0.0003750469861483291 
-0.00109349722330461 
0 
-0.001678727491006996 
-0.0003750469861483291 
-0.00109349722330461 
-0.0004235423128470305 
0.0005385826690612351 
0 
0.001117002524647911 
0.0004235423128470305 
0.0005385826690612351 
-5.779890862430836e-05 
-0.0003737282127060905 
0 
-0.000229129686919082 
5.779890862430836e-05 
-0.0003737282127060905 
0.0001989172286694134 
-0.0007276991827012849 
0 
-0.001182560868340793 
-0.0001989172286694134 
-0.0007276991827012849 
-0.000119878361899237 
0.0006897194974111278 
0 
0.0008859031351773343 
0.000119878361899237 
0.0006897194974111278 
-0.0003113766556746527 
-0.0003211076716846332 
0 
-0.0001298499053049349 
0.0003113766556746527 
-0.0003211076716846332 
-0.0006743787428863826 
0.0001319325552533886 
0 
0.0007252158468863347 
0.0006743787428863826 
0.0001319325552533886 
8.403180917474528e-05 
-0.0002830340845120813 
0 
-0.0004450042078225056 
-8.403180917474528e-05 
-0.0002830340845120813 
-0.0001558249108532218 
0.0003196761925500807 
0 
0.0005091110194764333 
0.0001558249108532218 
0.0003196761925500807 
-0.0006172394660435509 
0.0003006814700586869 
0 
0.001014327126876867 
0.0006172394660435509 
0.0003006814700586869 
-0.0005773226242408572 
0.0004291276801901617 
0 
0.001330360105374431 
0.0005773226242408572 
0.0004291276801901617 
-0.0005547043381601063 
4.686035870753926e-05 
0 
0.0005636703411230844 
0.0005547043381601063 
4.686035870753926e-05 
0.0001152151213273336 
-0.0005225648701818733 
0 
-0.0009662146632607358 
-0.0001152151213273336 
-0.0005225648701818733 
-0.001025803851138214 
0.000563077566546753 
0 
0.001940543805842946 
0.001025803851138214 
0.000563077566546753 
-0.0003232181295951149 
1.245448996649979e-05 
0 
0.0003665001475095321 
0.0003232181295951149 
1.245448996649979e-05 
-0.0003991386424926855 
-0.0002026424465976558 
0 
-0.0002147986595655891 
0.0003991386424926855 
-0.0002026424465976558 
-0.0002689543988043988 
-0.0005011047598720757 
0 
-0.0004583793711107033 
0.0002689543988043988 
-0.0005011047598720757 
-0.0006485630291341152 
0.0005573497608796617 
0 
0.001394751938238143 
0.0006485630291341152 
0.0005573497608796617 
-0.0001897792409216009 
0.0001549524215928075 
0 
0.0003765257700147386 
0.0001897792409216009 
0.0001549524215928075 
1.053915809802045e-05 
-0.0002956341991536606 
0 
-0.0003585218391671868 
-1.053915809802045e-05 
-0.0002956341991536606 
-0.0005912108040948159 
0.0009168341327293743 
0 
0.001674800901247976 
0.0005912108040948159 
0.0009168341327293743 
4.033181611675661e-05 
1.102449941159719e-05 
0 
-4.574223919699583e-05 
-4.033181611675661e-05 
1.102449941159719e-05 
-0.0007178305069356946 
0.0006390125755195561 
0 
0.001647962792630473 
0.0007178305069356946 
0.0006390125755195561 
0.0001988069386784474 
-0.000911412790408475 
0 
-0.001503848997224395 
-0.0001988069386784474 
-0.000911412790408475 
-0.0003524125535890551 
-0.0001019737455641253 
0 
9.101957639755515e-05 
0.0003524125535890551 
-0.0001019737455641253 
-0.0001529634311888875 
0.0002731403508764791 
0 
0.0006520988351130035 
0.0001529634311888875 
0.0002731403508764791 
-0.001016563159073455 
0.0005777459438620024 
0 
0.001771752795145048 
0.001016563159073455 
0.0005777459438620024 
-0.0006234445347827489 
8.657218913410916e-05 
0 
0.0007366817906160392 
0.0006234445347827489 
8.657218913410916e-05 
-3.307072329976929e-05 
-0.0006411998258418283 
0 
-0.0007295432939180455 
3.307072329976929e-05 
-0.0006411998258418283 
-0.0008862140038013214 
0.0001826577750915762 
0 
0.001314996181956927 
0.0008862140038013214 
0.0001826577750915762 
-0.0007494581070325636 
0.0004544451509904922 
0 
0.001351703708587722 
0.0007494581070325636 
0.0004544451509904922 
-0.0005689089469953853 
-0.0009679956902952834 
0 
-0.001045617560103875 
0.0005689089469953853 
-0.0009679956902952834 
-6.33354321394424e-05 
-0.0004925615944898928 
0 
-0.0006513990370541694 
6.33354321394424e-05 
-0.0004925615944898928 
-0.0002385487483445314 
0.0006875402058214118 
0 
0.001338768762827857 
0.0002385487483445314 
0.0006875402058214118 
-6.21292818517467e-05 
-0.0004371679070393264 
0 
-0.00043921605017663 
6.21292818517467e-05 
-0.0004371679070393264 
0.0002052639343904605 
-4.829302035446941e-05 
0 
-0.0003128433391666664 
-0.0002052639343904605 
-4.829302035446941e-05 
-0.0001312674636089741 
0.0002266944452254438 
0 
0.0004467513640395399 
0.0001312674636089741 
0.0002266944452254438 
-0.0003838261806473641 
-0.0001020137746909406 
0 
0.0003676463359746502 
0.0003838261806473641 
-0.0001020137746909406 
-0.0003885720144401292 
0.0002975136537187774 
0 
0.0007810551224245677 
0.0003885720144401292 
0.0002975136537187774 
0.0006585276701353986 
-0.001226587384969703 
0 
-0.002282831387019841 
-0.0006585276701353986 
-0.001226587384969703 
-0.0002518033973073998 
-0.0001571808655590339 
0 
1.305894677438851e-05 
0.0002518033973073998 
-0.0001571808655590339 
-0.0001019306464898719 
-0.0004281937655517852 
0 
-0.0004589025888076362 
0.0001019306464898719 
-0.0004281937655517852 
-0.0002840179880124694 
-9.273556972691639e-05 
0 
0.0002078165004689801 
0.0002840179880124694 
-9.273556972691639e-05 
-0.0004856893458082918 
0.001004336336667252 
0 
0.001872063127503356 
0.0004856893458082918 
0.001004336336667252 
-0.0003702918136387272 
-7.149838242514415e-05 
0 
0.0002666566896137584 
0.0003702918136387272 
-7.149838242514415e-05 
-0.0008986609105850605 
0.0006565696216041543 
0 
0.001768217909245695 
0.0008986609105850605 
0.0006565696216041543 
-0.0003971267244468117 
-0.0001193382153255468 
0 
0.0002949607031142526 
0.0003971267244468117 
-0.0001193382153255468 
-0.0004946390654869033 
3.800646751220358e-06 
0 
0.0003236153628129933 
0.0004946390654869033 
3.800646751220358e-06 
-0.0003276410442887777 
-0.0003541347322271687 
0 
-0.00025153779083784 
0.0003276410442887777 
-0.0003541347322271687 
-0.0003503713766081754 
0.0002441521202457873 
0 
0.0007096895028091112 
0.0003503713766081754 
0.0002441521202457873 
-0.0001670992999707476 
-0.0002085453280806771 
0 
-7.80555550220747e-05 
0.0001670992999707476 
-0.0002085453280806771 
0.0002649051331539764 
-0.0006630616098877077 
0 
-0.001182885681477589 
-0.0002649051331539764 
-0.0006630616098877077 
-0.000317071586146617 
0.0003510843123555966 
0 
0.0008403243229383336 
0.000317071586146617 
0.0003510843123555966 
-1.960496823709505e-05 
-0.0007118701943152714 
0 
-0.000886820931375996 
1.960496823709505e-05 
-0.0007118701943152714 
-0.0003619956486131428 
8.855734112419402e-05 
0 
0.0002281547375625144 
0.0003619956486131428 
8.855734112419402e-05 
0.0001252675824008652 
5.374610030929911e-05 
0 
-6.902811855168516e-05 
-0.0001252675824008652 
5.374610030929911e-05 
-0.0005944983575503083 
0.0002211085344631005 
0 
0.0005250410818866639 
0.0005944983575503083 
0.0002211085344631005 
-0.0003132746370271384 
0.0001482860887480133 
0 
0.0005636455320391865 
0.0003132746370271384 
0.0001482860887480133 
-0.0004449811933075266 
0.0002320451344154738 
0 
0.000817477651673772 
0.0004449811933075266 
0.0002320451344154738 
-0.0003760206488951431 
0.0006650368922433771 
0 
0.001331258685558552 
0.0003760206488951431 
0.0006650368922433771 
2.277544950294629e-05 
-0.0006809055817933269 
0 
-0.0009778592425247121 
-2.277544950294629e-05 
-0.0006809055817933269 
-0.0005939291261272091 
0.0005373285230839002 
0 
0.001300875272338966 
0.0005939291261272091 
0.0005373285230839002 
-0.0005387760547547885 
0.00050209073158762 
0 
0.001211210651515833 
0.0005387760547547885 
0.00050209073158762 
-0.0008947900006592268 
0.0001049169088988937 
0 
0.0009084589438508055 
0.0008947900006592268 
0.0001049169088988937 
0.0003489221850400459 
-0.0009778754255194749 
0 
-0.001667257298417351 
-0.0003489221850400459 
-0.0009778754255194749 
-0.0006540141842028877 
0.0009406933320463147 
0 
0.001942044009349997 
0.0006540141842028877 
0.0009406933320463147 
0.000325859431527187 
-0.0005436143653007797 
0 
-0.001080436705467919 
-0.000325859431527187 
-0.0005436143653007797 
-3.339509461299739e-05 
-0.001221167748549267 
0 
-0.001730442244687514 
3.339509461299739e-05 
-0.001221167748549267 
-0.000421289838998775 
0.0003429819085970029 
0 
0.001007463216851195 
0.000421289838998775 
0.0003429819085970029 
-0.0004483660826955642 
6.830352314972803e-05 
0 
0.0006312642154450498 
0.0004483660826955642 
6.830352314972803e-05 
-0.0002883229427428856 
0.0004836435499607577 
0 
0.0008817212177968459 
0.0002883229427428856 
0.0004836435499607577 
-0.000181698886260548 
-0.0003147510746762361 
0 
-0.0002945385545368512 
0.000181698886260548 
-0.0003147510746762361 
-0.000616502230697453 
0.00032727130921792 
0 
0.0008715336474751 
0.000616502230697453 
0.00032727130921792 
-0.0002858237354248073 
-0.00035814248384611 
0 
-0.0001172822900240913 
0.0002858237354248073 
-0.00035814248384611 
-0.0002696399357800569 
0.0004434438554914362 
0 
0.0009515222728120972 
0.0002696399357800569 
0.0004434438554914362 
-0.0004612272074113612 
0.0008154531160730568 
0 
0.001448394941849986 
0.0004612272074113612 
0.0008154531160730568 
6.191404484049926e-05 
-0.0007002935140049415 
0 
-0.0009804221302470554 
-6.191404484049926e-05 
-0.0007002935140049415 
-0.000791226638251973 
0.0008935969064190729 
0 
0.001884962265182645 
0.000791226638251973 
0.0008935969064190729 
-0.0002493213136365307 
0.0002504163186950694 
0 
0.0007098842265547186 
0.0002493213136365307 
0.0002504163186950694 
-0.0001945594946052733 
0.0002587565732743473 
0 
0.0004843243591967313 
0.0001945594946052733 
0.0002587565732743473 
0.0001723107844599107 
-0.001156125359961766 
0 
-0.001638508079178439 
-0.0001723107844599107 
-0.001156125359961766 
-0.0001447088122011637 
-3.642361071724082e-05 
0 
0.0001949249793811895 
0.0001447088122011637 
-3.642361071724082e-05 
-0.0004378485295122158 
-0.0002330314388319784 
0 
0.0001803694783465972 
0.0004378485295122158 
-0.0002330314388319784 
-0.0002760729199198443 
1.690651780663381e-05 
0 
0.0004340612957713118 
0.0002760729199198443 
1.690651780663381e-05 
-0.0007694782291188998 
0.0006884205653817026 
0 
0.001671939611079174 
0.0007694782291188998 
0.0006884205653817026 
-0.0001907659460188009 
-9.839147943113656e-05 
0 
0.0002263837389162464 
0.0001907659460188009 
-9.839147943113656e-05 
-0.000499469800639844 
-9.602493192613576e-05 
0 
0.0005487998280820269 
0.000499469800639844 
-9.602493192613576e-05 
-4.749673102993131e-05 
-0.000731567540806685 
0 
-0.001064530493333638 
4.749673102993131e-05 
-0.000731567540806685 
9.991308525343336e-06 
0.0003982673370203563 
0 
0.0006552546862974631 
-9.991308525343336e-06 
0.0003982673370203563 
-8.018020777314021e-05 
-0.0007694001823936451 
0 
-0.000919776960273492 
8.018020777314021e-05 
-0.0007694001823936451 
-0.0005825688175497762 
-2.448369618940813e-06 
0 
0.0008342029072294999 
0.0005825688175497762 
-2.448369618940813e-06 
-0.0005069236137327169 
0.0005108710392473119 
0 
0.001173192488485043 
0.0005069236137327169 
0.0005108710392473119 
-6.844017530683916e-05 
-0.0006276224548031122 
0 
-0.0007556939445007495 
6.844017530683916e-05 
-0.0006276224548031122 
-0.0003889569852928747 
0.0002415250696970251 
0 
0.0007170835264545214 
0.0003889569852928747 
0.0002415250696970251 
-0.0003300518154816786 
0.0001714937390067596 
0 
0.0005459244304385325 
0.0003300518154816786 
0.0001714937390067596 
-0.0002393860536483391 
0.0002540677116477548 
0 
0.0005060367580535353 
0.0002393860536483391 
0.0002540677116477548 
2.267628980404406e-06 
-0.0009538389087364722 
0 
-0.001352330837271039 
-2.267628980404406e-06 
-0.0009538389087364722 
-0.0004605343906278435 
-0.0001450303726074504 
0 
0.0003084734652781305 
0.0004605343906278435 
-0.0001450303726074504 
-4.820687125083873e-05 
-0.0007097222259358446 
0 
-0.0007734245256699654 
4.820687125083873e-05 
-0.0007097222259358446 
1.756016827339167e-05 
-0.000269649684730263 
0 
-0.0003244147697840966 
-1.756016827339167e-05 
-0.000269649684730263 
-0.0005840314667500489 
0.001476488374856325 
0 
0.002618707310959118 
0.0005840314667500489 
0.001476488374856325 
-0.0004331041519612601 
0.0002431845504243905 
0 
0.0009251207056637509 
0.0004331041519612601 
0.0002431845504243905 
-0.0007807755168976638 
0.0003865990889620083 
0 
0.001318864301305161 
0.0007807755168976638 
0.0003865990889620083 
0.0002104031424215845 
0.0001008950998204267 
0 
-0.0002103937409245443 
-0.0002104031424215845 
0.0001008950998204267 
-0.0001446088898231379 
3.166421648987315e-05 
0 
2.38330698317234e-05 
0.0001446088898231379 
3.166421648987315e-05 
7.381837021510219e-05 
-0.0006942301166210274 
0 
-0.001013664127119312 
-7.381837021510219e-05 
-0.0006942301166210274 
-0.0005600488719658574 
0.0001856121637698325 
0 
0.0009513298826209603 
0.0005600488719658574 
0.0001856121637698325 
-0.0006661609089055243 
0.0001559444884764602 
0 
0.000873952274129712 
0.0006661609089055243 
0.0001559444884764602 
-0.0003197804401786207 
-0.0003757516216194998 
0 
-0.0002006537187685224 
0.0003197804401786207 
-0.0003757516216194998 
-0.0005830461256037245 
0.0001426333966773972 
0 
0.0008198388601275961 
0.0005830461256037245 
0.0001426333966773972 
-0.0003248634328120538 
-0.0005392179742588104 
0 
-0.0003200400222474232 
0.0003248634328120538 
-0.0005392179742588104 
-0.0005512396823965032 
8.657563512683417e-05 
0 
0.0004192105485584241 
0.0005512396823965032 
8.657563512683417e-05 
-0.0001224486468783463 
-0.0004679812772024241 
0 
-0.0005852193964263466 
0.0001224486468783463 
-0.0004679812772024241 
-0.0007225890729258542 
0.0006340066955403891 
0 
0.001477719236595163 
0.0007225890729258542 
0.0006340066955403891 
-0.000438072176955316 
0.0001725308721837603 
0 
0.0007123420162073718 
0.000438072176955316 
0.0001725308721837603 
-0.0002398263069150675 
-0.00018641940116144 
0 
-4.374347984560203e-06 
0.0002398263069150675 
-0.00018641940116144 
-0.0007734591157407716 
0.0008681797367626824 
0 
0.001969289470557648 
0.0007734591157407716 
0.0008681797367626824 
-0.000366051763723795 
0.0001675474937841815 
0 
0.0006153353450781137 
0.000366051763723795 
0.0001675474937841815 
-0.0005697781741021829 
0.0003565156748416391 
0 
0.001065447816866219 
0.0005697781741021829 
0.0003565156748416391 
0.0002082927657175602 
-0.0001605235808820735 
0 
-0.0005799855720311893 
-0.0002082927657175602 
-0.0001605235808820735 
-0.0006461743262019079 
0.0005376894045370006 
0 
0.001139614015014856 
0.0006461743262019079 
0.0005376894045370006 
-0.0004997842908327334 
-2.064875174378015e-05 
0 
0.0005016659053310631 
0.0004997842908327334 
-2.064875174378015e-05 
-0.0007502115666187283 
0.0004017711950276205 
0 
0.001197534057358345 
0.0007502115666187283 
0.0004017711950276205 
-0.0003380362976916444 
0.0005814608200299117 
0 
0.001062738021264697 
0.0003380362976916444 
0.0005814608200299117 
0.0001291025460797744 
-0.000281008278121599 
0 
-0.000352646341530136 
-0.0001291025460797744 
-0.000281008278121599 
-0.0007010062102970024 
0.0001018774767104359 
0 
0.0009402820987106686 
0.0007010062102970024 
0.0001018774767104359 
-0.0001332729784160159 
-0.0001350120951071701 
0 
8.973595221718338e-05 
0.0001332729784160159 
-0.0001350120951071701 
-0.0006648601585890545 
-0.0001499145998095081 
0 
0.0001826058894239394 
0.0006648601585890545 
-0.0001499145998095081 
0.000315810775677256 
-0.001006781931899942 
0 
-0.001595968411421362 
-0.000315810775677256 
-0.001006781931899942 
-0.0007663967718659413 
0.0007200312973151313 
0 
0.001740443771278084 
0.0007663967718659413 
0.0007200312973151313 
-0.0006257821312398393 
0.0001033966945948668 
0 
0.0008625811522618975 
0.0006257821312398393 
0.0001033966945948668 
-0.0003287860110261086 
-0.0005138786915422352 
0 
-0.0003501586763854914 
0.0003287860110261086 
-0.0005138786915422352 
-0.0007749998888542189 
0.0001972206392094653 
0 
0.001110906321013797 
0.0007749998888542189 
0.0001972206392094653 
-0.0003502266028950823 
-0.0002087910469295218 
0 
9.696399671543732e-05 
0.0003502266028950823 
-0.0002087910469295218 
-0.0005214680529320267 
0.0003212665038723664 
0 
0.001022133121835437 
0.0005214680529320267 
0.0003212665038723664 
0.0002528314884271168 
-0.0003521319737064686 
0 
-0.0008603799953385039 
-0.0002528314884271168 
-0.0003521319737064686 
-0.0004670698743770113 
0.0007434525732942996 
0 
0.001339951845094679 
0.0004670698743770113 
0.0007434525732942996 
-0.0005739109540089274 
0.0002395618144486423 
0 
0.001028409955078584 
0.0005739109540089274 
0.0002395618144486423 
-0.0008253135410869963 
0.0006166831980185919 
0 
0.001669229294579914 
0.0008253135410869963 
0.0006166831980185919 
-0.000730879586150657 
0.001541380949362059 
0 
0.002817494070795908 
0.000730879586150657 
0.001541380949362059 
-0.0004346214742756482 
0.00032547781558987 
0 
0.000930789580656258 
0.0004346214742756482 
0.00032547781558987 
-0.0006550412432254153 
-0.0002875230288891952 
0 
0.0003474040531076823 
0.0006550412432254153 
-0.0002875230288891952 
-0.00073920572143304 
0.0001767067089327637 
0 
0.001273400074866581 
0.00073920572143304 
0.0001767067089327637 
-0.0002901867990696307 
-0.0007220914072206311 
0 
-0.0006945581569958597 
0.0002901867990696307 
-0.0007220914072206311 
-2.866956819688843e-05 
-0.0007676498710339544 
0 
-0.0009709368284271807 
2.866956819688843e-05 
-0.0007676498710339544 
-0.0002805274715604437 
-0.0002493647146849576 
0 
0.0002172729890486174 
0.0002805274715604437 
-0.0002493647146849576 
-0.0004561680585569042 
-0.0001474233548157667 
0 
0.0003610326575095907 
0.0004561680585569042 
-0.0001474233548157667 
-0.000287079029215993 
-0.0003647710440145385 
0 
-0.000173445580994761 
0.000287079029215993 
-0.0003647710440145385 
-0.0005076995352701229 
0.0003840545697691625 
0 
0.001091132812791852 
0.0005076995352701229 
0.0003840545697691625 
-0.0004573249189206058 
-0.0001498062423513984 
0 
0.0004476813832477693 
0.0004573249189206058 
-0.0001498062423513984 
-0.0005665139315059372 
0.0006404924674385516 
0 
0.001406730482740966 
0.0005665139315059372 
0.0006404924674385516 
0.0002296695522073727 
-0.0008179085222946297 
0 
-0.001433023163640883 
-0.0002296695522073727 
-0.0008179085222946297 
-0.0005350203182636979 
0.0007390490965814727 
0 
0.001447572682552101 
0.0005350203182636979 
0.0007390490965814727 
-0.0001001308447374166 
-0.0003356507900067371 
0 
-0.0002042637354182138 
0.0001001308447374166 
-0.0003356507900067371 
-0.0009619252235900176 
0.0004970012382485332 
0 
0.001666491983877455 
0.0009619252235900176 
0.0004970012382485332 
-0.0003821430961545587 
0.001082237510756139 
0 
0.001935565001277491 
0.0003821430961545587 
0.001082237510756139 
-0.000276987180583393 
-0.0007544990947759449 
0 
-0.0006145632487791574 
0.000276987180583393 
-0.0007544990947759449 
-0.0007686606842538482 
5.58986363242812e-05 
0 
0.0009398197519582027 
0.0007686606842538482 
5.58986363242812e-05 
-0.0003273477943888176 
-0.0002462479186127922 
0 
0.0002508522398704895 
0.0003273477943888176 
-0.0002462479186127922 
-0.0007671225960293102 
-0.0002409473247998549 
0 
0.0003686761391853017 
0.0007671225960293102 
-0.0002409473247998549 
0.0002227513649442887 
-0.0006196074432557348 
0 
-0.0009931597533926091 
-0.0002227513649442887 
-0.0006196074432557348 
-0.0005079443942298922 
-9.025879135114231e-05 
0 
0.0006349965997209758 
0.0005079443942298922 
-9.025879135114231e-05 
-0.0002892989883495558 
0.0001489046368778967 
0 
0.000562252438518622 
0.0002892989883495558 
0.0001489046368778967 
-0.000263589744803232 
-0.0002466224670636798 
0 
-8.371925692574728e-05 
0.000263589744803232 
-0.0002466224670636798 
-0.0004658585717229644 
0.0002411512472135253 
0 
0.001133781863539973 
0.0004658585717229644 
0.0002411512472135253 
-0.0004142859223635178 
0.0002410428838931193 
0 
0.0007779499692673385 
0.0004142859223635178 
0.0002410428838931193 
-0.0007862263497912398 
0.0002240036269097827 
0 
0.001204334115309063 
0.0007862263497912398 
0.0002240036269097827 
2.968946923254234e-05 
-0.001122856633813235 
0 
-0.001724567104311295 
-2.968946923254234e-05 
-0.001122856633813235 
1.663610246956849e-05 
0.0001800391310967552 
0 
0.0003924248329969384 
-1.663610246956849e-05 
0.0001800391310967552 
-0.0002888129394559281 
-0.0003955272628431623 
0 
-0.0002881920728751328 
0.0002888129394559281 
-0.0003955272628431623 
-0.0004704512412861473 
0.0007673686386867925 
0 
0.001542695813969792 
0.0004704512412861473 
0.0007673686386867925 
-0.0003704875669558465 
0.001388868113834384 
0 
0.002417188206777226 
0.0003704875669558465 
0.001388868113834384 
0.0002088970505645914 
-0.0009201320117763962 
0 
-0.001160714664364916 
-0.0002088970505645914 
-0.0009201320117763962 
-2.004046431083806e-06 
-0.0006558542416425031 
0 
-0.0006153618987261411 
2.004046431083806e-06 
-0.0006558542416425031 
-6.635036025379227e-05 
-0.0007309032301181154 
0 
-0.0008409273915916275 
6.635036025379227e-05 
-0.0007309032301181154 
-0.0005866793183886052 
-0.0008985881087384404 
0 
-0.0006504270502439021 
0.0005866793183886052 
-0.0008985881087384404 
-0.0003800514165549453 
0.0005142639203874324 
0 
0.001184627849215201 
0.0003800514165549453 
0.0005142639203874324 
-0.0004089600847262947 
0.0002835547984075299 
0 
0.0009209008817218254 
0.0004089600847262947 
0.0002835547984075299 
-0.0002594212609373423 
-0.0002921690844484095 
0 
7.796344142970117e-05 
0.0002594212609373423 
-0.0002921690844484095 
-0.0004407044981950327 
0.001144979937196701 
0 
0.002122045310484032 
0.0004407044981950327 
0.001144979937196701 
-0.0007054010250165754 
0.001542095363737352 
0 
0.002985894459032033 
0.0007054010250165754 
0.001542095363737352 
-0.0003942384592451435 
1.46453242653491e-05 
0 
0.000345503525444541 
0.0003942384592451435 
1.46453242653491e-05 
-2.213292773952355e-05 
-0.0005216299740639836 
0 
-0.0005192787054436921 
2.213292773952355e-05 
-0.0005216299740639836 
-0.000167200439425235 
-8.367844652699718e-05 
0 
3.050697923141797e-05 
0.000167200439425235 
-8.367844652699718e-05 
-0.0006670918779821105 
8.975517569514631e-05 
0 
0.0007100172389823201 
0.0006670918779821105 
8.975517569514631e-05 
-5.477744295190991e-05 
2.643626829267348e-05 
0 
4.520796638243142e-05 
5.477744295190991e-05 
2.643626829267348e-05 
-0.0006726756237929918 
0.0001875167947971497 
0 
0.001037582660310301 
0.0006726756237929918 
0.0001875167947971497 
-2.253037695628008e-05 
0.0001736952007876254 
0 
0.0006261964621647489 
2.253037695628008e-05 
0.0001736952007876254 
8.592258739091589e-06 
-0.0004958964011914419 
0 
-0.0006135300016727643 
-8.592258739091589e-06 
-0.0004958964011914419 
0.0001567286573518479 
-0.0002186698758302179 
0 
-0.0003318527479611769 
-0.0001567286573518479 
-0.0002186698758302179 
0.0001532408696604575 
-0.001109805954742456 
0 
-0.001369956355941303 
-0.0001532408696604575 
-0.001109805954742456 
0.0002080359219493649 
-0.001745154790850158 
0 
-0.002648656648260818 
-0.0002080359219493649 
-0.001745154790850158 
7.871702075316869e-05 
-0.0006135659382684907 
0 
-0.000983518293706065 
-7.871702075316869e-05 
-0.0006135659382684907 
-0.0001116243629594932 
-0.0005399121496749934 
0 
-0.0005744621352437156 
0.0001116243629594932 
-0.0005399121496749934 
-0.0001025515769300993 
-0.0001125666238834189 
0 
-3.679934178282684e-05 
0.0001025515769300993 
-0.0001125666238834189 
0.0002875649007050683 
0.0003359871246688779 
0 
0.0002692367946302819 
-0.0002875649007050683 
0.0003359871246688779 
-0.0001392264565583475 
0.002089943536643125 
0 
0.003442883696023749 
0.0001392264565583475 
0.002089943536643125 
0.0003209343786508005 
-0.0006190188983697843 
0 
-0.001073339710601616 
-0.0003209343786508005 
-0.0006190188983697843 
6.649321099351292e-05 
-0.0006416047266041658 
0 
-0.0008816226759618608 
-6.649321099351292e-05 
-0.0006416047266041658 
5.792953831122763e-05 
-0.0004024302173154582 
0 
-0.0004915686633804522 
-5.792953831122763e-05 
-0.0004024302173154582 
5.182556942615706e-05 
-0.0007144029865801168 
0 
-0.001088865547322294 
-5.182556942615706e-05 
-0.0007144029865801168 
-1.66086139169125e-05 
0.0001575583801617486 
0 
0.0001813483566418544 
1.66086139169125e-05 
0.0001575583801617486 
-0.0005129835553293962 
0.0001756483086524052 
0 
0.0007716436030595513 
0.0005129835553293962 
0.0001756483086524052 
5.09452448066665e-05 
-0.00059582269454406 
0 
-0.0008160520717593201 
-5.09452448066665e-05 
-0.00059582269454406 
0.0005614711888337285 
-0.0004499881753205879 
0 
-0.001195355892599283 
-0.0005614711888337285 
-0.0004499881753205879 
-0.0001531350721779102 
-0.0003835704705282018 
0 
-0.0003532594836408986 
0.0001531350721779102 
-0.0003835704705282018 
0.000387492203830513 
-0.0009671795414460618 
0 
-0.00175903309218387 
-0.000387492203830513 
-0.0009671795414460618 
0.0002984601523099757 
-0.001102906189273459 
0 
-0.00196421594248704 
-0.0002984601523099757 
-0.001102906189273459 
8.484191034501391e-05 
-0.0001890228662506554 
0 
-0.0004415252086190971 
-8.484191034501391e-05 
-0.0001890228662506554 
0.0002721313140045913 
-0.0006053806654819704 
0 
-0.001220009544290942 
-0.0002721313140045913 
-0.0006053806654819704 
7.500232809838318e-05 
-0.001125719232056497 
0 
-0.001390130475931417 
-7.500232809838318e-05 
-0.001125719232056497 
0.0007091246790211352 
-0.001799999794005818 
0 
-0.00305583983015115 
-0.0007091246790211352 
-0.001799999794005818 
0.0002829802297643001 
-0.001214966926507421 
0 
-0.001966913836993477 
-0.0002829802297643001 
-0.001214966926507421 
-6.781500589520877e-06 
-0.000776731606250109 
0 
-0.0008012083538057119 
6.781500589520877e-06 
-0.000776731606250109 
-7.188678726523186e-05 
-0.0002474405186957709 
0 
-8.892648515324156e-05 
7.188678726523186e-05 
-0.0002474405186957709 
0.0003203870183364381 
-0.0007605810297592612 
0 
-0.001284856013448584 
-0.0003203870183364381 
-0.0007605810297592612 
0.0003648681427746944 
-0.0003674456560268549 
0 
-0.0007229532828744746 
-0.0003648681427746944 
-0.0003674456560268549 
-7.316474720700313e-05 
-0.0004602190274853622 
0 
-0.0004962987841013667 
7.316474720700313e-05 
-0.0004602190274853622 
-6.135616755146397e-05 
-0.000750557413254855 
0 
-0.0008912064966623294 
6.135616755146397e-05 
-0.000750557413254855 
0.0005524906652629666 
0.001048101430905384 
0 
0.001244922768945131 
-0.0005524906652629666 
0.001048101430905384 
1.554925176801459e-05 
0.0009646129675399839 
0 
0.001390890188242073 
-1.554925176801459e-05 
0.0009646129675399839 
-9.458332912681558e-05 
0.0002255120089125465 
0 
0.0004429590983431597 
9.458332912681558e-05 
0.0002255120089125465 
0.0002140259979209249 
-0.0005780694313472 
0 
-0.001099407068423645 
-0.0002140259979209249 
-0.0005780694313472 
-0.0004639082197203694 
-0.001283545382651637 
0 
-0.001537063382279767 
0.0004639082197203694 
-0.001283545382651637 
0.0005147113141811332 
-0.0009604306935961027 
0 
-0.00190453362319179 
-0.0005147113141811332 
-0.0009604306935961027 
-0.0003707815547850047 
0.0001385927833461459 
0 
0.0004613452489064286 
0.0003707815547850047 
0.0001385927833461459 
-0.0001382582949141351 
-0.0006960350190017025 
0 
-0.0007274378466021038 
0.0001382582949141351 
-0.0006960350190017025 
0.0005462750813174885 
-0.001080088173200845 
0 
-0.00206313959363153 
-0.0005462750813174885 
-0.001080088173200845 
0.0001131692117079265 
0.0004407850289347045 
0 
0.0006653431629532954 
-0.0001131692117079265 
0.0004407850289347045 
-0.0003819109923858306 
-0.0005622674737422141 
0 
-0.0001822364881841146 
0.0003819109923858306 
-0.0005622674737422141 
-0.0003796963647335378 
2.683344745561444e-05 
0 
0.0006104197181422862 
0.0003796963647335378 
2.683344745561444e-05 
0.0002212920790511465 
-0.0008593100219289306 
0 
-0.001391360215550198 
-0.0002212920790511465 
-0.0008593100219289306 
0.0002027992855005338 
0.000112348977805827 
0 
0.000107903231274637 
-0.0002027992855005338 
0.000112348977805827 
-3.029869039961752e-07 
-0.0008356220076030927 
0 
-0.001062665526427266 
3.029869039961752e-07 
-0.0008356220076030927 
-0.0004965407520558877 
-0.0003563683198811205 
0 
-3.408512618120587e-05 
0.0004965407520558877 
-0.0003563683198811205 
-0.000282189966911753 
0.001179114925120591 
0 
0.002252435528335189 
0.000282189966911753 
0.001179114925120591 
0.000477226150709797 
-0.001104225277185779 
0 
-0.002008255473903706 
-0.000477226150709797 
-0.001104225277185779 
-0.0004191309437558347 
-6.719727344202559e-05 
0 
0.0004791049471733674 
0.0004191309437558347 
-6.719727344202559e-05 
-0.0002015336184133511 
0.0001426539581202184 
0 
0.000498515279892069 
0.0002015336184133511 
0.0001426539581202184 
-5.607250711252208e-05 
2.910540615862141e-05 
0 
9.517123158387348e-05 
5.607250711252208e-05 
2.910540615862141e-05 
9.959052950875017e-05 
-0.0009728729562029466 
0 
-0.001282645160930523 
-9.959052950875017e-05 
-0.0009728729562029466 
-0.0005238511404364021 
0.0002083523690293374 
0 
0.0007410841490336942 
0.0005238511404364021 
0.0002083523690293374 
-0.0001882937563638248 
-0.0004096820551872866 
0 
-0.0002703071952427159 
0.0001882937563638248 
-0.0004096820551872866 
0.0004144716955485401 
-0.0006202953941554615 
0 
-0.001210996565507425 
-0.0004144716955485401 
-0.0006202953941554615 
-0.0003108105254684521 
0.0004919121316319132 
0 
0.001086924225557023 
0.0003108105254684521 
0.0004919121316319132 
-0.000351752401041739 
-0.0002323414874459636 
0 
7.94202072089292e-05 
0.000351752401041739 
-0.0002323414874459636 
-0.0008793600827423521 
0.0009163539647691071 
0 
0.002225701686389932 
0.0008793600827423521 
0.0009163539647691071 
0.0003341308288024651 
-6.150983692948228e-05 
0 
-0.0003854633620857939 
-0.0003341308288024651 
-6.150983692948228e-05 
-0.0003488047783261658 
-0.0006051083010531201 
0 
-0.0005345040558488071 
0.0003488047783261658 
-0.0006051083010531201 
-2.670083858303192e-05 
-0.0006068292737313491 
0 
-0.0007440076113784884 
2.670083858303192e-05 
-0.0006068292737313491 
-0.0001598552050942388 
-0.0004406984777154961 
0 
-0.0003006392197556799 
0.0001598552050942388 
-0.0004406984777154961 
-0.0004044480138491122 
0.0001427189607878307 
0 
0.0006691358036937299 
0.0004044480138491122 
0.0001427189607878307 
0.0003571347874970938 
-0.0008026120334566886 
0 
-0.001463108180758653 
-0.0003571347874970938 
-0.0008026120334566886 
-0.0008264212090422835 
-0.0001748217744505774 
0 
0.0008186542737918487 
0.0008264212090422835 
-0.0001748217744505774 
-0.0002288972126541085 
-3.905109816361584e-05 
0 
0.0004069083724600238 
0.0002288972126541085 
-3.905109816361584e-05 
-0.0004638791385653333 
-0.000270183549740998 
0 
-0.0001363662988885544 
0.0004638791385653333 
-0.000270183549740998 
-8.92220783890325e-05 
-0.001039338801126265 
0 
-0.001322907486843614 
8.92220783890325e-05 
-0.001039338801126265 
-0.0008259305908901689 
0.0009886229976952378 
0 
0.0022814295322935 
0.0008259305908901689 
0.0009886229976952378 
-0.0004400433622171186 
-4.767749757538039e-05 
0 
0.0004827110188625323 
0.0004400433622171186 
-4.767749757538039e-05 
0.0004549730291977621 
-0.001322921957786883 
0 
-0.00233218270556397 
-0.0004549730291977621 
-0.001322921957786883 
-0.0003404840939337368 
7.07468819128477e-05 
0 
0.0002659254174388498 
0.0003404840939337368 
7.07468819128477e-05 
-0.0003890823235011503 
-0.0007575566390240576 
0 
-0.0004312749873025203 
0.0003890823235011503 
-0.0007575566390240576 
-0.000221342649844829 
0.001141935153959016 
0 
0.001725762119016658 
0.000221342649844829 
0.001141935153959016 
7.021040173957705e-05 
-0.0006372292731375818 
0 
-0.001014352618364083 
-7.021040173957705e-05 
-0.0006372292731375818 
-0.0001187984253568622 
0.000371087206541466 
0 
0.0005274600562621367 
0.0001187984253568622 
0.000371087206541466 
0.0001021994094473143 
-0.0003346467507271218 
0 
-0.0006398838527788675 
-0.0001021994094473143 
-0.0003346467507271218 
-0.000825229975115862 
0.000210005221024972 
0 
0.001230278723511596 
0.000825229975115862 
0.000210005221024972 
-0.0009889514678674684 
0.000834975677222233 
0 
0.002216415266457884 
0.0009889514678674684 
0.000834975677222233 
9.891353477640697e-05 
-0.0008482778125915327 
0 
-0.001233517080978041 
-9.891353477640697e-05 
-0.0008482778125915327 
-0.0005415364952288897 
0.0001674812607739711 
0 
0.0008036693640023916 
0.0005415364952288897 
0.0001674812607739711 
7.774006613326577e-05 
-0.001061554153729869 
0 
-0.001323952597118378 
-7.774006613326577e-05 
-0.001061554153729869 
-4.19250547129939e-05 
-0.0003870584985532727 
0 
-0.0004671434489850883 
4.19250547129939e-05 
-0.0003870584985532727 
0.0004974958897504652 
-0.0009613167001102489 
0 
-0.001722513850106059 
-0.0004974958897504652 
-0.0009613167001102489 
-0.0002090915411824152 
-0.0003183218677840267 
0 
-0.0001088446058901893 
0.0002090915411824152 
-0.0003183218677840267 
-0.0003718634467470855 
-0.0002297797347236945 
0 
0.000111656419027119 
0.0003718634467470855 
-0.0002297797347236945 
0.0005203135180816401 
-0.0008326224826200548 
0 
-0.001455304972592665 
-0.0005203135180816401 
-0.0008326224826200548 
-0.0003260384512738109 
0.0001816867090084066 
0 
0.0006238034515675046 
0.0003260384512738109 
0.0001816867090084066 
5.068420950153419e-05 
-0.0004052774514018005 
0 
-0.0004781472454618851 
-5.068420950153419e-05 
-0.0004052774514018005 
-0.0004986810222509413 
0.0007499388900295177 
0 
0.00142983794047316 
0.0004986810222509413 
0.0007499388900295177 
0.0005275469373941628 
-0.0006168357543160105 
0 
-0.00137495420887187 
-0.0005275469373941628 
-0.0006168357543160105 
0.0001272229715907898 
-0.0004164634765087001 
0 
-0.0006968552189651141 
-0.0001272229715907898 
-0.0004164634765087001 
-0.0002404715675901301 
-0.0004048891937342386 
0 
-0.0002662778383382538 
0.0002404715675901301 
-0.0004048891937342386 
-0.0003173446089318848 
-0.0001660250388606916 
0 
0.0001705269995870058 
0.0003173446089318848 
-0.0001660250388606916 
-0.0005598653797211975 
0.0001679536169874384 
0 
0.0006911269471979628 
0.0005598653797211975 
0.0001679536169874384 
0.0001058429038816547 
-0.0004512601923203675 
0 
-0.0007640812964716438 
-0.0001058429038816547 
-0.0004512601923203675 
-0.0005454705061559025 
-0.0002565551653421526 
0 
0.0001849145591692949 
0.0005454705061559025 
-0.0002565551653421526 
-0.0002453833375973971 
-0.000589303848061319 
0 
-0.0003786391719830977 
0.0002453833375973971 
-0.000589303848061319 
6.29279731483949e-07 
-4.978614593285949e-05 
0 
-0.0001276035132321114 
-6.29279731483949e-07 
-4.978614593285949e-05 
0.0002553020119614125 
-0.001266325688729731 
0 
-0.001871311045993813 
-0.0002553020119614125 
-0.001266325688729731 
-0.0004202354463254602 
0.0005450793111232364 
0 
0.001109281602211407 
0.0004202354463254602 
0.0005450793111232364 
0.0001647528787804711 
-0.001075970149849422 
0 
-0.001572166670190488 
-0.0001647528787804711 
-0.001075970149849422 
0.0001589129215546308 
-0.001002067183889031 
0 
-0.001455330872043784 
-0.0001589129215546308 
-0.001002067183889031 
-0.0004107963280711257 
-0.0001981993179345875 
0 
1.708042887374588e-05 
0.0004107963280711257 
-0.0001981993179345875 
-0.000324628989495434 
-0.0004159697828121314 
0 
-0.000119120901301327 
0.000324628989495434 
-0.0004159697828121314 
-0.0005562462124038314 
9.291625829649514e-05 
0 
0.0007778124098552347 
0.0005562462124038314 
9.291625829649514e-05 
-0.0001337455593281336 
-0.0003676360050155671 
0 
-0.0006232461408315919 
0.0001337455593281336 
-0.0003676360050155671 
-1.503757268829078e-05 
0.0001266708773841709 
0 
6.662331016046604e-06 
1.503757268829078e-05 
0.0001266708773841709 
-0.0001290930428169739 
0.0001013704646369116 
0 
0.000164924279904412 
0.0001290930428169739 
0.0001013704646369116 
-0.0007933476432163511 
0.0001620294271979055 
0 
0.00111099126048705 
0.0007933476432163511 
0.0001620294271979055 
-0.0004350296127562296 
0.0008549761706102945 
0 
0.001524888171314946 
0.0004350296127562296 
0.0008549761706102945 
-6.15782536044348e-06 
-0.0003926466081442659 
0 
-0.0005396808910928432 
6.15782536044348e-06 
-0.0003926466081442659 
-0.0002646783328906939 
-0.0001878167941212267 
0 
-0.0001776000857811042 
0.0002646783328906939 
-0.0001878167941212267 
0.0002434524633767204 
-0.0006136714537084219 
0 
-0.001227924562310772 
-0.0002434524633767204 
-0.0006136714537084219 
1.362954130069213e-05 
-0.0004968580425447854 
0 
-0.0008009050434517112 
-1.362954130069213e-05 
-0.0004968580425447854 
0.0002205309335547565 
-0.001007304219823713 
0 
-0.001757213860496945 
-0.0002205309335547565 
-0.001007304219823713 
-0.0007054845846136338 
0.0009636014776891768 
0 
0.00221126855624597 
0.0007054845846136338 
0.0009636014776891768 
-0.0003406043501193175 
-0.0007364799908957366 
0 
-0.0005480306712103747 
0.0003406043501193175 
-0.0007364799908957366 
5.178323939788054e-05 
-0.001286705581367963 
0 
-0.001629145311364003 
-5.178323939788054e-05 
-0.001286705581367963 
-0.0007054988202114763 
8.589887763672405e-05 
0 
0.000732881479166945 
0.0007054988202114763 
8.589887763672405e-05 
-0.0002783103476225469 
-0.0001740926243957318 
0 
0.0001204421625355659 
0.0002783103476225469 
-0.0001740926243957318 
-0.0005512359294164443 
0.000526024254524434 
0 
0.001258464456230801 
0.0005512359294164443 
0.000526024254524434 
4.729248487026464e-05 
-0.0006361095330601197 
0 
-0.0009953273505045961 
-4.729248487026464e-05 
-0.0006361095330601197 
-0.000173174585211137 
-0.0005100454948379751 
0 
-0.0006358878934647435 
0.000173174585211137 
-0.0005100454948379751 
-0.0001421605945210966 
0.0001143414146825085 
0 
0.0003701839067628198 
0.0001421605945210966 
0.0001143414146825085 
-0.0006023901630340736 
0.0005132676415711778 
0 
0.001382701738169964 
0.0006023901630340736 
0.0005132676415711778 
-0.0006464927523615281 
0.0004448451434063508 
0 
0.001384783262980964 
0.0006464927523615281 
0.0004448451434063508 
0.0002959948099300881 
-0.001042388760924813 
0 
-0.001754157385239204 
-0.0002959948099300881 
-0.001042388760924813 
-0.001113692863853517 
0.001250841277399101 
0 
0.003054183780941304 
0.001113692863853517 
0.001250841277399101 
-0.0003899187244316789 
-0.0002770632014028735 
0 
7.254944072109299e-05 
0.0003899187244316789 
-0.0002770632014028735 
-0.0003863908582939857 
-0.0006234462625002136 
0 
-0.0007380003244193424 
0.0003863908582939857 
-0.0006234462625002136 
5.221408687909672e-05 
-0.0006964172754919193 
0 
-0.001113666808887889 
-5.221408687909672e-05 
-0.0006964172754919193 
0.0001800191135862984 
-0.0004441006085567178 
0 
-0.0008778614190579731 
-0.0001800191135862984 
-0.0004441006085567178 
0.0001587403438984672 
-0.0007843516191805 
0 
-0.001123054072984605 
-0.0001587403438984672 
-0.0007843516191805 
0.0003861405121519287 
-0.0006906334168043529 
0 
-0.001342807610838616 
-0.0003861405121519287 
-0.0006906334168043529 
-0.0006586734693507312 
0.0007794629434150278 
0 
0.001706246817286384 
0.0006586734693507312 
0.0007794629434150278 
-0.0002193283633533052 
-0.000592707998641486 
0 
-0.000419603564941089 
0.0002193283633533052 
-0.000592707998641486 
-0.0008443412892402407 
0.0005917516479107375 
0 
0.001722282837154444 
0.0008443412892402407 
0.0005917516479107375 
-0.0001111164472562612 
-3.099704107718035e-05 
0 
-5.918804302933048e-07 
0.0001111164472562612 
-3.099704107718035e-05 
-0.0005909257133646786 
0.0003924877063319161 
0 
0.0009570258627275091 
0.0005909257133646786 
0.0003924877063319161 
-0.0003766236896010254 
-2.666931911857891e-06 
0 
0.0003276487785185222 
0.0003766236896010254 
-2.666931911857891e-06 
-0.0008267912182766439 
0.0002593025594368557 
0 
0.001359199649621483 
0.0008267912182766439 
0.0002593025594368557 
-0.0002516913340127315 
-0.000371073071101501 
0 
-0.0001635509687320395 
0.0002516913340127315 
-0.000371073071101501 
0.0004179691225651007 
-0.0007602509353162974 
0 
-0.001447188336124739 
-0.0004179691225651007 
-0.0007602509353162974 
-0.0001266123163016395 
-0.0002514251232120004 
0 
-0.0002473604321198032 
0.0001266123163016395 
-0.0002514251232120004 
-0.0002895469689746239 
-0.0007351191146309227 
0 
-0.0005495664871391175 
0.0002895469689746239 
-0.0007351191146309227 
-0.0001807112525523917 
-0.0005129190393565087 
0 
-0.0007742601472716723 
0.0001807112525523917 
-0.0005129190393565087 
0.0007587554713371419 
-0.001297753905541809 
0 
-0.002507834940406637 
-0.0007587554713371419 
-0.001297753905541809 
-0.0004683564821789601 
0.0003276510352840328 
0 
0.0009244064816522697 
0.0004683564821789601 
0.0003276510352840328 
3.147972024592598e-05 
-0.001076198212806767 
0 
-0.001439535235297945 
-3.147972024592598e-05 
-0.001076198212806767 
0.0006106724422359108 
-0.0009072367626313934 
0 
-0.001727754307054058 
-0.0006106724422359108 
-0.0009072367626313934 
-0.0003763355320337059 
-0.000587077408299525 
0 
-0.0004371085070716404 
0.0003763355320337059 
-0.000587077408299525 
-0.0003393213938477387 
-0.0005230288670383173 
0 
-0.000143408271996309 
0.0003393213938477387 
-0.0005230288670383173 
-0.0007004719895597734 
0.0005635973557049957 
0 
0.001519080387337219 
0.0007004719895597734 
0.0005635973557049957 
6.181268955085272e-05 
-0.0003237561500188756 
0 
-0.0005342554803737929 
-6.181268955085272e-05 
-0.0003237561500188756 
-0.0002453674882889459 
0.0005841330970963936 
0 
0.0007684584173707432 
0.0002453674882889459 
0.0005841330970963936 
-0.0007857620387686354 
3.989347499339769e-05 
0 
0.0008994275346622176 
0.0007857620387686354 
3.989347499339769e-05 
-0.0005738921411256926 
0.0001239148294798208 
0 
0.0007462073954341221 
0.0005738921411256926 
0.0001239148294798208 
-0.0007130669998333849 
0.0005049387896665275 
0 
0.001406873809239944 
0.0007130669998333849 
0.0005049387896665275 
-6.520431699502236e-05 
-0.0005778726879042763 
0 
-0.0007729771070112318 
6.520431699502236e-05 
-0.0005778726879042763 
-0.000207098947089011 
0.0003554565292170206 
0 
0.0006897167128582386 
0.000207098947089011 
0.0003554565292170206 
-0.0003615767587090006 
-0.0002752544970240763 
0 
-7.85359490119557e-05 
0.0003615767587090006 
-0.0002752544970240763 
-0.0002492605404198576 
-7.621941543930948e-05 
0 
-0.0001892883117455552 
0.0002492605404198576 
-7.621941543930948e-05 
-3.330842476797321e-05 
-0.0004682412393243735 
0 
-0.000824061230320576 
3.330842476797321e-05 
-0.0004682412393243735 
-0.0002427431065759873 
0.0003055701004347953 
0 
0.0006151224318162908 
0.0002427431065759873 
0.0003055701004347953 
-0.0002158226074137129 
-0.0005785180411266342 
0 
-0.0005580104989794793 
0.0002158226074137129 
-0.0005785180411266342 
0.0004806965258223329 
-0.000888355069095802 
0 
-0.001536006162680802 
-0.0004806965258223329 
-0.000888355069095802 
-0.0003332467964552025 
-7.378582386280807e-06 
0 
0.0004036084868101239 
0.0003332467964552025 
-7.378582386280807e-06 
5.119176233243355e-05 
-0.0004917837945410846 
0 
-0.0005771185597606375 
-5.119176233243355e-05 
-0.0004917837945410846 
-0.0005822792426053991 
0.0002882024314355063 
0 
0.0009284914523602216 
0.0005822792426053991 
0.0002882024314355063 
1.75026582982498e-05 
-0.0001284588425193488 
0 
-0.0003965158408510739 
-1.75026582982498e-05 
-0.0001284588425193488 
-0.000149683786538079 
0.0003160295596673814 
0 
0.0003179512347001309 
0.000149683786538079 
0.0003160295596673814 
-0.0003972880353856143 
0.000145673771426698 
0 
0.0004640710128736735 
0.0003972880353856143 
0.000145673771426698 
-0.0007993534839146147 
0.0003600555257569065 
0 
0.001313246352393078 
0.0007993534839146147 
0.0003600555257569065 
-0.0004564699688752158 
-0.0009388460837059128 
0 
-0.0008201586463207841 
0.0004564699688752158 
-0.0009388460837059128 
0.0001057685008327528 
-0.0005505847448775404 
0 
-0.0008160718063375059 
-0.0001057685008327528 
-0.0005505847448775404 
-0.0003170832216312492 
0.0004694111970564731 
0 
0.00103081231357035 
0.0003170832216312492 
0.0004694111970564731 
-0.0001995582859112523 
-0.0003587299809667461 
0 
-0.000263088712485496 
0.0001995582859112523 
-0.0003587299809667461 
-0.0003168551430518794 
-0.001114050792101225 
0 
-0.001429740248911991 
0.0003168551430518794 
-0.001114050792101225 
0.0003423644293583758 
-0.0007973103596374967 
0 
-0.001420160629506887 
-0.0003423644293583758 
-0.0007973103596374967 
-0.0002686173115645772 
0.0002075509487841732 
0 
0.0006931397398573255 
0.0002686173115645772 
0.0002075509487841732 
-0.00010178372783004 
-0.0001814838335711937 
0 
-0.0001518848055761281 
0.00010178372783004 
-0.0001814838335711937 
-0.0001363503980556283 
-0.000104526581393347 
0 
7.653385679876904e-05 
0.0001363503980556283 
-0.000104526581393347 
-0.0009562220805439494 
-9.927872370890137e-05 
0 
0.0009386893103369013 
0.0009562220805439494 
-9.927872370890137e-05 
-0.0002342936342451422 
8.233489987193523e-05 
0 
0.0003440940158118014 
0.0002342936342451422 
8.233489987193523e-05 
-0.0008228483101337602 
0.0005849245306631165 
0 
0.00170873996590238 
0.0008228483101337602 
0.0005849245306631165 
3.082502567877576e-05 
-0.001002401218597191 
0 
-0.001503186603640903 
-3.082502567877576e-05 
-0.001002401218597191 
-8.633868105671492e-05 
-7.847348641811234e-05 
0 
-7.67821242330123e-05 
8.633868105671492e-05 
-7.847348641811234e-05 
-0.0005836132223655341 
0.0006793232236735329 
0 
0.001399561396453868 
0.0005836132223655341 
0.0006793232236735329 
-0.0002733261309244633 
0.0002575804967680532 
0 
0.0006235133896279214 
0.0002733261309244633 
0.0002575804967680532 
-0.0004593468732979926 
0.0001766574728504302 
0 
0.0005460602354677281 
0.0004593468732979926 
0.0001766574728504302 
-1.749447673994731e-05 
-0.0006486847903606975 
0 
-0.0007422625218978594 
1.749447673994731e-05 
-0.0006486847903606975 
-0.0005881791718958248 
-3.060807397647414e-05 
0 
0.0005365442379261152 
0.0005881791718958248 
-3.060807397647414e-05 
-0.0005264977225430236 
0.0002750538515799928 
0 
0.000976825200465893 
0.0005264977225430236 
0.0002750538515799928 
-0.0004710466280255633 
0.000344100254400565 
0 
0.0008182090372349618 
0.0004710466280255633 
0.000344100254400565 
0.0002741225328870226 
-0.0005337682841039539 
0 
-0.0009150265445184644 
-0.0002741225328870226 
-0.0005337682841039539 
-0.0006057332673944249 
-0.0001534319004928702 
0 
0.0004567357488846617 
0.0006057332673944249 
-0.0001534319004928702 
-6.696920476645473e-05 
-0.0006653604853679112 
0 
-0.000636028502622364 
6.696920476645473e-05 
-0.0006653604853679112 
0.0001406052609863479 
-0.0007720200502750931 
0 
-0.001182776534120605 
-0.0001406052609863479 
-0.0007720200502750931 
-0.0004982794167918968 
-0.0002467205385996567 
0 
0.0002283183038617529 
0.0004982794167918968 
-0.0002467205385996567 
-5.068478846642429e-05 
-0.0003852193279901805 
0 
-0.0004777030915642905 
5.068478846642429e-05 
-0.0003852193279901805 
-0.0009709461161825415 
0.0004007746459974801 
0 
0.001443741965133657 
0.0009709461161825415 
0.0004007746459974801 
-6.306075926267412e-06 
-0.0004395231569993153 
0 
-0.0007296569081325357 
6.306075926267412e-06 
-0.0004395231569993153 
-0.0004331116402131864 
0.0008893116732600441 
0 
0.001692332711716134 
0.0004331116402131864 
0.0008893116732600441 
-0.0008126691140896309 
0.0002552002335618179 
0 
0.001060432695374422 
0.0008126691140896309 
0.0002552002335618179 
-0.0006647168304163105 
-0.0001417202395958472 
0 
0.000413511003701058 
0.0006647168304163105 
-0.0001417202395958472 
-0.0001355122419988292 
0.0004744164924309871 
0 
0.0007269366739185022 
0.0001355122419988292 
0.0004744164924309871 
0.0001296675255470954 
-0.0006204891678627741 
0 
-0.0009335873928070174 
-0.0001296675255470954 
-0.0006204891678627741 
-0.0007876099764002379 
0.0008385626186356235 
0 
0.001823200380687436 
0.0007876099764002379 
0.0008385626186356235 
-0.0004882526059971569 
-0.0005933500231256374 
0 
-0.0001163848734901239 
0.0004882526059971569 
-0.0005933500231256374 
-0.0001579457697608043 
5.794194805079741e-05 
0 
9.53653810653652e-05 
0.0001579457697608043 
5.794194805079741e-05 
0.0002814805388279602 
-0.001288657255495032 
0 
-0.002017394115725425 
-0.0002814805388279602 
-0.001288657255495032 
-0.000412929947038033 
-4.555404314538584e-05 
0 
0.000471965687710754 
0.000412929947038033 
-4.555404314538584e-05 
-9.257426549559324e-05 
-0.0004359182553280737 
0 
-0.0003329406308158408 
9.257426549559324e-05 
-0.0004359182553280737 
8.034862565707957e-05 
-0.0005485566344801211 
0 
-0.0008203761325802343 
-8.034862565707957e-05 
-0.0005485566344801211 
-0.0001517298933146092 
-0.0008703330290510109 
0 
-0.0008572732785967627 
0.0001517298933146092 
-0.0008703330290510109 
-0.0001845130211552084 
-0.0004108857381231542 
0 
-0.0001426406031338542 
0.0001845130211552084 
-0.0004108857381231542 
-0.0001860780632362801 
2.250425015536584e-05 
0 
0.0001603456063814034 
0.0001860780632362801 
2.250425015536584e-05 
0.0004220369604836653 
-0.000549781792985672 
0 
-0.001147105189932627 
-0.0004220369604836653 
-0.000549781792985672 
-0.0002399500071953162 
-0.0003252073198351 
0 
-0.0002914554551131725 
0.0002399500071953162 
-0.0003252073198351 
-0.0002371977098907878 
-2.415277801582914e-05 
0 
0.0002688348751740366 
0.0002371977098907878 
-2.415277801582914e-05 
-0.00065757218216641 
0.000679814119612993 
0 
0.001657718859341179 
0.00065757218216641 
0.000679814119612993 
-0.0002599681983280814 
0.0002172560353797464 
0 
0.0006735942838988855 
0.0002599681983280814 
0.0002172560353797464 
0.0001267750160951432 
-0.001070552587550959 
0 
-0.001558446290635816 
-0.0001267750160951432 
-0.001070552587550959 
-0.000327648031144366 
-0.0001192821344148291 
0 
0.0002753440173451861 
0.000327648031144366 
-0.0001192821344148291 
-0.0001646780816539317 
-0.0007994122638519171 
0 
-0.0007812200271236405 
0.0001646780816539317 
-0.0007994122638519171 
-8.424258424953486e-07 
-0.0008871571425578776 
0 
-0.001217551424194469 
8.424258424953486e-07 
-0.0008871571425578776 
-0.0001839779114500629 
-0.0001352735671193412 
0 
7.535742438182511e-05 
0.0001839779114500629 
-0.0001352735671193412 
-0.0005464091522777676 
8.422797991864515e-05 
0 
0.0008054831085020672 
0.0005464091522777676 
8.422797991864515e-05 
-0.0003570600350800546 
-0.0003752408356533273 
0 
2.342441713944986e-06 
0.0003570600350800546 
-0.0003752408356533273 
-0.0001720735933614919 
-7.335310471477215e-05 
0 
0.0001907706406663735 
0.0001720735933614919 
-7.335310471477215e-05 
-8.409766344115154e-05 
-0.0008163897178868931 
0 
-0.0009965689747321303 
8.409766344115154e-05 
-0.0008163897178868931 
-0.0002545175388279002 
-0.0003817206498220565 
0 
-0.0002067316821370874 
0.0002545175388279002 
-0.0003817206498220565 
-0.0002459846917694035 
-0.0001889059070444366 
0 
0.0001256104249792135 
0.0002459846917694035 
-0.0001889059070444366 
0.0001815040277997679 
-0.0003203028619956681 
0 
-0.0006010989271486753 
-0.0001815040277997679 
-0.0003203028619956681 
-4.104945096808069e-05 
-9.663161659267818e-05 
0 
-0.0002239110317964057 
4.104945096808069e-05 
-9.663161659267818e-05 
-0.0005003356309738118 
0.0004931904421039633 
0 
0.00117368483266984 
0.0005003356309738118 
0.0004931904421039633 
-0.001030924090070181 
0.0003411052337008345 
0 
0.001584626379849824 
0.001030924090070181 
0.0003411052337008345 
-0.0004472909675855423 
0.0005305918688861879 
0 
0.001397816520804287 
0.0004472909675855423 
0.0005305918688861879 
-0.000106661089759293 
-0.0004130840902498139 
0 
-0.0002987464667258358 
0.000106661089759293 
-0.0004130840902498139 
-0.0005188411531725517 
3.401633767659753e-05 
0 
0.0006771917700692773 
0.0005188411531725517 
3.401633767659753e-05 
-0.0007065174010232068 
-0.000226324935080173 
0 
0.0005174043187447665 
0.0007065174010232068 
-0.000226324935080173 
-0.0002853918739796163 
-0.0001911982829751347 
0 
4.25344235736139e-05 
0.0002853918739796163 
-0.0001911982829751347 
1.805909497646112e-05 
-0.0003196121836361656 
0 
-0.0004803909824758026 
-1.805909497646112e-05 
-0.0003196121836361656 
-0.0008705550715869291 
0.0001901029568482474 
0 
0.001327860516419297 
0.0008705550715869291 
0.0001901029568482474 
-0.0001223106683976105 
-0.0005886619095395879 
0 
-0.0004629867982929492 
0.0001223106683976105 
-0.0005886619095395879 
-0.0001059109378502688 
0.0001662344857291773 
0 
0.0004311289863527371 
0.0001059109378502688 
0.0001662344857291773 
-0.0003271400292765996 
0.0009239132956265256 
0 
0.001756550332998779 
0.0003271400292765996 
0.0009239132956265256 
-0.0004991956443858321 
-0.000127860747261762 
0 
0.0003658243264621233 
0.0004991956443858321 
-0.000127860747261762 
-0.0006686011516557348 
-4.170890251700349e-05 
0 
0.0006833738913552059 
0.0006686011516557348 
-4.170890251700349e-05 
-1.035062962992238e-06 
-0.0002564517226113205 
0 
-0.0003469687656335416 
1.035062962992238e-06 
-0.0002564517226113205 
-0.0003339658721813538 
-8.763223119687578e-05 
0 
0.0002954750039287639 
0.0003339658721813538 
-8.763223119687578e-05 
-0.0005356847385966495 
3.698190844956531e-05 
0 
0.000711460669532874 
0.0005356847385966495 
3.698190844956531e-05 
-0.0008042759793481657 
-4.779834688241791e-05 
0 
0.0008101134817536804 
0.0008042759793481657 
-4.779834688241791e-05 
-0.0001131051691621899 
-2.059990453682646e-05 
0 
0.0004003934759895381 
0.0001131051691621899 
-2.059990453682646e-05 
0.0002071647173766457 
-0.0009398979587471836 
0 
-0.001510824726040166 
-0.0002071647173766457 
-0.0009398979587471836 
-0.0001854862458539143 
0.000290249973197338 
0 
0.0008586391853454267 
0.0001854862458539143 
0.000290249973197338 
-0.0001636007534160757 
-0.0003543656344671591 
0 
-8.1237460120161e-05 
0.0001636007534160757 
-0.0003543656344671591 
-0.0001538809315241187 
-0.000636456455414117 
0 
-0.0009138957700068512 
0.0001538809315241187 
-0.000636456455414117 
1.970575365549398e-05 
-0.0004443938815080389 
0 
-0.0005562678852452786 
-1.970575365549398e-05 
-0.0004443938815080389 
-0.0002535119011841932 
-3.668045788115151e-05 
0 
0.0002159933509812666 
0.0002535119011841932 
-3.668045788115151e-05 
0.0002027167384579764 
-0.0001043231936620249 
0 
-0.000278809289512571 
-0.0002027167384579764 
-0.0001043231936620249 
-0.0001094114115875696 
-0.0002634403702513041 
0 
-0.0003126061900551068 
0.0001094114115875696 
-0.0002634403702513041 
0.0001356281338733917 
0.001281207757220335 
0 
0.002094436609338365 
-0.0001356281338733917 
0.001281207757220335 
-0.0001929428279129638 
-0.0003763977123008511 
0 
-0.0003072522043818973 
0.0001929428279129638 
-0.0003763977123008511 
2.38394363344428e-05 
-0.0003085172110022519 
0 
-0.0002980680466194464 
-2.38394363344428e-05 
-0.0003085172110022519 
0.0001354082445571253 
-0.0001278120685741036 
0 
-0.0003483891339272376 
-0.0001354082445571253 
-0.0001278120685741036 
8.338339075457443e-05 
-0.00058111220230562 
0 
-0.0009068332951954897 
-8.338339075457443e-05 
-0.00058111220230562 
-0.0003547295959094779 
-0.0004404745101693159 
0 
-0.0002039269561431154 
0.0003547295959094779 
-0.0004404745101693159 
-7.118912368535774e-05 
-0.0002931979499342947 
0 
-0.0002163272478203359 
7.118912368535774e-05 
-0.0002931979499342947 
0.0003638117151474997 
-0.0007814050300533883 
0 
-0.001295025960163784 
-0.0003638117151474997 
-0.0007814050300533883 
3.672547511156681e-05 
-0.0002055448984276881 
0 
-0.0002062453935311503 
-3.672547511156681e-05 
-0.0002055448984276881 
0.0001684814501431329 
-0.000579007735466221 
0 
-0.0008259042054384818 
-0.0001684814501431329 
-0.000579007735466221 
0.0004915803671017089 
-0.001058640214486789 
0 
-0.001819029079560206 
-0.0004915803671017089 
-0.001058640214486789 
0.0001825188627803903 
-0.001539905566875088 
0 
-0.002481125757733944 
-0.0001825188627803903 
-0.001539905566875088 
0.0004524963309593262 
-0.001232988079755736 
0 
-0.002257690010574681 
-0.0004524963309593262 
-0.001232988079755736 
0.0001183581007252786 
0.0003451296533247674 
0 
0.0005174023530503553 
-0.0001183581007252786 
0.0003451296533247674 
0.0001570432157782669 
-0.0009669548505182517 
0 
-0.001347357392197801 
-0.0001570432157782669 
-0.0009669548505182517 
0.000645556436293022 
-0.001985898712731558 
0 
-0.003173481869284908 
-0.000645556436293022 
-0.001985898712731558 
0.0001275926509634788 
-0.001474306846174019 
0 
-0.002280149339911314 
-0.0001275926509634788 
-0.001474306846174019 
0.000152540740787123 
-0.0007904711126743921 
0 
-0.001005504552253041 
-0.000152540740787123 
-0.0007904711126743921 
-0.000403676218144583 
0.0001871869985419588 
0 
0.000657032707671992 
0.000403676218144583 
0.0001871869985419588 
0.0001277314185314692 
4.020096531395612e-05 
0 
-5.029693491434115e-05 
-0.0001277314185314692 
4.020096531395612e-05 
0.0002286969983946474 
-0.0001104991601526366 
0 
-0.0004722335221853917 
-0.0002286969983946474 
-0.0001104991601526366 
0.0002330075766094738 
-0.0004736506385433334 
0 
-0.0008291868903226632 
-0.0002330075766094738 
-0.0004736506385433334 
1.281303334872308e-05 
-0.0003694963225783349 
0 
-0.0005450231057868826 
-1.281303334872308e-05 
-0.0003694963225783349 
3.278806134148229e-05 
0.0009116746775771423 
0 
0.001261580426592511 
-3.278806134148229e-05 
0.0009116746775771423 
4.550436520062098e-05 
0.0001159519442346093 
0 
-2.411222011832491e-05 
-4.550436520062098e-05 
0.0001159519442346093 
0.0001019227722091675 
-0.0003162753900475198 
0 
-0.0003099919429062663 
-0.0001019227722091675 
-0.0003162753900475198 
0.0006652183577704481 
-0.001275852930703692 
0 
-0.002411605378519479 
-0.0006652183577704481 
-0.001275852930703692 
2.789100585959271e-05 
-0.001130202043193746 
0 
-0.001978395732228297 
-2.789100585959271e-05 
-0.001130202043193746 
0.0006265022472314323 
-0.0009866059767033929 
0 
-0.00194422054325303 
-0.0006265022472314323 
-0.0009866059767033929 
-0.0002173824031720525 
0.0003048872391939612 
0 
0.0005471316224286091 
0.0002173824031720525 
0.0003048872391939612 
0.0002950711186131934 
-9.341285555816105e-05 
0 
-0.0004095178764910957 
-0.0002950711186131934 
-9.341285555816105e-05 
0.0005263448043038686 
-0.001414526509974906 
0 
-0.002395809482891501 
-0.0005263448043038686 
-0.001414526509974906 
-0.0002371492260759322 
-0.000185781579948433 
0 
-1.555311696327901e-05 
0.0002371492260759322 
-0.000185781579948433 
-8.259963071233013e-05 
-0.0006623473331509858 
0 
-0.0007708056102653037 
8.259963071233013e-05 
-0.0006623473331509858 
-0.0005166149942197449 
0.0003951378413681487 
0 
0.001053855952328065 
0.0005166149942197449 
0.0003951378413681487 
0.0003309306879353542 
-0.000670598322682981 
0 
-0.001214331449148077 
-0.0003309306879353542 
-0.000670598322682981 
-9.134179131025717e-05 
-0.000363419797950825 
0 
-0.0003113832306666718 
9.134179131025717e-05 
-0.000363419797950825 
-0.0001874751029000919 
0.0001906408727996389 
0 
0.0004070032779220757 
0.0001874751029000919 
0.0001906408727996389 
-6.53377961910337e-05 
-0.0009176134930234554 
0 
-0.001352389645588937 
6.53377961910337e-05 
-0.0009176134930234554 
7.360929020294584e-05 
0.0007035096040174314 
0 
0.001275400660064556 
-7.360929020294584e-05 
0.0007035096040174314 
-0.0003188024575537122 
-0.0005897293222031817 
0 
-0.0004863812137140721 
0.0003188024575537122 
-0.0005897293222031817 
-0.0004244260507105054 
-0.0002418018161998652 
0 
0.0002301283965075479 
0.0004244260507105054 
-0.0002418018161998652 
-0.0003207257480251014 
0.0003254155853707947 
0 
0.0006605678962189309 
0.0003207257480251014 
0.0003254155853707947 
-0.0002487197474154622 
-0.0006494801319144729 
0 
-0.0008358518890829223 
0.0002487197474154622 
-0.0006494801319144729 
0.0004064333536038179 
-0.0004613582728596267 
0 
-0.0009595325880930178 
-0.0004064333536038179 
-0.0004613582728596267 
-0.0003347208613987531 
0.0007003586900696525 
0 
0.001351641075764663 
0.0003347208613987531 
0.0007003586900696525 
-0.0001714319971953394 
-0.0003575592556275331 
0 
-0.0001162008828045709 
0.0001714319971953394 
-0.0003575592556275331 
0.0001368447867579094 
-0.0009906451599486948 
0 
-0.001541711553858222 
-0.0001368447867579094 
-0.0009906451599486948 
-0.0002321924963654263 
-0.0001976098920955676 
0 
-1.536970311602753e-05 
0.0002321924963654263 
-0.0001976098920955676 
-0.0003635809545008804 
-0.000409098000112126 
0 
-1.12037639385461e-05 
0.0003635809545008804 
-0.000409098000112126 
-0.0006672024229494005 
0.0001136112490867427 
0 
0.001003456234603448 
0.0006672024229494005 
0.0001136112490867427 
0.000655072028051192 
-0.0006258671069460375 
0 
-0.001494493626338298 
-0.000655072028051192 
-0.0006258671069460375 
-0.0001419824217483469 
-0.0002175045459771324 
0 
-0.0001988458229331495 
0.0001419824217483469 
-0.0002175045459771324 
0.0003641291971821853 
-0.0007637591627175905 
0 
-0.001378496358699543 
-0.0003641291971821853 
-0.0007637591627175905 
-0.0004235993175282747 
-0.000303134887844594 
0 
-2.207234318112924e-05 
0.0004235993175282747 
-0.000303134887844594 
-0.0003839365748686978 
2.544715975086216e-05 
0 
0.0006638894571863344 
0.0003839365748686978 
2.544715975086216e-05 
0.0001449102884730915 
-0.0001749571943288334 
0 
-0.0004703888101721452 
-0.0001449102884730915 
-0.0001749571943288334 
-0.0005567687015040239 
-0.0002889046533458605 
0 
0.0003806200946312985 
0.0005567687015040239 
-0.0002889046533458605 
-0.0005954129843300809 
8.251047232119909e-05 
0 
0.0009318786074757764 
0.0005954129843300809 
8.251047232119909e-05 
-0.000329120958038073 
0.000166296150113591 
0 
0.0006277252791357477 
0.000329120958038073 
0.000166296150113591 
0.0004136602945117903 
-0.0008520861339738047 
0 
-0.001412844700546878 
-0.0004136602945117903 
-0.0008520861339738047 
-0.0006327775844456416 
5.919713787419914e-05 
0 
0.0008779753059843835 
0.0006327775844456416 
5.919713787419914e-05 
-0.0002619063477167424 
-0.0001692808941516996 
0 
0.0003838519760177424 
0.0002619063477167424 
-0.0001692808941516996 
0.0001777303703201652 
-0.001057348283750453 
0 
-0.001750060548079493 
-0.0001777303703201652 
-0.001057348283750453 
-0.0003236476331760243 
-0.001285327805377623 
0 
-0.001367385957082536 
0.0003236476331760243 
-0.001285327805377623 
-0.0004341634400577491 
-0.0006578722110351223 
0 
-0.0004302148533612681 
0.0004341634400577491 
-0.0006578722110351223 
-0.0003533752009193063 
0.0003579644249150401 
0 
0.0009508249198127382 
0.0003533752009193063 
0.0003579644249150401 
-0.0001075163745270475 
0.0001988717268030272 
0 
0.0003319703218467264 
0.0001075163745270475 
0.0001988717268030272 
3.872995745018219e-05 
-0.0009944812710419664 
0 
-0.001186701551418254 
-3.872995745018219e-05 
-0.0009944812710419664 
-0.0001064377482090291 
-0.0001013714466585951 
0 
0.000227333597845213 
0.0001064377482090291 
-0.0001013714466585951 
-0.0004936045668809109 
0.0001862678467457493 
0 
0.0008484554363915867 
0.0004936045668809109 
0.0001862678467457493 
-0.0008227993028393671 
-0.0005960461057442502 
0 
6.387077234094723e-05 
0.0008227993028393671 
-0.0005960461057442502 
0.0001303680714413918 
-0.00036612692428095 
0 
-0.0005848049937378704 
-0.0001303680714413918 
-0.00036612692428095 
-0.0003573598713869878 
0.0002479819872875738 
0 
0.0007494895561230878 
0.0003573598713869878 
0.0002479819872875738 
-2.33032841533005e-06 
-0.0003602647429687423 
0 
-0.0004274930357394098 
2.33032841533005e-06 
-0.0003602647429687423 
-7.671440626889084e-06 
0.0002299520309521991 
0 
0.0001682930167063592 
7.671440626889084e-06 
0.0002299520309521991 
6.228972911679113e-05 
-0.0008714764810686957 
0 
-0.001367593598641791 
-6.228972911679113e-05 
-0.0008714764810686957 
0.0001672153201368586 
-0.0004692412292473154 
0 
-0.001014339469486099 
-0.0001672153201368586 
-0.0004692412292473154 
-0.0004173382347874236 
-0.0001041643708456683 
0 
0.0002850384663298699 
0.0004173382347874236 
-0.0001041643708456683 
0.0002130822836428816 
-0.0004749367647614196 
0 
-0.000994454951155629 
-0.0002130822836428816 
-0.0004749367647614196 
-0.0002496910119038776 
0.0003100055202449264 
0 
0.0006960542892824365 
0.0002496910119038776 
0.0003100055202449264 
-0.0001265915846899963 
-0.0004997360021439681 
0 
-0.0004649577239236432 
0.0001265915846899963 
-0.0004997360021439681 
-0.0006693067818726774 
-0.0002426886284795294 
0 
0.0004467753936871021 
0.0006693067818726774 
-0.0002426886284795294 
0.0005314660120825492 
-0.0004262367446410909 
0 
-0.0010228712933879 
-0.0005314660120825492 
-0.0004262367446410909 
-0.0002975996420432442 
-0.0005960485994292739 
0 
-0.0007304454823817415 
0.0002975996420432442 
-0.0005960485994292739 
-0.0001206666569906991 
-0.0006157810572295478 
0 
-0.0007002390554396989 
0.0001206666569906991 
-0.0006157810572295478 
-0.0001048262420701847 
-0.0006305205701348127 
0 
-0.0006469715143090295 
0.0001048262420701847 
-0.0006305205701348127 
-6.115795439634727e-05 
-0.0007729004388008838 
0 
-0.000994520647873568 
6.115795439634727e-05 
-0.0007729004388008838 
0.0002965679017049275 
-0.0008262671497797857 
0 
-0.001446077378792826 
-0.0002965679017049275 
-0.0008262671497797857 
-0.001074904019813803 
0.0009637840718082341 
0 
0.002385214389554277 
0.001074904019813803 
0.0009637840718082341 
-0.0004212414144963854 
-0.0005031302922025593 
0 
6.76546601156407e-05 
0.0004212414144963854 
-0.0005031302922025593 
-0.000364951971056037 
0.0007012322798459048 
0 
0.001036592927223882 
0.000364951971056037 
0.0007012322798459048 
9.062763466677947e-05 
-0.001315776217081441 
0 
-0.00199305552539817 
-9.062763466677947e-05 
-0.001315776217081441 
-0.0002051124293818719 
0.0003734732294357276 
0 
0.0009245336771487976 
0.0002051124293818719 
0.0003734732294357276 
-0.0001823119389538346 
-0.0007771552413310378 
0 
-0.0009367519817871329 
0.0001823119389538346 
-0.0007771552413310378 
-6.075187139519556e-05 
-0.0005537867189562109 
0 
-0.0006310114290455572 
6.075187139519556e-05 
-0.0005537867189562109 
-0.0006622115854325093 
-0.0002137784482054874 
0 
0.0001405703267383262 
0.0006622115854325093 
-0.0002137784482054874 
-0.0001191201865850368 
-0.0007083557604957474 
0 
-0.0006113849457045656 
0.0001191201865850368 
-0.0007083557604957474 
-0.0004309058345908548 
0.0001863785792111992 
0 
0.0007069846278279743 
0.0004309058345908548 
0.0001863785792111992 
0.0004288120997050335 
-0.0002590932627067365 
0 
-0.0009085954027641162 
-0.0004288120997050335 
-0.0002590932627067365 
-0.0003974599517126021 
0.0002082275668408262 
0 
0.0005262327832595471 
0.0003974599517126021 
0.0002082275668408262 
-6.912846185273984e-05 
-0.0008041857700380197 
0 
-0.0009508459291952277 
6.912846185273984e-05 
-0.0008041857700380197 
-0.0005144953448193514 
-0.0002263998942133724 
0 
0.000249005448319321 
0.0005144953448193514 
-0.0002263998942133724 
-0.0005631496507814048 
0.0001837205940446007 
0 
0.000685376929937025 
0.0005631496507814048 
0.0001837205940446007 
0.0002562031794105597 
-0.0006461782088481575 
0 
-0.001153236014365521 
-0.0002562031794105597 
-0.0006461782088481575 
-0.0006087682017486613 
0.0008341225486215386 
0 
0.001802281231129788 
0.0006087682017486613 
0.0008341225486215386 
-0.0001995793756602305 
-0.0001238934154026253 
0 
-6.692137137115478e-05 
0.0001995793756602305 
-0.0001238934154026253 
0.0001215177066302784 
0.0007475213909615647 
0 
0.0008235383673989118 
-0.0001215177066302784 
0.0007475213909615647 
0.0002409541111569682 
-0.0004339625009787626 
0 
-0.001105250790667689 
-0.0002409541111569682 
-0.0004339625009787626 
-0.0006708824427045007 
0.000770792950502179 
0 
0.001442856555141238 
0.0006708824427045007 
0.000770792950502179 
-5.223748230313045e-05 
-0.0003015190788052654 
0 
-0.0003227232091428228 
5.223748230313045e-05 
-0.0003015190788052654 
0.0009376623111708786 
-0.001123728814986919 
0 
-0.002554658497226514 
-0.0009376623111708786 
-0.001123728814986919 
-0.0004927655819690883 
-0.0009369943056111378 
0 
-0.001011691215970394 
0.0004927655819690883 
-0.0009369943056111378 
-0.0001760537739129446 
-0.0007706655085560733 
0 
-0.0009090662995520984 
0.0001760537739129446 
-0.0007706655085560733 
-6.65396973145776e-05 
-0.0003653772544915778 
0 
-0.0004278388256861686 
6.65396973145776e-05 
-0.0003653772544915778 
0.0008592684932294167 
-0.001342061962407576 
0 
-0.002804122366784876 
-0.0008592684932294167 
-0.001342061962407576 
0.0001660277173311602 
-0.001004905414244091 
0 
-0.001697187105435598 
-0.0001660277173311602 
-0.001004905414244091 
-0.0001043578603557576 
-9.61356626311114e-05 
0 
8.858585227889869e-05 
0.0001043578603557576 
-9.61356626311114e-05 
-0.0006761376421791092 
4.217572826503317e-05 
0 
0.0009246630398940579 
0.0006761376421791092 
4.217572826503317e-05 
7.410198216154104e-07 
-6.485088006397573e-05 
0 
-1.236029884041922e-05 
-7.410198216154104e-07 
-6.485088006397573e-05 
0.0008704777654139386 
-0.001678543732158795 
0 
-0.003193380327352013 
-0.0008704777654139386 
-0.001678543732158795 
-0.0002713422964482942 
0.0001440792254157775 
0 
0.0005050925771506836 
0.0002713422964482942 
0.0001440792254157775 
-3.870320912904205e-05 
-0.000604884039734082 
0 
-0.0008283408985224971 
3.870320912904205e-05 
-0.000604884039734082 
0.0001129862820013839 
-6.84321947539585e-05 
0 
-0.0002247168111450036 
-0.0001129862820013839 
-6.84321947539585e-05 
0.0003896885245211764 
-0.0006113171341947576 
0 
-0.001265445482025351 
-0.0003896885245211764 
-0.0006113171341947576 
-0.0006727146999299133 
0.0005691808658747894 
0 
0.001420894979133426 
0.0006727146999299133 
0.0005691808658747894 
0.0001698255454510615 
-0.0003025618676007709 
0 
-0.0006121926082113375 
-0.0001698255454510615 
-0.0003025618676007709 
0.0001831847849853585 
-0.0007101087023010043 
0 
-0.00121381485785711 
-0.0001831847849853585 
-0.0007101087023010043 
-0.0003552074823353006 
0.0004713079731113932 
0 
0.0006895819191277168 
0.0003552074823353006 
0.0004713079731113932 
-9.059682728730694e-05 
-0.0009389620391646053 
0 
-0.001276134774019531 
9.059682728730694e-05 
-0.0009389620391646053 
-0.0002927682687826656 
-0.0001904779574901417 
0 
-7.246422561532418e-05 
0.0002927682687826656 
-0.0001904779574901417 
0.0002728115304923568 
-0.0008187320281323255 
0 
-0.001522431176615665 
-0.0002728115304923568 
-0.0008187320281323255 
-0.0003097401777335789 
-0.0004593206206746668 
0 
-0.0005219221253786021 
0.0003097401777335789 
-0.0004593206206746668 
-0.0002129110132656142 
7.357697631322294e-05 
0 
0.0002894667637300766 
0.0002129110132656142 
7.357697631322294e-05 
-0.0002441013483750947 
0.0003375619200850725 
0 
0.0007893124978487785 
0.0002441013483750947 
0.0003375619200850725 
-0.0006182879633601413 
6.419449445104275e-05 
0 
0.0006689328267770799 
0.0006182879633601413 
6.419449445104275e-05 
0.0005448552655960778 
-0.0008161894480925992 
0 
-0.001706667559097314 
-0.0005448552655960778 
-0.0008161894480925992 
-0.0003954770761027756 
0.0006154501136785136 
0 
0.001095539156722964 
0.0003954770761027756 
0.0006154501136785136 
-0.0005974358089082042 
0.0002195601824674633 
0 
0.0009931962854560607 
0.0005974358089082042 
0.0002195601824674633 
-0.0002016401693256561 
-0.0002319099233203733 
0 
-0.0004315387108439612 
0.0002016401693256561 
-0.0002319099233203733 
0.0004965695773533891 
-0.001459836913745436 
0 
-0.002495185077374709 
-0.0004965695773533891 
-0.001459836913745436 
-0.0003437675686702558 
0.0004530541412255491 
0 
0.001085394178129462 
0.0003437675686702558 
0.0004530541412255491 
-0.0001236810528383228 
-0.000207085488148624 
0 
-0.0001853563259900537 
0.0001236810528383228 
-0.000207085488148624 
4.918671467999968e-05 
-0.001020843945399208 
0 
-0.001364924884743885 
-4.918671467999968e-05 
-0.001020843945399208 
0.000110775579628292 
-0.001211668686570504 
0 
-0.001832729878268891 
-0.000110775579628292 
-0.001211668686570504 
8.830613120832559e-05 
-0.0006782367154472674 
0 
-0.0007997122450920993 
-8.830613120832559e-05 
-0.0006782367154472674 
-0.0003343769376497089 
-0.000148162918876694 
0 
-2.228046655990126e-05 
0.0003343769376497089 
-0.000148162918876694 
0.0005647673201171508 
-0.001024398582357321 
0 
-0.00207277709749488 
-0.0005647673201171508 
-0.001024398582357321 
0.0004355795597276169 
-0.0001398209610645187 
0 
-0.0005716096706668371 
-0.0004355795597276169 
-0.0001398209610645187 
-2.649018539982635e-05 
-0.0002995154493765575 
0 
-0.0003014031530606622 
2.649018539982635e-05 
-0.0002995154493765575 
-0.0005626952957403635 
-0.0002913370240876906 
0 
5.779354673859172e-05 
0.0005626952957403635 
-0.0002913370240876906 
8.932477274516378e-05 
-0.0005459060284731235 
0 
-0.0008988062448633863 
-8.932477274516378e-05 
-0.0005459060284731235 
0.0004769920307068135 
-0.001515977469114837 
0 
-0.002456386223426185 
-0.0004769920307068135 
-0.001515977469114837 
-0.0004119792416230529 
-0.0003183056834543143 
0 
-5.599047330057335e-05 
0.0004119792416230529 
-0.0003183056834543143 
-9.894276150772618e-05 
-0.0005960029237164259 
0 
-0.0007325576923688112 
9.894276150772618e-05 
-0.0005960029237164259 
0.0001612522905347697 
-0.0002593341867388628 
0 
-0.0006834945841554313 
-0.0001612522905347697 
-0.0002593341867388628 
-7.880488297133126e-05 
-0.0009313775958411121 
0 
-0.001257388081061465 
7.880488297133126e-05 
-0.0009313775958411121 
-0.0004023863027932566 
-0.00018800734903638 
0 
0.0001583184489375943 
0.0004023863027932566 
-0.00018800734903638 
-0.0004151357315052164 
-0.0003500561317786064 
0 
-4.044454942355789e-06 
0.0004151357315052164 
-0.0003500561317786064 
0.0003615719545869476 
-0.0008697419111947341 
0 
-0.001558749579035018 
-0.0003615719545869476 
-0.0008697419111947341 
-0.0005265815216981692 
7.962823319495603e-05 
0 
0.0007527187179442065 
0.0005265815216981692 
7.962823319495603e-05 
-0.0001956533074517729 
-0.0005606664963978458 
0 
-0.000622352888054808 
0.0001956533074517729 
-0.0005606664963978458 
-0.0003526440886798721 
-0.000172560676878562 
0 
0.000220057831546984 
0.0003526440886798721 
-0.000172560676878562 
0.0003187274718878299 
-0.0007626181095261602 
0 
-0.001392711062335469 
-0.0003187274718878299 
-0.0007626181095261602 
6.664251203530664e-06 
0.001071214855938768 
0 
0.001344300936967184 
-6.664251203530664e-06 
0.001071214855938768 
-0.0001648768202631498 
-0.000284858996374234 
0 
-0.0001525352628718727 
0.0001648768202631498 
-0.000284858996374234 
-0.0004580774145778015 
-0.0004955204284357924 
0 
-0.0001665775563029844 
0.0004580774145778015 
-0.0004955204284357924 
-3.535596674556557e-05 
-0.0005274514105844624 
0 
-0.0005562413021199125 
3.535596674556557e-05 
-0.0005274514105844624 
0.0002742305613578382 
-0.001027080359630774 
0 
-0.00152491004238121 
-0.0002742305613578382 
-0.001027080359630774 
-0.0002085397471600969 
-0.000558865002462551 
0 
-0.0003900157446663029 
0.0002085397471600969 
-0.000558865002462551 
-0.0001759299778819389 
-0.0009528976810609136 
0 
-0.0009745628726445704 
0.0001759299778819389 
-0.0009528976810609136 
-2.640067184900923e-05 
-0.0005721663124106913 
0 
-0.0008000230002617376 
2.640067184900923e-05 
-0.0005721663124106913 
0.000397944227232206 
-0.001120403651132009 
0 
-0.001934598012088544 
-0.000397944227232206 
-0.001120403651132009 
0.0001362950830793635 
0.000106492849604948 
0 
1.470754379210376e-05 
-0.0001362950830793635 
0.000106492849604948 
0.0001676800329368197 
-0.0009875296598999199 
0 
-0.001469525193995789 
-0.0001676800329368197 
-0.0009875296598999199 
0.0003792585850090577 
-0.0008595012682871649 
0 
-0.001511830153544051 
-0.0003792585850090577 
-0.0008595012682871649 
-3.728803111200798e-05 
-0.0003353158881169179 
0 
-0.0003843735447855328 
3.728803111200798e-05 
-0.0003353158881169179 
0.0003150896251269324 
-0.000828181314558973 
0 
-0.001245249238147476 
-0.0003150896251269324 
-0.000828181314558973 
-0.0004749529040538532 
7.196459145003292e-05 
0 
0.0007018092403773467 
0.0004749529040538532 
7.196459145003292e-05 
-9.960099440064181e-05 
-0.0004715277982558888 
0 
-0.0006628316800924535 
9.960099440064181e-05 
-0.0004715277982558888 
0.0001388113538405049 
0.0002793193791544231 
0 
4.041331171094781e-05 
-0.0001388113538405049 
0.0002793193791544231 
-0.0001355098303712155 
-0.0002040788342859113 
0 
-1.001046908314653e-05 
0.0001355098303712155 
-0.0002040788342859113 
-0.0005180758879912197 
0.0004854003326240807 
0 
0.001062090317499522 
0.0005180758879912197 
0.0004854003326240807 
-0.0001080049793071325 
-0.0002590242048231297 
0 
-0.0002399366555649729 
0.0001080049793071325 
-0.0002590242048231297 
0.0004343173777775672 
-0.0006500794278877767 
0 
-0.001322176290950644 
-0.0004343173777775672 
-0.0006500794278877767 
-0.0002812039045846029 
0.0001381939331003481 
0 
0.000556996784319467 
0.0002812039045846029 
0.0001381939331003481 
-0.000467124895248878 
-0.0003968153642353306 
0 
4.871917645087727e-05 
0.000467124895248878 
-0.0003968153642353306 
0.0002533439347243831 
-0.0009459309786890005 
0 
-0.001797866785883158 
-0.0002533439347243831 
-0.0009459309786890005 
0.0006330992212171433 
-0.00167465709809827 
0 
-0.003041809883730279 
-0.0006330992212171433 
-0.00167465709809827 
0.0004621731781607114 
-0.0004031897526951047 
0 
-0.001057998636088698 
-0.0004621731781607114 
-0.0004031897526951047 
0.0001023546085960095 
-0.0008391838942252252 
0 
-0.001255917377177459 
-0.0001023546085960095 
-0.0008391838942252252 
0.0003150755713516727 
-0.0009090619772153097 
0 
-0.001529435569642627 
-0.0003150755713516727 
-0.0009090619772153097 
-0.0005267579426243646 
7.500416453238696e-05 
0 
0.0005994367482913651 
0.0005267579426243646 
7.500416453238696e-05 
-0.0002493623708277095 
-0.0006735288680311683 
0 
-0.0005527643056238338 
0.0002493623708277095 
-0.0006735288680311683 
-8.577632123587111e-05 
-0.0002355657731895494 
0 
-0.0003426926235052599 
8.577632123587111e-05 
-0.0002355657731895494 
0.0003459113991452097 
-0.000360000552657009 
0 
-0.0007660215932645619 
-0.0003459113991452097 
-0.000360000552657009 
-9.314074438959797e-05 
0.0003391895244723949 
0 
0.0006341846466609784 
9.314074438959797e-05 
0.0003391895244723949 
-7.880660161877841e-05 
-6.090133329387117e-05 
0 
1.127329683063898e-05 
7.880660161877841e-05 
-6.090133329387117e-05 
-0.0003652636051323349 
0.0002932872530041097 
0 
0.0009696298736386636 
0.0003652636051323349 
0.0002932872530041097 
-0.000320597386702339 
5.527488557758875e-06 
0 
0.0003916613865250633 
0.000320597386702339 
5.527488557758875e-06 
0.0002085466973694342 
-0.000625530616000404 
0 
-0.001060295050228409 
-0.0002085466973694342 
-0.000625530616000404 
-0.0002189369690411461 
0.000747428522921538 
0 
0.001243925882951987 
0.0002189369690411461 
0.000747428522921538 
7.611749979551201e-05 
-0.0008256389639868177 
0 
-0.001129671778641545 
-7.611749979551201e-05 
-0.0008256389639868177 
-2.833733628416507e-06 
-0.001422937069971617 
0 
-0.00226573880625273 
2.833733628416507e-06 
-0.001422937069971617 
0.0005499174229645702 
-0.0007748048432004986 
0 
-0.001675131348565906 
-0.0005499174229645702 
-0.0007748048432004986 
-0.0005711218704761757 
-0.0004788040010630783 
0 
0.0002180314418885306 
0.0005711218704761757 
-0.0004788040010630783 
4.550143947301096e-06 
-7.781574358577437e-05 
0 
6.701546046569699e-05 
-4.550143947301096e-06 
-7.781574358577437e-05 
-7.856111974014859e-05 
-0.000658264470197738 
0 
-0.0008209195865116213 
7.856111974014859e-05 
-0.000658264470197738 
-0.0001217800186668033 
-0.0007191573436162642 
0 
-0.0008306548019231915 
0.0001217800186668033 
-0.0007191573436162642 
-0.0001474339166988111 
-0.0008338239487935155 
0 
-0.0008550086165880278 
0.0001474339166988111 
-0.0008338239487935155 
-0.0003452703891071502 
-0.0001123146651772563 
0 
0.0001754907549519712 
0.0003452703891071502 
-0.0001123146651772563 
3.138894601591447e-05 
-2.344408778588085e-05 
0 
-0.0001268466351636919 
-3.138894601591447e-05 
-2.344408778588085e-05 
-0.0005978940928559414 
-6.13298634395644e-06 
0 
0.0004313638019340965 
0.0005978940928559414 
-6.13298634395644e-06 
-0.0001084037063890323 
0.0001059530347045182 
0 
0.0004089157940183836 
0.0001084037063890323 
0.0001059530347045182 
-0.0003781458060586781 
0.0003388166576758858 
0 
0.0008360097924324573 
0.0003781458060586781 
0.0003388166576758858 
-0.0002877231371809201 
7.760717225549636e-05 
0 
0.0002567467216114043 
0.0002877231371809201 
7.760717225549636e-05 
-4.267154564813706e-05 
-0.000849606980082411 
0 
-0.001089009034705223 
4.267154564813706e-05 
-0.000849606980082411 
-0.0002580857327549171 
-8.066817866588017e-05 
0 
8.027621766288766e-05 
0.0002580857327549171 
-8.066817866588017e-05 
4.343422668912082e-06 
-0.0003519115747835116 
0 
-0.000322196935269898 
-4.343422668912082e-06 
-0.0003519115747835116 
-0.0002798927983909084 
-0.000472112643983266 
0 
-0.0005156481669186395 
0.0002798927983909084 
-0.000472112643983266 
0.0005151564182461099 
-0.0006168426183865768 
0 
-0.001173394648372929 
-0.0005151564182461099 
-0.0006168426183865768 
-0.0003381707736564805 
-0.0002944361457132347 
0 
9.124740241129942e-05 
0.0003381707736564805 
-0.0002944361457132347 
1.361608104120892e-05 
-0.0003232449650843633 
0 
-0.0003295570668819553 
-1.361608104120892e-05 
-0.0003232449650843633 
0.0005649925375673339 
-0.001658582684035392 
0 
-0.002766457678959521 
-0.0005649925375673339 
-0.001658582684035392 
-0.0001210672195796807 
-0.0007821126439722168 
0 
-0.0007007673820605206 
0.0001210672195796807 
-0.0007821126439722168 
0.0001554054405229826 
5.408969249086254e-05 
0 
-0.0001127868525792936 
-0.0001554054405229826 
5.408969249086254e-05 
-0.0002614063228394807 
-0.0004456662117467504 
0 
-0.0002717411008618883 
0.0002614063228394807 
-0.0004456662117467504 
-5.86309449161475e-05 
-0.0001493410766964691 
0 
-0.0001515717584172126 
5.86309449161475e-05 
-0.0001493410766964691 
-0.0003974620199617102 
0.0002923177149524905 
0 
0.00060135833273828 
0.0003974620199617102 
0.0002923177149524905 
-0.0004801005948192126 
6.294377385117083e-05 
0 
0.0007724004674894304 
0.0004801005948192126 
6.294377385117083e-05 
-0.0004461599122611144 
8.953719473877039e-05 
0 
0.0007162443479157486 
0.0004461599122611144 
8.953719473877039e-05 
-0.0002961180347025264 
-0.0004414533635523048 
0 
-0.0002627273411455409 
0.0002961180347025264 
-0.0004414533635523048 
-7.27692093645528e-05 
-0.0004453327085009224 
0 
-0.0004438788079534994 
7.27692093645528e-05 
-0.0004453327085009224 
-0.0004268860985649829 
-0.0005733493069364239 
0 
-0.0002051825398082504 
0.0004268860985649829 
-0.0005733493069364239 
-0.0001773711389931783 
-0.0004095437226123418 
0 
-4.087116737304727e-05 
0.0001773711389931783 
-0.0004095437226123418 
-1.970439734591026e-05 
-0.001594031260682233 
0 
-0.002291331253157252 
1.970439734591026e-05 
-0.001594031260682233 
0.000207844068846645 
-0.0004877113639965694 
0 
-0.0008260452234846768 
-0.000207844068846645 
-0.0004877113639965694 
-0.0004772603413303694 
-0.0004875971695588295 
0 
-0.0001081560347427945 
0.0004772603413303694 
-0.0004875971695588295 
-1.37851149869436e-05 
-0.0001821890122280434 
0 
-7.940731359549296e-05 
1.37851149869436e-05 
-0.0001821890122280434 
-8.144514659203489e-05 
7.672637303978146e-05 
0 
0.0002236245416419454 
8.144514659203489e-05 
7.672637303978146e-05 
-0.0003303256706834467 
0.001079171121728256 
0 
0.001846251124281963 
0.0003303256706834467 
0.001079171121728256 
-0.0001528864700920367 
-0.000977881036493351 
0 
-0.001007582611631907 
0.0001528864700920367 
-0.000977881036493351 
-0.0003611908251325463 
0.000368303871843815 
0 
0.0009642506327287682 
0.0003611908251325463 
0.000368303871843815 
-0.0003193511565503579 
0.001115663491984327 
0 
0.001775933589570702 
0.0003193511565503579 
0.001115663491984327 
-0.0002948765986448359 
0.0005991708514280825 
0 
0.001018101225198774 
0.0002948765986448359 
0.0005991708514280825 
4.271868323478839e-05 
-0.0007750067289801904 
0 
-0.0009694332035846367 
-4.271868323478839e-05 
-0.0007750067289801904 
-0.0004294854802785335 
-0.0005252818191523875 
0 
-0.0001757870979043492 
0.0004294854802785335 
-0.0005252818191523875 
0.0001100606980935965 
-0.0006202155202877191 
0 
-0.0007429629178623817 
-0.0001100606980935965 
-0.0006202155202877191 
0.0001726449262165161 
-0.00112627305946395 
0 
-0.001710661951453677 
-0.0001726449262165161 
-0.00112627305946395 
6.165516804403789e-05 
-0.000150793536941385 
0 
-8.224782338251342e-05 
-6.165516804403789e-05 
-0.000150793536941385 
-0.0001811366494198877 
-0.000162023254988134 
0 
0.0001819607899852633 
0.0001811366494198877 
-0.000162023254988134 
-0.0001156286958351798 
0.0002487730315548613 
0 
0.000271274865830585 
0.0001156286958351798 
0.0002487730315548613 
0.0002331036525639649 
-0.0002361768823263671 
0 
-0.0006502028099906931 
-0.0002331036525639649 
-0.0002361768823263671 
-0.0002568400102200284 
-0.0002734657902523399 
0 
2.876513665846194e-05 
0.0002568400102200284 
-0.0002734657902523399 
6.94386239514464e-05 
-0.0003928052345667991 
0 
-0.0005663294039616541 
-6.94386239514464e-05 
-0.0003928052345667991 
7.903376302073847e-05 
-0.0001577974715173925 
0 
-0.0002297722689648997 
-7.903376302073847e-05 
-0.0001577974715173925 
5.787137503979866e-05 
0.001042156394250576 
0 
0.001602292006109396 
-5.787137503979866e-05 
0.001042156394250576 
-1.637847516246871e-05 
-0.0003175050650877381 
0 
-0.0005096518296268627 
1.637847516246871e-05 
-0.0003175050650877381 
-8.702367311857483e-05 
9.251143704541135e-05 
0 
0.0002438500281047045 
8.702367311857483e-05 
9.251143704541135e-05 
-2.542776534278685e-05 
0.0005622423407687649 
0 
0.0007038804083325559 
2.542776534278685e-05 
0.0005622423407687649 
-0.000196048922125036 
-9.207087578005906e-05 
0 
-3.584216334930339e-05 
0.000196048922125036 
-9.207087578005906e-05 
0.0001391159187079674 
-0.0007815910552981604 
0 
-0.001122642657597022 
-0.0001391159187079674 
-0.0007815910552981604 
1.620936969933396e-05 
-0.0002966013248616466 
0 
-0.0003406418281668088 
-1.620936969933396e-05 
-0.0002966013248616466 
0.0001522873874713688 
-0.001563410458713132 
0 
-0.002523573340715363 
-0.0001522873874713688 
-0.001563410458713132 
7.129086608001096e-05 
0.0004427809366494596 
0 
0.0005801877125706457 
-7.129086608001096e-05 
0.0004427809366494596 
-0.0001837708389919656 
-0.0008519957086355826 
0 
-0.0008031665672972178 
0.0001837708389919656 
-0.0008519957086355826 
0.0002130991548585843 
-0.0007036526283117168 
0 
-0.0009405237622909956 
-0.0002130991548585843 
-0.0007036526283117168 
0.0005762162949501398 
-0.001722826668950919 
0 
-0.003032395966630249 
-0.0005762162949501398 
-0.001722826668950919 
0.0003044591926850525 
-0.0009966355786110307 
0 
-0.001655055823936059 
-0.0003044591926850525 
-0.0009966355786110307 
8.14882538003175e-05 
-0.0005667547604257399 
0 
-0.0009666702489540499 
-8.14882538003175e-05 
-0.0005667547604257399 
-4.058395613182779e-05 
-0.0001639480155705875 
0 
2.901650730397505e-05 
4.058395613182779e-05 
-0.0001639480155705875 
0.000388639853674519 
-0.001632032839233394 
0 
-0.00256842450282283 
-0.000388639853674519 
-0.001632032839233394 
0.0002261696010582847 
-0.001434302232611742 
0 
-0.002355806172578328 
-0.0002261696010582847 
-0.001434302232611742 
-0.0002242876763449793 
-0.0002615168825381068 
0 
-8.042612417680163e-05 
0.0002242876763449793 
-0.0002615168825381068 
-0.0001917060288260035 
-0.0003625287772476462 
0 
-0.0003132187269307861 
0.0001917060288260035 
-0.0003625287772476462 
0.0003214216523482899 
-0.000984356272550186 
0 
-0.001637502475490135 
-0.0003214216523482899 
-0.000984356272550186 
0.0001122003151452814 
-0.0004723894016548919 
0 
-0.0008736161046370036 
-0.0001122003151452814 
-0.0004723894016548919 
0.0002915215058213502 
-0.0002790904253787798 
0 
-0.0007138346971419416 
-0.0002915215058213502 
-0.0002790904253787798 
-0.0001000357175711422 
-3.587531411869272e-05 
0 
-6.58218663397301e-05 
0.0001000357175711422 
-3.587531411869272e-05 
-7.63099947333358e-05 
0.0006907668109190694 
0 
0.001010555513686497 
7.63099947333358e-05 
0.0006907668109190694 
8.478927147209568e-05 
-0.0001486674928074582 
0 
-0.0004790952485556124 
-8.478927147209568e-05 
-0.0001486674928074582 
-3.485587155152288e-05 
-0.001027844757753371 
0 
-0.001172612759959123 
3.485587155152288e-05 
-0.001027844757753371 
0.0001303110644518397 
-0.0007523455770879357 
0 
-0.001042638848731069 
-0.0001303110644518397 
-0.0007523455770879357 
-0.0002188237265547909 
-0.0002963128825743936 
0 
-0.0004312353678508552 
0.0002188237265547909 
-0.0002963128825743936 
0.0005413126788985315 
-0.00131946146949436 
0 
-0.002415746596573598 
-0.0005413126788985315 
-0.00131946146949436 
-4.325616536060935e-05 
0.0005020871484075883 
0 
0.0004852751389406822 
4.325616536060935e-05 
0.0005020871484075883 
0.0003108084238391496 
-0.0008071063109776038 
0 
-0.001455906839551506 
-0.0003108084238391496 
-0.0008071063109776038 
0.0001693857969700739 
-0.0008546467269349742 
0 
-0.001354993883353778 
-0.0001693857969700739 
-0.0008546467269349742 
0.0002984890246055974 
-0.0002896857461540893 
0 
-0.000728903706012666 
-0.0002984890246055974 
-0.0002896857461540893 
-0.0001003160555688989 
-0.000565348374246072 
0 
-0.0004943282943634463 
0.0001003160555688989 
-0.000565348374246072 
-0.0004211718642531774 
0.0005526854519442791 
0 
0.001179374163807676 
0.0004211718642531774 
0.0005526854519442791 
-2.026509583172679e-05 
-0.0007193788572608929 
0 
-0.0008530386666183927 
2.026509583172679e-05 
-0.0007193788572608929 
8.621963259327593e-05 
-0.0008161501427292292 
0 
-0.001301979694781725 
-8.621963259327593e-05 
-0.0008161501427292292 
0.0005412102020848209 
-0.0008393259740860938 
0 
-0.001613818718401181 
-0.0005412102020848209 
-0.0008393259740860938 
-0.0003890417932273352 
-0.0008779843207505037 
0 
-0.0006259978281741869 
0.0003890417932273352 
-0.0008779843207505037 
-4.762211012432417e-05 
0.001670885083201226 
0 
0.002696155394963244 
4.762211012432417e-05 
0.001670885083201226 
-8.247316055227722e-05 
-0.0003186904847429898 
0 
-0.0002087510720120828 
8.247316055227722e-05 
-0.0003186904847429898 
-0.000159324612718115 
-0.0005786328591845983 
0 
-0.0003625726174234333 
0.000159324612718115 
-0.0005786328591845983 
-0.0003446011743845281 
-0.0001429303820298756 
0 
0.0002175105919090512 
0.0003446011743845281 
-0.0001429303820298756 
0.0002264390215988028 
-0.001255272458100321 
0 
-0.002043727402062324 
-0.0002264390215988028 
-0.001255272458100321 
0.0006445686947061342 
-0.0002987275533435929 
0 
-0.0009620806291176086 
-0.0006445686947061342 
-0.0002987275533435929 
-8.326111365165136e-05 
4.422187663678201e-05 
0 
0.0002989146675233364 
8.326111365165136e-05 
4.422187663678201e-05 
-0.0003091384242850966 
-0.0006841830289963773 
0 
-0.0006308545947447354 
0.0003091384242850966 
-0.0006841830289963773 
-0.0001800788727393035 
-0.0008631879472444176 
0 
-0.0009644801050473003 
0.0001800788727393035 
-0.0008631879472444176 
-0.0003751517205109388 
-0.0001391672809962162 
0 
0.0004120048578280889 
0.0003751517205109388 
-0.0001391672809962162 
-0.0006826016642335333 
0.000452339586053718 
0 
0.001561113120587402 
0.0006826016642335333 
0.000452339586053718 
-0.0007028945171422866 
0.000128952118318597 
0 
0.001145556914128862 
0.0007028945171422866 
0.000128952118318597 
0.0001320650684808154 
5.940616072651622e-05 
0 
9.202683874029921e-05 
-0.0001320650684808154 
5.940616072651622e-05 
-0.0003792563237620958 
-0.0003976380471867083 
0 
-0.0002402362018346434 
0.0003792563237620958 
-0.0003976380471867083 
-0.0002737665997571928 
-0.0004778428994790004 
0 
-2.096294213388991e-08 
0.0002737665997571928 
-0.0004778428994790004 
-0.0001882311636903393 
-0.0007836898279517079 
0 
-0.0006525647101018494 
0.0001882311636903393 
-0.0007836898279517079 
-0.0006908664838507076 
-8.867846273985012e-05 
0 
0.0005204127675633372 
0.0006908664838507076 
-8.867846273985012e-05 
-0.00013907623894959 
-0.0008217281652331428 
0 
-0.000888603671924868 
0.00013907623894959 
-0.0008217281652331428 
-0.0007425906375018205 
0.0009822421003787003 
0 
0.002093700245996039 
0.0007425906375018205 
0.0009822421003787003 
-0.0002589064292905649 
0.0001846306862903255 
0 
0.0008216713352061311 
0.0002589064292905649 
0.0001846306862903255 
-8.501089721186398e-05 
-0.0004603551098257651 
0 
-0.000558385043683319 
8.501089721186398e-05 
-0.0004603551098257651 
0.0002778488489989759 
-0.0004193480938163958 
0 
-0.0007110372949022329 
-0.0002778488489989759 
-0.0004193480938163958 
8.859302373828994e-05 
-0.001696482346118658 
0 
-0.001989259807562136 
-8.859302373828994e-05 
-0.001696482346118658 
0.0001658667791816772 
-0.0008750828963001933 
0 
-0.0009424346462483263 
-0.0001658667791816772 
-0.0008750828963001933 
0.0004910515184872765 
-0.001162775533259454 
0 
-0.001822231175267043 
-0.0004910515184872765 
-0.001162775533259454 
-4.275203401037381e-05 
-0.001111507077515898 
0 
-0.001257076304136188 
4.275203401037381e-05 
-0.001111507077515898 
6.079738239975346e-05 
-0.0001165870659309517 
0 
0.0001118362386199853 
-6.079738239975346e-05 
-0.0001165870659309517 
-0.0001510472601591978 
0.0002585604466694757 
0 
0.0007020548943037024 
0.0001510472601591978 
0.0002585604466694757 
0.0003309432574689161 
-0.0002657193503408954 
0 
-0.0006390785164555538 
-0.0003309432574689161 
-0.0002657193503408954 
0.0002304478157303057 
-0.001003470538176315 
0 
-0.001660417307416093 
-0.0002304478157303057 
-0.001003470538176315 
0.0003730282494937378 
-0.001046501053578064 
0 
-0.001865224364818356 
-0.0003730282494937378 
-0.001046501053578064 
0.0003075195547908164 
-0.001426084021949703 
0 
-0.001785865727904162 
-0.0003075195547908164 
-0.001426084021949703 
-5.564740173371652e-05 
-0.001347152684766105 
0 
-0.001226120231284471 
5.564740173371652e-05 
-0.001347152684766105 
0.0005122461571237273 
-0.0007089766568759212 
0 
-0.001339482846631352 
-0.0005122461571237273 
-0.0007089766568759212 
-0.000339411581831114 
0.0004304748295952978 
0 
0.001004271046521561 
0.000339411581831114 
0.0004304748295952978 
-0.0002833011120456532 
-0.0003123443197250217 
0 
-3.818947644288954e-06 
